#pragma once
#include <cstdarg>
namespace Eloquent {
    namespace ML {
        namespace Port {
            class RandomForest {
                public:
                    /**
                    * Predict class for features vector
                    */
                    int predict(float *x) {
                        uint8_t votes[3] = { 0 };
                        // tree #1
                        if (x[139] <= 490.5) {
                            if (x[115] <= 463.5) {
                                if (x[134] <= 410.5) {
                                    if (x[178] <= 547.5) {
                                        if (x[180] <= 65.5) {
                                            if (x[115] <= 256.5) {
                                                votes[2] += 1;
                                            }

                                            else {
                                                votes[0] += 1;
                                            }
                                        }

                                        else {
                                            if (x[157] <= 153.0) {
                                                votes[0] += 1;
                                            }

                                            else {
                                                votes[0] += 1;
                                            }
                                        }
                                    }

                                    else {
                                        if (x[139] <= 421.5) {
                                            if (x[52] <= 426.0) {
                                                votes[2] += 1;
                                            }

                                            else {
                                                votes[2] += 1;
                                            }
                                        }

                                        else {
                                            if (x[29] <= 333.0) {
                                                votes[2] += 1;
                                            }

                                            else {
                                                votes[0] += 1;
                                            }
                                        }
                                    }
                                }

                                else {
                                    if (x[174] <= 455.5) {
                                        if (x[116] <= 522.5) {
                                            if (x[118] <= 551.5) {
                                                votes[0] += 1;
                                            }

                                            else {
                                                votes[0] += 1;
                                            }
                                        }

                                        else {
                                            if (x[13] <= 495.5) {
                                                votes[1] += 1;
                                            }

                                            else {
                                                votes[0] += 1;
                                            }
                                        }
                                    }

                                    else {
                                        if (x[7] <= 1685.5) {
                                            if (x[144] <= 581.5) {
                                                votes[2] += 1;
                                            }

                                            else {
                                                votes[0] += 1;
                                            }
                                        }

                                        else {
                                            if (x[76] <= 182.5) {
                                                votes[0] += 1;
                                            }

                                            else {
                                                votes[2] += 1;
                                            }
                                        }
                                    }
                                }
                            }

                            else {
                                if (x[32] <= 290.0) {
                                    if (x[29] <= 682.5) {
                                        if (x[62] <= 315.5) {
                                            if (x[184] <= 239.5) {
                                                votes[1] += 1;
                                            }

                                            else {
                                                votes[0] += 1;
                                            }
                                        }

                                        else {
                                            if (x[172] <= 317.5) {
                                                votes[1] += 1;
                                            }

                                            else {
                                                votes[0] += 1;
                                            }
                                        }
                                    }

                                    else {
                                        if (x[160] <= 123.5) {
                                            if (x[58] <= 311.5) {
                                                votes[0] += 1;
                                            }

                                            else {
                                                votes[1] += 1;
                                            }
                                        }

                                        else {
                                            if (x[136] <= 1423.5) {
                                                votes[1] += 1;
                                            }

                                            else {
                                                votes[0] += 1;
                                            }
                                        }
                                    }
                                }

                                else {
                                    if (x[92] <= 329.5) {
                                        if (x[98] <= 367.0) {
                                            if (x[156] <= 484.5) {
                                                votes[1] += 1;
                                            }

                                            else {
                                                votes[0] += 1;
                                            }
                                        }

                                        else {
                                            if (x[100] <= 449.5) {
                                                votes[0] += 1;
                                            }

                                            else {
                                                votes[1] += 1;
                                            }
                                        }
                                    }

                                    else {
                                        if (x[142] <= 465.5) {
                                            if (x[157] <= 802.0) {
                                                votes[1] += 1;
                                            }

                                            else {
                                                votes[2] += 1;
                                            }
                                        }

                                        else {
                                            if (x[100] <= 1110.0) {
                                                votes[1] += 1;
                                            }

                                            else {
                                                votes[0] += 1;
                                            }
                                        }
                                    }
                                }
                            }
                        }

                        else {
                            if (x[182] <= 65.0) {
                                if (x[127] <= 368.0) {
                                    if (x[93] <= 302.0) {
                                        if (x[51] <= 279.0) {
                                            if (x[13] <= 1359.0) {
                                                votes[0] += 1;
                                            }

                                            else {
                                                votes[2] += 1;
                                            }
                                        }

                                        else {
                                            if (x[104] <= 297.5) {
                                                votes[2] += 1;
                                            }

                                            else {
                                                votes[0] += 1;
                                            }
                                        }
                                    }

                                    else {
                                        votes[0] += 1;
                                    }
                                }

                                else {
                                    if (x[53] <= 75.0) {
                                        if (x[12] <= 167.5) {
                                            if (x[38] <= 910.0) {
                                                votes[1] += 1;
                                            }

                                            else {
                                                votes[0] += 1;
                                            }
                                        }

                                        else {
                                            votes[1] += 1;
                                        }
                                    }

                                    else {
                                        if (x[37] <= 255.0) {
                                            if (x[142] <= 602.5) {
                                                votes[2] += 1;
                                            }

                                            else {
                                                votes[0] += 1;
                                            }
                                        }

                                        else {
                                            if (x[188] <= 246.5) {
                                                votes[0] += 1;
                                            }

                                            else {
                                                votes[1] += 1;
                                            }
                                        }
                                    }
                                }
                            }

                            else {
                                if (x[152] <= 488.5) {
                                    if (x[55] <= 130.5) {
                                        if (x[23] <= 776.5) {
                                            if (x[163] <= 327.5) {
                                                votes[1] += 1;
                                            }

                                            else {
                                                votes[0] += 1;
                                            }
                                        }

                                        else {
                                            if (x[170] <= 507.0) {
                                                votes[1] += 1;
                                            }

                                            else {
                                                votes[0] += 1;
                                            }
                                        }
                                    }

                                    else {
                                        if (x[100] <= 336.5) {
                                            if (x[108] <= 386.5) {
                                                votes[0] += 1;
                                            }

                                            else {
                                                votes[1] += 1;
                                            }
                                        }

                                        else {
                                            if (x[8] <= 286.5) {
                                                votes[0] += 1;
                                            }

                                            else {
                                                votes[1] += 1;
                                            }
                                        }
                                    }
                                }

                                else {
                                    if (x[120] <= 704.5) {
                                        if (x[130] <= 504.5) {
                                            if (x[170] <= 396.5) {
                                                votes[0] += 1;
                                            }

                                            else {
                                                votes[0] += 1;
                                            }
                                        }

                                        else {
                                            if (x[164] <= 1839.0) {
                                                votes[0] += 1;
                                            }

                                            else {
                                                votes[2] += 1;
                                            }
                                        }
                                    }

                                    else {
                                        if (x[43] <= 670.5) {
                                            if (x[78] <= 133.5) {
                                                votes[1] += 1;
                                            }

                                            else {
                                                votes[0] += 1;
                                            }
                                        }

                                        else {
                                            if (x[97] <= 65.5) {
                                                votes[1] += 1;
                                            }

                                            else {
                                                votes[0] += 1;
                                            }
                                        }
                                    }
                                }
                            }
                        }

                        // tree #2
                        if (x[140] <= 498.5) {
                            if (x[116] <= 469.5) {
                                if (x[134] <= 392.5) {
                                    if (x[146] <= 551.5) {
                                        if (x[108] <= 269.5) {
                                            if (x[176] <= 503.5) {
                                                votes[2] += 1;
                                            }

                                            else {
                                                votes[2] += 1;
                                            }
                                        }

                                        else {
                                            if (x[158] <= 68.0) {
                                                votes[0] += 1;
                                            }

                                            else {
                                                votes[2] += 1;
                                            }
                                        }
                                    }

                                    else {
                                        if (x[109] <= 265.5) {
                                            if (x[108] <= 265.5) {
                                                votes[2] += 1;
                                            }

                                            else {
                                                votes[0] += 1;
                                            }
                                        }

                                        else {
                                            if (x[133] <= 378.5) {
                                                votes[0] += 1;
                                            }

                                            else {
                                                votes[0] += 1;
                                            }
                                        }
                                    }
                                }

                                else {
                                    if (x[140] <= 342.5) {
                                        if (x[136] <= 451.5) {
                                            if (x[114] <= 296.0) {
                                                votes[0] += 1;
                                            }

                                            else {
                                                votes[0] += 1;
                                            }
                                        }

                                        else {
                                            if (x[41] <= 1671.0) {
                                                votes[0] += 1;
                                            }

                                            else {
                                                votes[1] += 1;
                                            }
                                        }
                                    }

                                    else {
                                        if (x[149] <= 591.5) {
                                            if (x[106] <= 268.5) {
                                                votes[2] += 1;
                                            }

                                            else {
                                                votes[0] += 1;
                                            }
                                        }

                                        else {
                                            if (x[76] <= 307.5) {
                                                votes[0] += 1;
                                            }

                                            else {
                                                votes[0] += 1;
                                            }
                                        }
                                    }
                                }
                            }

                            else {
                                if (x[153] <= 499.0) {
                                    if (x[173] <= 211.5) {
                                        if (x[123] <= 995.5) {
                                            if (x[10] <= 221.5) {
                                                votes[1] += 1;
                                            }

                                            else {
                                                votes[1] += 1;
                                            }
                                        }

                                        else {
                                            if (x[2] <= 181.5) {
                                                votes[0] += 1;
                                            }

                                            else {
                                                votes[1] += 1;
                                            }
                                        }
                                    }

                                    else {
                                        if (x[10] <= 578.0) {
                                            if (x[128] <= 760.0) {
                                                votes[1] += 1;
                                            }

                                            else {
                                                votes[1] += 1;
                                            }
                                        }

                                        else {
                                            if (x[25] <= 211.5) {
                                                votes[1] += 1;
                                            }

                                            else {
                                                votes[0] += 1;
                                            }
                                        }
                                    }
                                }

                                else {
                                    if (x[65] <= 360.0) {
                                        if (x[86] <= 308.5) {
                                            if (x[161] <= 621.5) {
                                                votes[0] += 1;
                                            }

                                            else {
                                                votes[2] += 1;
                                            }
                                        }

                                        else {
                                            if (x[186] <= 267.0) {
                                                votes[0] += 1;
                                            }

                                            else {
                                                votes[1] += 1;
                                            }
                                        }
                                    }

                                    else {
                                        votes[2] += 1;
                                    }
                                }
                            }
                        }

                        else {
                            if (x[155] <= 495.5) {
                                if (x[111] <= 460.5) {
                                    if (x[124] <= 555.5) {
                                        if (x[140] <= 555.5) {
                                            if (x[57] <= 216.0) {
                                                votes[0] += 1;
                                            }

                                            else {
                                                votes[2] += 1;
                                            }
                                        }

                                        else {
                                            if (x[7] <= 632.5) {
                                                votes[0] += 1;
                                            }

                                            else {
                                                votes[0] += 1;
                                            }
                                        }
                                    }

                                    else {
                                        if (x[104] <= 67.0) {
                                            if (x[30] <= 603.5) {
                                                votes[1] += 1;
                                            }

                                            else {
                                                votes[1] += 1;
                                            }
                                        }

                                        else {
                                            if (x[152] <= 294.5) {
                                                votes[1] += 1;
                                            }

                                            else {
                                                votes[0] += 1;
                                            }
                                        }
                                    }
                                }

                                else {
                                    if (x[156] <= 446.5) {
                                        if (x[107] <= 134.5) {
                                            if (x[133] <= 827.5) {
                                                votes[1] += 1;
                                            }

                                            else {
                                                votes[0] += 1;
                                            }
                                        }

                                        else {
                                            if (x[100] <= 321.5) {
                                                votes[0] += 1;
                                            }

                                            else {
                                                votes[1] += 1;
                                            }
                                        }
                                    }

                                    else {
                                        if (x[62] <= 221.5) {
                                            if (x[165] <= 421.0) {
                                                votes[0] += 1;
                                            }

                                            else {
                                                votes[1] += 1;
                                            }
                                        }

                                        else {
                                            if (x[165] <= 347.5) {
                                                votes[0] += 1;
                                            }

                                            else {
                                                votes[0] += 1;
                                            }
                                        }
                                    }
                                }
                            }

                            else {
                                if (x[138] <= 562.5) {
                                    if (x[126] <= 267.5) {
                                        if (x[43] <= 1100.5) {
                                            if (x[178] <= 395.5) {
                                                votes[0] += 1;
                                            }

                                            else {
                                                votes[2] += 1;
                                            }
                                        }

                                        else {
                                            if (x[0] <= 83.5) {
                                                votes[0] += 1;
                                            }

                                            else {
                                                votes[0] += 1;
                                            }
                                        }
                                    }

                                    else {
                                        if (x[148] <= 660.5) {
                                            if (x[22] <= 191.5) {
                                                votes[2] += 1;
                                            }

                                            else {
                                                votes[0] += 1;
                                            }
                                        }

                                        else {
                                            if (x[160] <= 648.5) {
                                                votes[0] += 1;
                                            }

                                            else {
                                                votes[0] += 1;
                                            }
                                        }
                                    }
                                }

                                else {
                                    if (x[120] <= 664.5) {
                                        if (x[124] <= 327.5) {
                                            if (x[179] <= 390.5) {
                                                votes[0] += 1;
                                            }

                                            else {
                                                votes[0] += 1;
                                            }
                                        }

                                        else {
                                            if (x[158] <= 543.5) {
                                                votes[0] += 1;
                                            }

                                            else {
                                                votes[0] += 1;
                                            }
                                        }
                                    }

                                    else {
                                        if (x[61] <= 65.0) {
                                            if (x[17] <= 604.0) {
                                                votes[1] += 1;
                                            }

                                            else {
                                                votes[0] += 1;
                                            }
                                        }

                                        else {
                                            if (x[177] <= 1605.0) {
                                                votes[0] += 1;
                                            }

                                            else {
                                                votes[1] += 1;
                                            }
                                        }
                                    }
                                }
                            }
                        }

                        // tree #3
                        if (x[144] <= 543.5) {
                            if (x[116] <= 426.5) {
                                if (x[174] <= 485.5) {
                                    if (x[120] <= 318.5) {
                                        if (x[105] <= 246.5) {
                                            if (x[9] <= 740.5) {
                                                votes[0] += 1;
                                            }

                                            else {
                                                votes[2] += 1;
                                            }
                                        }

                                        else {
                                            if (x[144] <= 240.5) {
                                                votes[0] += 1;
                                            }

                                            else {
                                                votes[2] += 1;
                                            }
                                        }
                                    }

                                    else {
                                        if (x[99] <= 317.5) {
                                            if (x[132] <= 765.5) {
                                                votes[0] += 1;
                                            }

                                            else {
                                                votes[0] += 1;
                                            }
                                        }

                                        else {
                                            if (x[141] <= 356.5) {
                                                votes[1] += 1;
                                            }

                                            else {
                                                votes[2] += 1;
                                            }
                                        }
                                    }
                                }

                                else {
                                    if (x[135] <= 398.5) {
                                        if (x[146] <= 494.5) {
                                            if (x[53] <= 382.5) {
                                                votes[2] += 1;
                                            }

                                            else {
                                                votes[2] += 1;
                                            }
                                        }

                                        else {
                                            if (x[35] <= 339.0) {
                                                votes[2] += 1;
                                            }

                                            else {
                                                votes[2] += 1;
                                            }
                                        }
                                    }

                                    else {
                                        if (x[135] <= 510.0) {
                                            if (x[3] <= 1000.0) {
                                                votes[2] += 1;
                                            }

                                            else {
                                                votes[2] += 1;
                                            }
                                        }

                                        else {
                                            if (x[14] <= 1297.0) {
                                                votes[0] += 1;
                                            }

                                            else {
                                                votes[2] += 1;
                                            }
                                        }
                                    }
                                }
                            }

                            else {
                                if (x[149] <= 361.5) {
                                    if (x[166] <= 65.5) {
                                        if (x[150] <= 157.0) {
                                            if (x[29] <= 732.5) {
                                                votes[0] += 1;
                                            }

                                            else {
                                                votes[1] += 1;
                                            }
                                        }

                                        else {
                                            votes[1] += 1;
                                        }
                                    }

                                    else {
                                        if (x[153] <= 257.5) {
                                            if (x[165] <= 358.5) {
                                                votes[1] += 1;
                                            }

                                            else {
                                                votes[0] += 1;
                                            }
                                        }

                                        else {
                                            if (x[118] <= 989.0) {
                                                votes[1] += 1;
                                            }

                                            else {
                                                votes[1] += 1;
                                            }
                                        }
                                    }
                                }

                                else {
                                    if (x[109] <= 480.5) {
                                        if (x[10] <= 288.5) {
                                            if (x[101] <= 86.5) {
                                                votes[1] += 1;
                                            }

                                            else {
                                                votes[0] += 1;
                                            }
                                        }

                                        else {
                                            if (x[113] <= 456.5) {
                                                votes[0] += 1;
                                            }

                                            else {
                                                votes[1] += 1;
                                            }
                                        }
                                    }

                                    else {
                                        if (x[129] <= 472.5) {
                                            if (x[4] <= 696.0) {
                                                votes[1] += 1;
                                            }

                                            else {
                                                votes[2] += 1;
                                            }
                                        }

                                        else {
                                            if (x[157] <= 383.5) {
                                                votes[1] += 1;
                                            }

                                            else {
                                                votes[0] += 1;
                                            }
                                        }
                                    }
                                }
                            }
                        }

                        else {
                            if (x[124] <= 552.5) {
                                if (x[174] <= 473.5) {
                                    if (x[138] <= 559.5) {
                                        if (x[166] <= 541.5) {
                                            if (x[76] <= 192.5) {
                                                votes[0] += 1;
                                            }

                                            else {
                                                votes[0] += 1;
                                            }
                                        }

                                        else {
                                            if (x[98] <= 229.5) {
                                                votes[0] += 1;
                                            }

                                            else {
                                                votes[0] += 1;
                                            }
                                        }
                                    }

                                    else {
                                        if (x[160] <= 466.5) {
                                            if (x[106] <= 74.5) {
                                                votes[0] += 1;
                                            }

                                            else {
                                                votes[0] += 1;
                                            }
                                        }

                                        else {
                                            if (x[134] <= 495.5) {
                                                votes[0] += 1;
                                            }

                                            else {
                                                votes[0] += 1;
                                            }
                                        }
                                    }
                                }

                                else {
                                    if (x[79] <= 464.5) {
                                        if (x[166] <= 1140.5) {
                                            if (x[130] <= 537.5) {
                                                votes[0] += 1;
                                            }

                                            else {
                                                votes[0] += 1;
                                            }
                                        }

                                        else {
                                            if (x[59] <= 220.5) {
                                                votes[0] += 1;
                                            }

                                            else {
                                                votes[0] += 1;
                                            }
                                        }
                                    }

                                    else {
                                        if (x[1] <= 199.0) {
                                            if (x[131] <= 404.0) {
                                                votes[2] += 1;
                                            }

                                            else {
                                                votes[0] += 1;
                                            }
                                        }

                                        else {
                                            votes[0] += 1;
                                        }
                                    }
                                }
                            }

                            else {
                                if (x[92] <= 123.0) {
                                    if (x[127] <= 927.5) {
                                        if (x[98] <= 230.5) {
                                            if (x[169] <= 460.0) {
                                                votes[1] += 1;
                                            }

                                            else {
                                                votes[0] += 1;
                                            }
                                        }

                                        else {
                                            votes[0] += 1;
                                        }
                                    }

                                    else {
                                        if (x[25] <= 728.5) {
                                            if (x[69] <= 120.0) {
                                                votes[2] += 1;
                                            }

                                            else {
                                                votes[0] += 1;
                                            }
                                        }

                                        else {
                                            if (x[98] <= 108.5) {
                                                votes[1] += 1;
                                            }

                                            else {
                                                votes[0] += 1;
                                            }
                                        }
                                    }
                                }

                                else {
                                    if (x[55] <= 65.0) {
                                        if (x[99] <= 307.5) {
                                            if (x[25] <= 781.0) {
                                                votes[0] += 1;
                                            }

                                            else {
                                                votes[1] += 1;
                                            }
                                        }

                                        else {
                                            if (x[50] <= 1084.0) {
                                                votes[1] += 1;
                                            }

                                            else {
                                                votes[0] += 1;
                                            }
                                        }
                                    }

                                    else {
                                        if (x[105] <= 360.5) {
                                            if (x[65] <= 265.5) {
                                                votes[0] += 1;
                                            }

                                            else {
                                                votes[0] += 1;
                                            }
                                        }

                                        else {
                                            if (x[157] <= 287.5) {
                                                votes[1] += 1;
                                            }

                                            else {
                                                votes[0] += 1;
                                            }
                                        }
                                    }
                                }
                            }
                        }

                        // tree #4
                        if (x[135] <= 433.5) {
                            if (x[180] <= 538.0) {
                                if (x[112] <= 481.0) {
                                    if (x[112] <= 286.5) {
                                        if (x[129] <= 500.0) {
                                            if (x[131] <= 346.5) {
                                                votes[2] += 1;
                                            }

                                            else {
                                                votes[0] += 1;
                                            }
                                        }

                                        else {
                                            if (x[92] <= 259.5) {
                                                votes[0] += 1;
                                            }

                                            else {
                                                votes[1] += 1;
                                            }
                                        }
                                    }

                                    else {
                                        if (x[176] <= 425.5) {
                                            if (x[77] <= 314.5) {
                                                votes[0] += 1;
                                            }

                                            else {
                                                votes[0] += 1;
                                            }
                                        }

                                        else {
                                            if (x[46] <= 391.0) {
                                                votes[2] += 1;
                                            }

                                            else {
                                                votes[0] += 1;
                                            }
                                        }
                                    }
                                }

                                else {
                                    if (x[34] <= 256.5) {
                                        if (x[188] <= 341.5) {
                                            if (x[29] <= 736.5) {
                                                votes[0] += 1;
                                            }

                                            else {
                                                votes[1] += 1;
                                            }
                                        }

                                        else {
                                            votes[0] += 1;
                                        }
                                    }

                                    else {
                                        if (x[150] <= 485.0) {
                                            if (x[147] <= 298.5) {
                                                votes[1] += 1;
                                            }

                                            else {
                                                votes[1] += 1;
                                            }
                                        }

                                        else {
                                            if (x[184] <= 261.5) {
                                                votes[0] += 1;
                                            }

                                            else {
                                                votes[1] += 1;
                                            }
                                        }
                                    }
                                }
                            }

                            else {
                                if (x[149] <= 532.5) {
                                    if (x[49] <= 456.0) {
                                        if (x[165] <= 644.5) {
                                            if (x[134] <= 365.5) {
                                                votes[2] += 1;
                                            }

                                            else {
                                                votes[2] += 1;
                                            }
                                        }

                                        else {
                                            if (x[32] <= 447.0) {
                                                votes[2] += 1;
                                            }

                                            else {
                                                votes[2] += 1;
                                            }
                                        }
                                    }

                                    else {
                                        if (x[151] <= 342.5) {
                                            if (x[158] <= 289.0) {
                                                votes[0] += 1;
                                            }

                                            else {
                                                votes[2] += 1;
                                            }
                                        }

                                        else {
                                            if (x[66] <= 410.5) {
                                                votes[2] += 1;
                                            }

                                            else {
                                                votes[0] += 1;
                                            }
                                        }
                                    }
                                }

                                else {
                                    if (x[51] <= 375.0) {
                                        if (x[177] <= 802.0) {
                                            if (x[27] <= 361.5) {
                                                votes[2] += 1;
                                            }

                                            else {
                                                votes[0] += 1;
                                            }
                                        }

                                        else {
                                            if (x[169] <= 769.0) {
                                                votes[2] += 1;
                                            }

                                            else {
                                                votes[2] += 1;
                                            }
                                        }
                                    }

                                    else {
                                        if (x[30] <= 494.0) {
                                            votes[2] += 1;
                                        }

                                        else {
                                            if (x[122] <= 364.0) {
                                                votes[0] += 1;
                                            }

                                            else {
                                                votes[2] += 1;
                                            }
                                        }
                                    }
                                }
                            }
                        }

                        else {
                            if (x[150] <= 435.5) {
                                if (x[122] <= 497.0) {
                                    if (x[138] <= 620.5) {
                                        if (x[100] <= 262.0) {
                                            if (x[130] <= 512.5) {
                                                votes[2] += 1;
                                            }

                                            else {
                                                votes[0] += 1;
                                            }
                                        }

                                        else {
                                            if (x[100] <= 441.5) {
                                                votes[0] += 1;
                                            }

                                            else {
                                                votes[1] += 1;
                                            }
                                        }
                                    }

                                    else {
                                        if (x[13] <= 257.0) {
                                            if (x[1] <= 238.0) {
                                                votes[0] += 1;
                                            }

                                            else {
                                                votes[0] += 1;
                                            }
                                        }

                                        else {
                                            if (x[168] <= 254.0) {
                                                votes[1] += 1;
                                            }

                                            else {
                                                votes[0] += 1;
                                            }
                                        }
                                    }
                                }

                                else {
                                    if (x[150] <= 314.5) {
                                        if (x[144] <= 1378.0) {
                                            if (x[9] <= 241.5) {
                                                votes[1] += 1;
                                            }

                                            else {
                                                votes[1] += 1;
                                            }
                                        }

                                        else {
                                            if (x[154] <= 137.0) {
                                                votes[0] += 1;
                                            }

                                            else {
                                                votes[1] += 1;
                                            }
                                        }
                                    }

                                    else {
                                        if (x[50] <= 629.5) {
                                            if (x[36] <= 428.0) {
                                                votes[0] += 1;
                                            }

                                            else {
                                                votes[1] += 1;
                                            }
                                        }

                                        else {
                                            if (x[7] <= 274.5) {
                                                votes[0] += 1;
                                            }

                                            else {
                                                votes[1] += 1;
                                            }
                                        }
                                    }
                                }
                            }

                            else {
                                if (x[168] <= 449.5) {
                                    if (x[148] <= 592.5) {
                                        if (x[95] <= 65.5) {
                                            if (x[135] <= 827.5) {
                                                votes[1] += 1;
                                            }

                                            else {
                                                votes[0] += 1;
                                            }
                                        }

                                        else {
                                            if (x[59] <= 405.5) {
                                                votes[0] += 1;
                                            }

                                            else {
                                                votes[0] += 1;
                                            }
                                        }
                                    }

                                    else {
                                        if (x[154] <= 594.5) {
                                            if (x[59] <= 131.0) {
                                                votes[1] += 1;
                                            }

                                            else {
                                                votes[0] += 1;
                                            }
                                        }

                                        else {
                                            if (x[124] <= 1171.5) {
                                                votes[0] += 1;
                                            }

                                            else {
                                                votes[0] += 1;
                                            }
                                        }
                                    }
                                }

                                else {
                                    if (x[37] <= 210.5) {
                                        if (x[45] <= 67.0) {
                                            if (x[174] <= 1045.5) {
                                                votes[0] += 1;
                                            }

                                            else {
                                                votes[2] += 1;
                                            }
                                        }

                                        else {
                                            if (x[97] <= 257.5) {
                                                votes[2] += 1;
                                            }

                                            else {
                                                votes[0] += 1;
                                            }
                                        }
                                    }

                                    else {
                                        if (x[123] <= 589.5) {
                                            if (x[132] <= 492.5) {
                                                votes[0] += 1;
                                            }

                                            else {
                                                votes[0] += 1;
                                            }
                                        }

                                        else {
                                            if (x[157] <= 1549.5) {
                                                votes[0] += 1;
                                            }

                                            else {
                                                votes[1] += 1;
                                            }
                                        }
                                    }
                                }
                            }
                        }

                        // tree #5
                        if (x[135] <= 433.5) {
                            if (x[121] <= 427.5) {
                                if (x[184] <= 558.5) {
                                    if (x[132] <= 452.5) {
                                        if (x[146] <= 560.5) {
                                            if (x[175] <= 651.0) {
                                                votes[2] += 1;
                                            }

                                            else {
                                                votes[2] += 1;
                                            }
                                        }

                                        else {
                                            if (x[112] <= 267.5) {
                                                votes[0] += 1;
                                            }

                                            else {
                                                votes[0] += 1;
                                            }
                                        }
                                    }

                                    else {
                                        if (x[116] <= 513.5) {
                                            if (x[13] <= 846.5) {
                                                votes[0] += 1;
                                            }

                                            else {
                                                votes[0] += 1;
                                            }
                                        }

                                        else {
                                            if (x[181] <= 244.0) {
                                                votes[0] += 1;
                                            }

                                            else {
                                                votes[1] += 1;
                                            }
                                        }
                                    }
                                }

                                else {
                                    if (x[53] <= 400.5) {
                                        if (x[141] <= 421.5) {
                                            if (x[145] <= 511.0) {
                                                votes[2] += 1;
                                            }

                                            else {
                                                votes[0] += 1;
                                            }
                                        }

                                        else {
                                            if (x[39] <= 512.5) {
                                                votes[2] += 1;
                                            }

                                            else {
                                                votes[0] += 1;
                                            }
                                        }
                                    }

                                    else {
                                        if (x[12] <= 244.0) {
                                            if (x[147] <= 113.0) {
                                                votes[2] += 1;
                                            }

                                            else {
                                                votes[0] += 1;
                                            }
                                        }

                                        else {
                                            if (x[144] <= 369.0) {
                                                votes[2] += 1;
                                            }

                                            else {
                                                votes[0] += 1;
                                            }
                                        }
                                    }
                                }
                            }

                            else {
                                if (x[109] <= 464.5) {
                                    if (x[126] <= 692.0) {
                                        if (x[174] <= 890.0) {
                                            if (x[92] <= 87.0) {
                                                votes[2] += 1;
                                            }

                                            else {
                                                votes[0] += 1;
                                            }
                                        }

                                        else {
                                            if (x[38] <= 444.0) {
                                                votes[2] += 1;
                                            }

                                            else {
                                                votes[0] += 1;
                                            }
                                        }
                                    }

                                    else {
                                        if (x[149] <= 638.0) {
                                            if (x[130] <= 908.0) {
                                                votes[1] += 1;
                                            }

                                            else {
                                                votes[0] += 1;
                                            }
                                        }

                                        else {
                                            if (x[83] <= 321.0) {
                                                votes[0] += 1;
                                            }

                                            else {
                                                votes[1] += 1;
                                            }
                                        }
                                    }
                                }

                                else {
                                    if (x[40] <= 207.5) {
                                        if (x[134] <= 504.5) {
                                            if (x[180] <= 190.5) {
                                                votes[1] += 1;
                                            }

                                            else {
                                                votes[0] += 1;
                                            }
                                        }

                                        else {
                                            if (x[33] <= 340.0) {
                                                votes[0] += 1;
                                            }

                                            else {
                                                votes[1] += 1;
                                            }
                                        }
                                    }

                                    else {
                                        if (x[166] <= 406.5) {
                                            if (x[175] <= 371.0) {
                                                votes[1] += 1;
                                            }

                                            else {
                                                votes[0] += 1;
                                            }
                                        }

                                        else {
                                            if (x[55] <= 308.0) {
                                                votes[0] += 1;
                                            }

                                            else {
                                                votes[2] += 1;
                                            }
                                        }
                                    }
                                }
                            }
                        }

                        else {
                            if (x[158] <= 455.5) {
                                if (x[106] <= 399.5) {
                                    if (x[153] <= 420.5) {
                                        if (x[164] <= 65.5) {
                                            if (x[147] <= 1188.0) {
                                                votes[0] += 1;
                                            }

                                            else {
                                                votes[0] += 1;
                                            }
                                        }

                                        else {
                                            if (x[55] <= 130.5) {
                                                votes[1] += 1;
                                            }

                                            else {
                                                votes[0] += 1;
                                            }
                                        }
                                    }

                                    else {
                                        if (x[57] <= 65.5) {
                                            if (x[102] <= 100.5) {
                                                votes[1] += 1;
                                            }

                                            else {
                                                votes[0] += 1;
                                            }
                                        }

                                        else {
                                            if (x[119] <= 583.5) {
                                                votes[0] += 1;
                                            }

                                            else {
                                                votes[0] += 1;
                                            }
                                        }
                                    }
                                }

                                else {
                                    if (x[161] <= 283.5) {
                                        if (x[136] <= 543.5) {
                                            if (x[58] <= 241.0) {
                                                votes[1] += 1;
                                            }

                                            else {
                                                votes[1] += 1;
                                            }
                                        }

                                        else {
                                            if (x[17] <= 338.5) {
                                                votes[1] += 1;
                                            }

                                            else {
                                                votes[1] += 1;
                                            }
                                        }
                                    }

                                    else {
                                        if (x[142] <= 516.5) {
                                            if (x[35] <= 303.5) {
                                                votes[0] += 1;
                                            }

                                            else {
                                                votes[1] += 1;
                                            }
                                        }

                                        else {
                                            if (x[3] <= 219.5) {
                                                votes[0] += 1;
                                            }

                                            else {
                                                votes[1] += 1;
                                            }
                                        }
                                    }
                                }
                            }

                            else {
                                if (x[135] <= 521.5) {
                                    if (x[149] <= 642.5) {
                                        if (x[179] <= 1088.0) {
                                            if (x[188] <= 247.5) {
                                                votes[0] += 1;
                                            }

                                            else {
                                                votes[2] += 1;
                                            }
                                        }

                                        else {
                                            if (x[55] <= 353.0) {
                                                votes[2] += 1;
                                            }

                                            else {
                                                votes[0] += 1;
                                            }
                                        }
                                    }

                                    else {
                                        if (x[46] <= 605.5) {
                                            if (x[87] <= 175.5) {
                                                votes[0] += 1;
                                            }

                                            else {
                                                votes[0] += 1;
                                            }
                                        }

                                        else {
                                            if (x[114] <= 273.5) {
                                                votes[2] += 1;
                                            }

                                            else {
                                                votes[0] += 1;
                                            }
                                        }
                                    }
                                }

                                else {
                                    if (x[122] <= 703.0) {
                                        if (x[118] <= 994.0) {
                                            if (x[120] <= 380.5) {
                                                votes[0] += 1;
                                            }

                                            else {
                                                votes[0] += 1;
                                            }
                                        }

                                        else {
                                            if (x[13] <= 383.5) {
                                                votes[1] += 1;
                                            }

                                            else {
                                                votes[0] += 1;
                                            }
                                        }
                                    }

                                    else {
                                        if (x[92] <= 123.0) {
                                            if (x[69] <= 154.5) {
                                                votes[0] += 1;
                                            }

                                            else {
                                                votes[1] += 1;
                                            }
                                        }

                                        else {
                                            if (x[130] <= 1433.0) {
                                                votes[0] += 1;
                                            }

                                            else {
                                                votes[0] += 1;
                                            }
                                        }
                                    }
                                }
                            }
                        }

                        // tree #6
                        if (x[137] <= 450.5) {
                            if (x[173] <= 488.5) {
                                if (x[118] <= 481.5) {
                                    if (x[178] <= 435.0) {
                                        if (x[180] <= 67.5) {
                                            if (x[96] <= 257.5) {
                                                votes[2] += 1;
                                            }

                                            else {
                                                votes[0] += 1;
                                            }
                                        }

                                        else {
                                            if (x[93] <= 764.5) {
                                                votes[0] += 1;
                                            }

                                            else {
                                                votes[1] += 1;
                                            }
                                        }
                                    }

                                    else {
                                        if (x[128] <= 312.0) {
                                            if (x[50] <= 479.0) {
                                                votes[2] += 1;
                                            }

                                            else {
                                                votes[0] += 1;
                                            }
                                        }

                                        else {
                                            if (x[140] <= 442.5) {
                                                votes[2] += 1;
                                            }

                                            else {
                                                votes[0] += 1;
                                            }
                                        }
                                    }
                                }

                                else {
                                    if (x[152] <= 484.0) {
                                        if (x[188] <= 221.5) {
                                            if (x[122] <= 171.0) {
                                                votes[0] += 1;
                                            }

                                            else {
                                                votes[1] += 1;
                                            }
                                        }

                                        else {
                                            if (x[37] <= 576.5) {
                                                votes[0] += 1;
                                            }

                                            else {
                                                votes[1] += 1;
                                            }
                                        }
                                    }

                                    else {
                                        if (x[100] <= 358.0) {
                                            if (x[59] <= 234.5) {
                                                votes[0] += 1;
                                            }

                                            else {
                                                votes[0] += 1;
                                            }
                                        }

                                        else {
                                            if (x[151] <= 994.0) {
                                                votes[1] += 1;
                                            }

                                            else {
                                                votes[2] += 1;
                                            }
                                        }
                                    }
                                }
                            }

                            else {
                                if (x[152] <= 581.5) {
                                    if (x[138] <= 426.5) {
                                        if (x[42] <= 435.5) {
                                            if (x[133] <= 357.5) {
                                                votes[2] += 1;
                                            }

                                            else {
                                                votes[2] += 1;
                                            }
                                        }

                                        else {
                                            if (x[109] <= 197.5) {
                                                votes[2] += 1;
                                            }

                                            else {
                                                votes[2] += 1;
                                            }
                                        }
                                    }

                                    else {
                                        if (x[19] <= 95.5) {
                                            if (x[12] <= 1004.0) {
                                                votes[2] += 1;
                                            }

                                            else {
                                                votes[2] += 1;
                                            }
                                        }

                                        else {
                                            if (x[81] <= 220.5) {
                                                votes[0] += 1;
                                            }

                                            else {
                                                votes[2] += 1;
                                            }
                                        }
                                    }
                                }

                                else {
                                    if (x[119] <= 255.5) {
                                        if (x[32] <= 843.0) {
                                            if (x[173] <= 1434.5) {
                                                votes[2] += 1;
                                            }

                                            else {
                                                votes[0] += 1;
                                            }
                                        }

                                        else {
                                            if (x[118] <= 242.5) {
                                                votes[0] += 1;
                                            }

                                            else {
                                                votes[2] += 1;
                                            }
                                        }
                                    }

                                    else {
                                        if (x[148] <= 625.5) {
                                            if (x[99] <= 274.5) {
                                                votes[2] += 1;
                                            }

                                            else {
                                                votes[0] += 1;
                                            }
                                        }

                                        else {
                                            if (x[33] <= 110.0) {
                                                votes[2] += 1;
                                            }

                                            else {
                                                votes[0] += 1;
                                            }
                                        }
                                    }
                                }
                            }
                        }

                        else {
                            if (x[150] <= 450.5) {
                                if (x[144] <= 449.5) {
                                    if (x[180] <= 130.5) {
                                        if (x[37] <= 500.5) {
                                            if (x[56] <= 260.5) {
                                                votes[0] += 1;
                                            }

                                            else {
                                                votes[2] += 1;
                                            }
                                        }

                                        else {
                                            if (x[168] <= 86.0) {
                                                votes[2] += 1;
                                            }

                                            else {
                                                votes[1] += 1;
                                            }
                                        }
                                    }

                                    else {
                                        if (x[186] <= 317.5) {
                                            if (x[126] <= 590.0) {
                                                votes[0] += 1;
                                            }

                                            else {
                                                votes[1] += 1;
                                            }
                                        }

                                        else {
                                            if (x[10] <= 422.5) {
                                                votes[1] += 1;
                                            }

                                            else {
                                                votes[0] += 1;
                                            }
                                        }
                                    }
                                }

                                else {
                                    if (x[109] <= 431.5) {
                                        if (x[62] <= 267.5) {
                                            if (x[51] <= 66.5) {
                                                votes[1] += 1;
                                            }

                                            else {
                                                votes[0] += 1;
                                            }
                                        }

                                        else {
                                            if (x[51] <= 196.5) {
                                                votes[1] += 1;
                                            }

                                            else {
                                                votes[0] += 1;
                                            }
                                        }
                                    }

                                    else {
                                        if (x[100] <= 301.5) {
                                            if (x[100] <= 203.5) {
                                                votes[1] += 1;
                                            }

                                            else {
                                                votes[0] += 1;
                                            }
                                        }

                                        else {
                                            if (x[11] <= 302.5) {
                                                votes[1] += 1;
                                            }

                                            else {
                                                votes[1] += 1;
                                            }
                                        }
                                    }
                                }
                            }

                            else {
                                if (x[122] <= 533.5) {
                                    if (x[180] <= 373.5) {
                                        if (x[131] <= 485.5) {
                                            if (x[6] <= 1646.5) {
                                                votes[0] += 1;
                                            }

                                            else {
                                                votes[2] += 1;
                                            }
                                        }

                                        else {
                                            if (x[164] <= 442.5) {
                                                votes[0] += 1;
                                            }

                                            else {
                                                votes[0] += 1;
                                            }
                                        }
                                    }

                                    else {
                                        if (x[130] <= 1134.5) {
                                            if (x[143] <= 546.5) {
                                                votes[0] += 1;
                                            }

                                            else {
                                                votes[0] += 1;
                                            }
                                        }

                                        else {
                                            if (x[138] <= 885.5) {
                                                votes[1] += 1;
                                            }

                                            else {
                                                votes[0] += 1;
                                            }
                                        }
                                    }
                                }

                                else {
                                    if (x[96] <= 65.5) {
                                        if (x[25] <= 718.0) {
                                            if (x[132] <= 852.5) {
                                                votes[1] += 1;
                                            }

                                            else {
                                                votes[0] += 1;
                                            }
                                        }

                                        else {
                                            if (x[129] <= 987.0) {
                                                votes[1] += 1;
                                            }

                                            else {
                                                votes[0] += 1;
                                            }
                                        }
                                    }

                                    else {
                                        if (x[29] <= 789.5) {
                                            if (x[98] <= 222.5) {
                                                votes[0] += 1;
                                            }

                                            else {
                                                votes[0] += 1;
                                            }
                                        }

                                        else {
                                            if (x[103] <= 67.0) {
                                                votes[1] += 1;
                                            }

                                            else {
                                                votes[0] += 1;
                                            }
                                        }
                                    }
                                }
                            }
                        }

                        // tree #7
                        if (x[139] <= 495.5) {
                            if (x[116] <= 482.5) {
                                if (x[150] <= 622.5) {
                                    if (x[174] <= 472.5) {
                                        if (x[86] <= 214.5) {
                                            if (x[124] <= 394.5) {
                                                votes[2] += 1;
                                            }

                                            else {
                                                votes[0] += 1;
                                            }
                                        }

                                        else {
                                            if (x[110] <= 429.0) {
                                                votes[0] += 1;
                                            }

                                            else {
                                                votes[1] += 1;
                                            }
                                        }
                                    }

                                    else {
                                        if (x[144] <= 466.5) {
                                            if (x[57] <= 373.5) {
                                                votes[2] += 1;
                                            }

                                            else {
                                                votes[0] += 1;
                                            }
                                        }

                                        else {
                                            if (x[36] <= 692.5) {
                                                votes[2] += 1;
                                            }

                                            else {
                                                votes[0] += 1;
                                            }
                                        }
                                    }
                                }

                                else {
                                    if (x[135] <= 477.5) {
                                        if (x[113] <= 270.5) {
                                            if (x[124] <= 320.5) {
                                                votes[0] += 1;
                                            }

                                            else {
                                                votes[0] += 1;
                                            }
                                        }

                                        else {
                                            if (x[174] <= 1061.5) {
                                                votes[0] += 1;
                                            }

                                            else {
                                                votes[2] += 1;
                                            }
                                        }
                                    }

                                    else {
                                        if (x[189] <= 349.0) {
                                            if (x[161] <= 1758.5) {
                                                votes[0] += 1;
                                            }

                                            else {
                                                votes[1] += 1;
                                            }
                                        }

                                        else {
                                            if (x[152] <= 1498.5) {
                                                votes[0] += 1;
                                            }

                                            else {
                                                votes[2] += 1;
                                            }
                                        }
                                    }
                                }
                            }

                            else {
                                if (x[150] <= 449.0) {
                                    if (x[103] <= 1179.5) {
                                        if (x[31] <= 594.0) {
