{"learner":{"attributes":{"scikit_learn":"{\"_estimator_type\": \"classifier\"}"},"feature_names":["32","61","62","63","64","65","66","67","68","69","70","71","72","73","74","75","76","77","78","79","80","81","82","83","84","85","86","87","89","127","129","130","131","132","133","134","135","136","137","138","139","140","141","142","143","144","145","146","147","148","149","150","151","152","153","154","155","156","157","158","159","160","161","162","163","164","165","166","167","168","169","170","171","172","173","174","175","176","177","178","179","180","181","182","183","184","185","186","187","188","189","190","191","192","194","196","197","198","199","200","201","202","203","204","205","206","207","208","209","210","211","212","213","214","215","216","217","218","220","222"],"feature_types":["int","int","int","int","int","int","int","int","int","int","int","int","int","int","int","int","int","int","int","int","int","int","int","int","int","int","int","int","int","int","int","int","int","int","int","int","int","int","int","int","int","int","int","int","int","int","int","int","int","int","int","int","int","int","int","int","int","int","int","int","int","int","int","int","int","int","int","int","int","int","int","int","int","int","int","int","int","int","int","int","int","int","int","int","int","int","int","int","int","int","int","int","int","int","int","int","int","int","int","int","int","int","int","int","int","int","int","int","int","int","int","int","int","int","int","int","int","int","int","int"],"gradient_booster":{"model":{"gbtree_model_param":{"num_parallel_tree":"1","num_trees":"300"},"iteration_indptr":[0,3,6,9,12,15,18,21,24,27,30,33,36,39,42,45,48,51,54,57,60,63,66,69,72,75,78,81,84,87,90,93,96,99,102,105,108,111,114,117,120,123,126,129,132,135,138,141,144,147,150,153,156,159,162,165,168,171,174,177,180,183,186,189,192,195,198,201,204,207,210,213,216,219,222,225,228,231,234,237,240,243,246,249,252,255,258,261,264,267,270,273,276,279,282,285,288,291,294,297,300],"tree_info":[0,1,2,0,1,2,0,1,2,0,1,2,0,1,2,0,1,2,0,1,2,0,1,2,0,1,2,0,1,2,0,1,2,0,1,2,0,1,2,0,1,2,0,1,2,0,1,2,0,1,2,0,1,2,0,1,2,0,1,2,0,1,2,0,1,2,0,1,2,0,1,2,0,1,2,0,1,2,0,1,2,0,1,2,0,1,2,0,1,2,0,1,2,0,1,2,0,1,2,0,1,2,0,1,2,0,1,2,0,1,2,0,1,2,0,1,2,0,1,2,0,1,2,0,1,2,0,1,2,0,1,2,0,1,2,0,1,2,0,1,2,0,1,2,0,1,2,0,1,2,0,1,2,0,1,2,0,1,2,0,1,2,0,1,2,0,1,2,0,1,2,0,1,2,0,1,2,0,1,2,0,1,2,0,1,2,0,1,2,0,1,2,0,1,2,0,1,2,0,1,2,0,1,2,0,1,2,0,1,2,0,1,2,0,1,2,0,1,2,0,1,2,0,1,2,0,1,2,0,1,2,0,1,2,0,1,2,0,1,2,0,1,2,0,1,2,0,1,2,0,1,2,0,1,2,0,1,2,0,1,2,0,1,2,0,1,2,0,1,2,0,1,2,0,1,2,0,1,2,0,1,2,0,1,2,0,1,2,0,1,2,0,1,2,0,1,2,0,1,2],"trees":[{"base_weights":[5.470932E-1,3.5260856E-2,9.6524036E-1,2.2960332E-1,-3.110913E-1,4.157998E-1,1.0043408E0,1.6633831E-2,5.4993266E-1,-4.4389135E-1,1.65935E-1,-1.2219964E-1,7.926421E-1,7.676026E-1,1.0769979E0,-6.2188487E-2,8.947934E-2,3.5762855E-1,1.133053E-1,-1.4484195E-1,5.6485347E-2,1.4466118E-2,1.6273063E-1,1.5623471E-1,-1.0987887E-1,2.8720853E-1,1.108153E-1,6.822156E-2,2.4567635E-1,2.4784039E-1,3.3325872E-1],"categories":[],"categories_nodes":[],"categories_segments":[],"categories_sizes":[],"default_left":[0,0,0,0,0,0,0,0,0,0,0,0,0,0,0,0,0,0,0,0,0,0,0,0,0,0,0,0,0,0,0],"id":0,"left_children":[1,3,5,7,9,11,13,15,17,19,21,23,25,27,29,-1,-1,-1,-1,-1,-1,-1,-1,-1,-1,-1,-1,-1,-1,-1,-1],"loss_changes":[2.3033342E3,3.258638E2,1.2683301E2,2.1154225E2,1.10308136E2,8.0224594E1,9.427588E1,1.1759434E2,1.3652359E2,3.3584076E1,1.6800518E1,2.5874668E1,1.5859879E1,3.5904907E1,3.5001465E1,0E0,0E0,0E0,0E0,0E0,0E0,0E0,0E0,0E0,0E0,0E0,0E0,0E0,0E0,0E0,0E0],"parents":[2147483647,0,0,1,1,2,2,3,3,4,4,5,5,6,6,7,7,8,8,9,9,10,10,11,11,12,12,13,13,14,14],"right_children":[2,4,6,8,10,12,14,16,18,20,22,24,26,28,30,-1,-1,-1,-1,-1,-1,-1,-1,-1,-1,-1,-1,-1,-1,-1,-1],"split_conditions":[5.45E2,5.78E2,1.47E2,2.44E2,4.14E2,5.39E2,6.32E2,4.71E2,1.38E2,3.9E2,6.99E2,6.88E2,3.6E2,1.88E2,4.24E2,-6.2188487E-2,8.947934E-2,3.5762855E-1,1.133053E-1,-1.4484195E-1,5.6485347E-2,1.4466118E-2,1.6273063E-1,1.5623471E-1,-1.0987887E-1,2.8720853E-1,1.108153E-1,6.822156E-2,2.4567635E-1,2.4784039E-1,3.3325872E-1],"split_indices":[81,113,39,113,75,91,81,79,97,28,6,2,113,12,71,0,0,0,0,0,0,0,0,0,0,0,0,0,0,0,0],"split_type":[0,0,0,0,0,0,0,0,0,0,0,0,0,0,0,0,0,0,0,0,0,0,0,0,0,0,0,0,0,0,0],"sum_hessian":[1.0761333E4,4.839111E3,5.9222217E3,3.0999998E3,1.739111E3,3.942222E2,5.5279995E3,1.8626665E3,1.2373333E3,1.3604443E3,3.7866666E2,1.6266666E2,2.3155554E2,1.3008888E3,4.227111E3,1.0377777E3,8.2488885E2,2.6044443E2,9.7688885E2,1.2817777E3,7.8666664E1,2.893333E2,8.933333E1,4.4444443E1,1.1822221E2,1.6577777E2,6.577777E1,1.1333333E2,1.1875555E3,5.0577774E2,3.721333E3],"tree_param":{"num_deleted":"0","num_feature":"120","num_nodes":"31","size_leaf_vector":"1"}},{"base_weights":[-3.863475E-1,-6.2459844E-1,3.7426972E-1,-6.8185836E-1,-2.2295763E-1,7.539675E-1,2.005846E-2,-7.212858E-1,-5.1378393E-1,6.80597E-1,-3.331712E-1,1.1215205E0,5.9608746E-1,8.1329924E-1,-6.610504E-2,-2.1846479E-1,1.2616822E-1,-3.0162176E-2,-1.6408929E-1,-1.1196174E-1,2.8397515E-1,-1.2980926E-1,-3.5711575E-2,1.1338582E-1,3.64062E-1,2.528851E-1,1.5326366E-1,6.237623E-2,3.7621865E-1,6.422343E-2,-5.3558942E-2],"categories":[],"categories_nodes":[],"categories_segments":[],"categories_sizes":[],"default_left":[0,0,0,0,0,0,0,0,0,0,0,0,0,0,0,0,0,0,0,0,0,0,0,0,0,0,0,0,0,0,0],"id":1,"left_children":[1,3,5,7,9,11,13,15,17,19,21,23,25,27,29,-1,-1,-1,-1,-1,-1,-1,-1,-1,-1,-1,-1,-1,-1,-1,-1],"loss_changes":[1.9505598E3,1.883313E2,3.4531866E2,4.7160156E1,1.0221182E2,7.1242676E1,9.091916E1,4.625952E1,1.8679565E1,3.1653172E1,1.9415672E1,2.4941345E1,1.7848633E1,3.451587E1,3.784115E1,0E0,0E0,0E0,0E0,0E0,0E0,0E0,0E0,0E0,0E0,0E0,0E0,0E0,0E0,0E0,0E0],"parents":[2147483647,0,0,1,1,2,2,3,3,4,4,5,5,6,6,7,7,8,8,9,9,10,10,11,11,12,12,13,13,14,14],"right_children":[2,4,6,8,10,12,14,16,18,20,22,24,26,28,30,-1,-1,-1,-1,-1,-1,-1,-1,-1,-1,-1,-1,-1,-1,-1,-1],"split_conditions":[4.89E2,5.43E2,4.43E2,5.55E2,1.33E2,4.51E2,1.32E2,4.92E2,4.3E2,6.52E2,8.66E2,3.24E2,3.74E2,6.02E2,4.15E2,-2.1846479E-1,1.2616822E-1,-3.0162176E-2,-1.6408929E-1,-1.1196174E-1,2.8397515E-1,-1.2980926E-1,-3.5711575E-2,1.1338582E-1,3.64062E-1,2.528851E-1,1.5326366E-1,6.237623E-2,3.7621865E-1,6.422343E-2,-5.3558942E-2],"split_indices":[53,61,85,67,39,76,37,47,91,4,8,6,82,10,91,0,0,0,0,0,0,0,0,0,0,0,0,0,0,0,0],"split_type":[0,0,0,0,0,0,0,0,0,0,0,0,0,0,0,0,0,0,0,0,0,0,0,0,0,0,0,0,0,0,0],"sum_hessian":[1.0761333E4,8.194666E3,2.5666665E3,7.171555E3,1.023111E3,1.2382222E3,1.3284443E3,5.8062217E3,1.3653333E3,1.1066666E2,9.124444E2,3.702222E2,8.6799994E2,1.2933333E2,1.1991111E3,5.771555E3,3.4666664E1,1.0177777E2,1.2635554E3,2.2222221E1,8.844444E1,6.2222217E2,2.902222E2,4.1333332E1,3.2888885E2,2.2044443E2,6.4755554E2,5.5111107E1,7.422222E1,3.4311108E2,8.5599994E2],"tree_param":{"num_deleted":"0","num_feature":"120","num_nodes":"31","size_leaf_vector":"1"}},{"base_weights":[-1.6074586E-1,-4.826392E-1,7.93428E-1,2.1137738E-1,-5.987624E-1,1.0760767E0,2.574269E-1,5.915161E-1,-3.8904047E-1,-6.900424E-1,-2.59324E-1,1.1701417E0,4.9397588E-1,3.632642E-1,-6.508475E-1,2.697733E-1,5.912173E-2,-3.22292E-2,-1.486154E-1,-1.8738501E-1,-2.1767908E-1,2.5438847E-2,-1.1308471E-1,3.6304802E-1,1.626635E-1,2.2407256E-1,5.8148496E-2,2.650816E-1,7.318969E-2,1.6363636E-1,-2.0696867E-1],"categories":[],"categories_nodes":[],"categories_segments":[],"categories_sizes":[],"default_left":[0,0,0,0,0,0,0,0,0,0,0,0,0,0,0,0,0,0,0,0,0,0,0,0,0,0,0,0,0,0,0],"id":2,"left_children":[1,3,5,7,9,11,13,15,17,19,21,23,25,27,29,-1,-1,-1,-1,-1,-1,-1,-1,-1,-1,-1,-1,-1,-1,-1,-1],"loss_changes":[3.3059495E3,6.487355E2,4.1107922E2,2.636975E2,2.1344873E2,9.674634E1,9.04805E1,8.566641E1,1.3366623E1,1.2184814E1,5.9241013E1,3.77771E1,1.875859E1,5.201789E1,4.9697723E0,0E0,0E0,0E0,0E0,0E0,0E0,0E0,0E0,0E0,0E0,0E0,0E0,0E0,0E0,0E0,0E0],"parents":[2147483647,0,0,1,1,2,2,3,3,4,4,5,5,6,6,7,7,8,8,9,9,10,10,11,11,12,12,13,13,14,14],"right_children":[2,4,6,8,10,12,14,16,18,20,22,24,26,28,30,-1,-1,-1,-1,-1,-1,-1,-1,-1,-1,-1,-1,-1,-1,-1,-1],"split_conditions":[5.05E2,1.33E2,4.93E2,3.5E2,4.78E2,4.04E2,5.34E2,1.31E2,1.31E2,4.79E2,4.18E2,3.84E2,4.27E2,2.1E2,2.7E2,2.697733E-1,5.912173E-2,-3.22292E-2,-1.486154E-1,-1.8738501E-1,-2.1767908E-1,2.5438847E-2,-1.1308471E-1,3.6304802E-1,1.626635E-1,2.2407256E-1,5.8148496E-2,2.650816E-1,7.318969E-2,1.6363636E-1,-2.0696867E-1],"split_indices":[109,109,81,65,101,73,66,117,117,61,71,28,74,4,7,0,0,0,0,0,0,0,0,0,0,0,0,0,0,0,0],"split_type":[0,0,0,0,0,0,0,0,0,0,0,0,0,0,0,0,0,0,0,0,0,0,0,0,0,0,0,0,0,0,0],"sum_hessian":[1.0761333E4,8.047111E3,2.7142222E3,1.1533333E3,6.8937773E3,1.7764443E3,9.377777E2,7.0622217E2,4.4711108E2,5.4319995E3,1.4617777E3,1.5284443E3,2.4799998E2,8.404444E2,9.733333E1,3.9599997E2,3.102222E2,1.2311111E2,3.2399997E2,1.919111E3,3.5128887E3,3.7244443E2,1.0893333E3,1.4359999E3,9.244444E1,1.3377777E2,1.1422221E2,1.5555554E2,6.8488885E2,2.6666665E0,9.4666664E1],"tree_param":{"num_deleted":"0","num_feature":"120","num_nodes":"31","size_leaf_vector":"1"}},{"base_weights":[4.009534E-1,-1.6445896E-2,6.44853E-1,1.5077782E-1,-2.5949222E-1,4.7425404E-1,7.2460824E-1,1.8328998E-2,5.6068754E-1,-3.608733E-1,9.7892426E-2,1.16649E-2,5.143335E-1,5.086451E-1,7.584674E-1,2.8096283E-2,-1.1321951E-1,2.4543396E-1,4.379278E-2,-1.2290773E-1,1.3956106E-2,1.21995E-2,1.9360219E-1,8.6322E-2,-1.8583792E-1,1.6855922E-1,2.5205908E-2,8.0525175E-2,2.7175015E-1,8.779589E-2,2.3413739E-1],"categories":[],"categories_nodes":[],"categories_segments":[],"categories_sizes":[],"default_left":[0,0,0,0,0,0,0,0,0,0,0,0,0,0,0,0,0,0,0,0,0,0,0,0,0,0,0,0,0,0,0],"id":3,"left_children":[1,3,5,7,9,11,13,15,17,19,21,23,25,27,29,-1,-1,-1,-1,-1,-1,-1,-1,-1,-1,-1,-1,-1,-1,-1,-1],"loss_changes":[1.1521355E3,1.6972214E2,9.684741E1,1.3430273E2,6.1704224E1,4.22381E1,3.5193848E1,5.5800175E1,6.437424E1,2.6394043E1,1.1782236E1,3.20107E1,4.2838867E1,6.2969635E1,4.283716E1,0E0,0E0,0E0,0E0,0E0,0E0,0E0,0E0,0E0,0E0,0E0,0E0,0E0,0E0,0E0,0E0],"parents":[2147483647,0,0,1,1,2,2,3,3,4,4,5,5,6,6,7,7,8,8,9,9,10,10,11,11,12,12,13,13,14,14],"right_children":[2,4,6,8,10,12,14,16,18,20,22,24,26,28,30,-1,-1,-1,-1,-1,-1,-1,-1,-1,-1,-1,-1,-1,-1,-1,-1],"split_conditions":[5.13E2,5.16E2,6.28E2,2.95E2,4.12E2,1.33E2,3.88E2,5.68E2,2.09E2,5.33E2,5.81E2,8.09E2,1.027E3,2.48E2,4.38E2,2.8096283E-2,-1.1321951E-1,2.4543396E-1,4.379278E-2,-1.2290773E-1,1.3956106E-2,1.21995E-2,1.9360219E-1,8.6322E-2,-1.8583792E-1,1.6855922E-1,2.5205908E-2,8.0525175E-2,2.7175015E-1,8.779589E-2,2.3413739E-1],"split_indices":[81,111,83,111,75,41,69,37,81,85,85,2,109,43,89,0,0,0,0,0,0,0,0,0,0,0,0,0,0,0,0],"split_type":[0,0,0,0,0,0,0,0,0,0,0,0,0,0,0,0,0,0,0,0,0,0,0,0,0,0,0,0,0,0,0],"sum_hessian":[1.1316142E4,4.173952E3,7.14219E3,2.472898E3,1.701054E3,2.2774973E3,4.864693E3,1.8697837E3,6.0311426E2,1.3251361E3,3.7591788E2,1.8169547E2,2.0958018E3,6.61498E2,4.203195E3,1.5714308E3,2.9835287E2,3.7152396E2,2.3159032E2,1.183329E3,1.4180716E2,3.4131302E2,3.460483E1,1.26781204E2,5.4914265E1,1.8870597E3,2.0874203E2,4.1323862E2,2.4825938E2,1.9012741E2,4.0130674E3],"tree_param":{"num_deleted":"0","num_feature":"120","num_nodes":"31","size_leaf_vector":"1"}},{"base_weights":[-3.2208645E-1,-5.5489254E-1,2.8081718E-1,-6.310531E-1,-3.2727495E-1,5.017088E-1,-3.030983E-2,-6.464923E-1,4.386611E-1,3.5282484E-1,-3.8647848E-1,6.8316734E-1,3.2018426E-1,7.5786895E-1,-8.700387E-2,-1.9426887E-1,2.2588181E-1,3.1784979E-1,-1.6075994E-1,2.576488E-1,-1.1938991E-2,-1.20442554E-1,2.2638494E-1,2.637085E-1,1.6556835E-1,5.4760445E-2,1.5648064E-1,3.0441293E-1,3.6110457E-2,-7.011288E-2,1.4425029E-2],"categories":[],"categories_nodes":[],"categories_segments":[],"categories_sizes":[],"default_left":[0,0,0,0,0,0,0,0,0,0,0,0,0,0,0,0,0,0,0,0,0,0,0,0,0,0,0,0,0,0,0],"id":4,"left_children":[1,3,5,7,9,11,13,15,17,19,21,23,25,27,29,-1,-1,-1,-1,-1,-1,-1,-1,-1,-1,-1,-1,-1,-1,-1,-1],"loss_changes":[1.3927098E3,1.23878174E2,1.9000487E2,8.8843506E1,7.2476395E1,5.3035217E1,5.1397465E1,8.406982E0,4.708667E1,2.8721306E1,2.85941E1,2.028012E1,2.2364952E1,1.25162735E1,2.1267181E1,0E0,0E0,0E0,0E0,0E0,0E0,0E0,0E0,0E0,0E0,0E0,0E0,0E0,0E0,0E0,0E0],"parents":[2147483647,0,0,1,1,2,2,3,3,4,4,5,5,6,6,7,7,8,8,9,9,10,10,11,11,12,12,13,13,14,14],"right_children":[2,4,6,8,10,12,14,16,18,20,22,24,26,28,30,-1,-1,-1,-1,-1,-1,-1,-1,-1,-1,-1,-1,-1,-1,-1,-1],"split_conditions":[5.19E2,5.96E2,4.33E2,4.63E2,3.93E2,9E2,1.3E2,1.123E3,4.98E2,2.64E2,6.42E2,2.95E2,3.91E2,8.68E2,7.85E2,-1.9426887E-1,2.2588181E-1,3.1784979E-1,-1.6075994E-1,2.576488E-1,-1.1938991E-2,-1.20442554E-1,2.2638494E-1,2.637085E-1,1.6556835E-1,5.4760445E-2,1.5648064E-1,3.0441293E-1,3.6110457E-2,-7.011288E-2,1.4425029E-2],"split_indices":[55,67,88,47,89,63,31,59,92,26,51,88,41,67,8,0,0,0,0,0,0,0,0,0,0,0,0,0,0,0,0],"split_type":[0,0,0,0,0,0,0,0,0,0,0,0,0,0,0,0,0,0,0,0,0,0,0,0,0,0,0,0,0,0,0],"sum_hessian":[9.920326E3,7.1568496E3,2.763477E3,5.36122E3,1.795629E3,1.6157363E3,1.1477407E3,5.2853325E3,7.588773E1,1.4339714E2,1.6522318E3,8.06633E2,8.091034E2,7.618766E1,1.0715531E3,5.2818296E3,3.5031557E0,4.6302685E1,2.958505E1,6.213329E1,8.126385E1,1.6314391E3,2.0792778E1,3.2140146E2,4.852315E2,4.817681E2,3.2733527E2,5.3885994E1,2.2301666E1,5.133363E2,5.582168E2],"tree_param":{"num_deleted":"0","num_feature":"120","num_nodes":"31","size_leaf_vector":"1"}},{"base_weights":[-1.3101494E-1,3.4670946E-1,-5.509602E-1,1.3544569E-2,6.6408813E-1,-6.0950655E-1,-2.2583535E-1,4.095192E-1,-2.5961933E-1,8.0904996E-1,3.4228554E-1,-5.3206646E-1,-6.4696497E-1,8.2258455E-2,-3.5837436E-1,1.7717613E-1,-4.0962238E-2,-1.617141E-1,-1.12561025E-2,2.5205803E-1,8.683212E-2,1.6163963E-1,5.0702766E-2,-1.3864606E-2,-1.6428956E-1,-1.9851035E-1,-1.784614E-1,-4.790285E-2,1.2196482E-1,-5.8922514E-2,-1.326991E-1],"categories":[],"categories_nodes":[],"categories_segments":[],"categories_sizes":[],"default_left":[0,0,0,0,0,0,0,0,0,0,0,0,0,0,0,0,0,0,0,0,0,0,0,0,0,0,0,0,0,0,0],"id":5,"left_children":[1,3,5,7,9,11,13,15,17,19,21,23,25,27,29,-1,-1,-1,-1,-1,-1,-1,-1,-1,-1,-1,-1,-1,-1,-1,-1],"loss_changes":[2.0553306E3,5.067948E2,1.0364209E2,2.5314355E2,1.1422827E2,1.3056152E1,3.4067074E1,9.454309E1,8.5931206E1,2.7130249E1,2.5925812E1,1.1406586E1,1.9926758E0,1.9799969E1,7.840927E0,0E0,0E0,0E0,0E0,0E0,0E0,0E0,0E0,0E0,0E0,0E0,0E0,0E0,0E0,0E0,0E0],"parents":[2147483647,0,0,1,1,2,2,3,3,4,4,5,5,6,6,7,7,8,8,9,9,10,10,11,11,12,12,13,13,14,14],"right_children":[2,4,6,8,10,12,14,16,18,20,22,24,26,28,30,-1,-1,-1,-1,-1,-1,-1,-1,-1,-1,-1,-1,-1,-1,-1,-1],"split_conditions":[4.29E2,4.42E2,4.98E2,1.32E2,5.34E2,4.79E2,4.93E2,2.99E2,4.45E2,3.96E2,3.32E2,1.32E2,7.23E2,5.22E2,5.43E2,1.7717613E-1,-4.0962238E-2,-1.617141E-1,-1.12561025E-2,2.5205803E-1,8.683212E-2,1.6163963E-1,5.0702766E-2,-1.3864606E-2,-1.6428956E-1,-1.9851035E-1,-1.784614E-1,-4.790285E-2,1.2196482E-1,-5.8922514E-2,-1.326991E-1],"split_indices":[67,111,103,111,85,61,72,57,101,28,67,115,82,109,73,0,0,0,0,0,0,0,0,0,0,0,0,0,0,0,0],"split_type":[0,0,0,0,0,0,0,0,0,0,0,0,0,0,0,0,0,0,0,0,0,0,0,0,0,0,0,0,0,0,0],"sum_hessian":[1.0243037E4,4.7919497E3,5.451087E3,2.3383423E3,2.4536074E3,4.618536E3,8.3255096E2,9.5438293E2,1.3839595E3,1.690553E3,7.630544E2,1.5106582E3,3.107878E3,2.5053912E2,5.8201184E2,7.166632E2,2.377197E2,6.122487E2,7.7171075E2,1.5943752E3,9.617779E1,3.565643E2,4.064901E2,4.7018333E1,1.4636398E3,2.413458E3,6.944201E2,1.4378049E2,1.0675864E2,1.9983464E2,3.8217722E2],"tree_param":{"num_deleted":"0","num_feature":"120","num_nodes":"31","size_leaf_vector":"1"}},{"base_weights":[3.113607E-1,4.447222E-2,5.2264345E-1,-1.2905458E-1,2.1697736E-1,5.666445E-1,3.7315843E-1,1.5076111E-1,-2.3077507E-1,3.3516103E-1,4.8667226E-2,5.8102703E-1,-3.270529E-2,1.417108E-1,4.6192402E-1,9.971178E-2,-1.4030813E-1,-9.2846245E-2,4.4100646E-2,7.2311275E-2,1.7709209E-1,-5.9272334E-2,3.38925E-2,1.7804654E-1,7.4133724E-2,1.1208528E-1,-2.1805854E-1,1.6989943E-2,1.9492202E-1,-5.0524166E-3,1.5072481E-1],"categories":[],"categories_nodes":[],"categories_segments":[],"categories_sizes":[],"default_left":[0,0,0,0,0,0,0,0,0,0,0,0,0,0,0,0,0,0,0,0,0,0,0,0,0,0,0,0,0,0,0],"id":6,"left_children":[1,3,5,7,9,11,13,15,17,19,21,23,25,27,29,-1,-1,-1,-1,-1,-1,-1,-1,-1,-1,-1,-1,-1,-1,-1,-1],"loss_changes":[6.3493787E2,1.4899773E2,4.1127075E1,7.066745E1,4.963292E1,4.18584E1,2.9357971E1,7.45337E1,5.417504E1,3.5068497E1,1.634551E1,1.9576538E1,3.2620106E1,1.718509E1,2.0067764E1,0E0,0E0,0E0,0E0,0E0,0E0,0E0,0E0,0E0,0E0,0E0,0E0,0E0,0E0,0E0,0E0],"parents":[2147483647,0,0,1,1,2,2,3,3,4,4,5,5,6,6,7,7,8,8,9,9,10,10,11,11,12,12,13,13,14,14],"right_children":[2,4,6,8,10,12,14,16,18,20,22,24,26,28,30,-1,-1,-1,-1,-1,-1,-1,-1,-1,-1,-1,-1,-1,-1,-1,-1],"split_conditions":[5.61E2,4.28E2,4.71E2,1.76E2,4.72E2,1.521E3,3.48E2,2.16E2,5.33E2,4.53E2,3.39E2,1.426E3,7.95E2,1.354E3,2.1E2,9.971178E-2,-1.4030813E-1,-9.2846245E-2,4.4100646E-2,7.2311275E-2,1.7709209E-1,-5.9272334E-2,3.38925E-2,1.7804654E-1,7.4133724E-2,1.1208528E-1,-2.1805854E-1,1.6989943E-2,1.9492202E-1,-5.0524166E-3,1.5072481E-1],"split_indices":[83,75,107,94,49,57,67,75,85,28,84,63,8,107,10,0,0,0,0,0,0,0,0,0,0,0,0,0,0,0,0],"split_type":[0,0,0,0,0,0,0,0,0,0,0,0,0,0,0,0,0,0,0,0,0,0,0,0,0,0,0,0,0,0,0],"sum_hessian":[1.1259389E4,4.975562E3,6.283827E3,2.4805613E3,2.4950005E3,4.852653E3,1.4311742E3,6.612083E2,1.819353E3,1.465187E3,1.0298135E3,4.738963E3,1.1369012E2,3.9745242E2,1.0337218E3,5.1147455E2,1.4973378E2,1.5057921E3,3.1356094E2,1.0717592E3,3.9342786E2,2.1282196E2,8.169915E2,4.567722E3,1.7124065E2,7.2004326E1,4.1685795E1,3.4139227E2,5.6060143E1,8.065578E1,9.5306604E2],"tree_param":{"num_deleted":"0","num_feature":"120","num_nodes":"31","size_leaf_vector":"1"}},{"base_weights":[-2.7335554E-1,-5.042531E-1,2.1290405E-1,-5.876582E-1,-2.8172487E-1,4.5499563E-1,5.0077405E-2,-6.003834E-1,3.7837824E-1,2.9358664E-1,-3.3882645E-1,6.045432E-1,3.4584326E-1,6.107692E-1,9.215003E-3,-1.8048027E-1,2.0297103E-1,2.5191426E-1,-1.7619115E-1,-9.772181E-2,1.9608632E-1,-1.0650151E-1,1.7630237E-1,1.2882721E-1,2.3314184E-1,-2.8698662E-2,1.11766316E-1,2.5354707E-1,1.2423285E-2,-3.9836984E-2,4.0033795E-2],"categories":[],"categories_nodes":[],"categories_segments":[],"categories_sizes":[],"default_left":[0,0,0,0,0,0,0,0,0,0,0,0,0,0,0,0,0,0,0,0,0,0,0,0,0,0,0,0,0,0,0],"id":7,"left_children":[1,3,5,7,9,11,13,15,17,19,21,23,25,27,29,-1,-1,-1,-1,-1,-1,-1,-1,-1,-1,-1,-1,-1,-1,-1,-1],"loss_changes":[1.0118045E3,1.1323511E2,1.14364655E2,5.4848877E1,5.4883713E1,1.8836655E1,3.976981E1,7.225586E0,2.6502682E1,3.3907288E1,2.2955734E1,1.4505325E1,8.017403E0,1.5700474E1,2.858192E1,0E0,0E0,0E0,0E0,0E0,0E0,0E0,0E0,0E0,0E0,0E0,0E0,0E0,0E0,0E0,0E0],"parents":[2147483647,0,0,1,1,2,2,3,3,4,4,5,5,6,6,7,7,8,8,9,9,10,10,11,11,12,12,13,13,14,14],"right_children":[2,4,6,8,10,12,14,16,18,20,22,24,26,28,30,-1,-1,-1,-1,-1,-1,-1,-1,-1,-1,-1,-1,-1,-1,-1,-1],"split_conditions":[4.95E2,5.71E2,4.41E2,4.63E2,3.67E2,3.48E2,1.3E2,1.123E3,4.82E2,2E2,5.36E2,8.23E2,3.82E2,8.68E2,7.75E2,-1.8048027E-1,2.0297103E-1,2.5191426E-1,-1.7619115E-1,-9.772181E-2,1.9608632E-1,-1.0650151E-1,1.7630237E-1,1.2882721E-1,2.3314184E-1,-2.8698662E-2,1.11766316E-1,2.5354707E-1,1.2423285E-2,-3.9836984E-2,4.0033795E-2],"split_indices":[55,67,83,47,91,82,31,59,96,101,53,4,4,67,8,0,0,0,0,0,0,0,0,0,0,0,0,0,0,0,0],"split_type":[0,0,0,0,0,0,0,0,0,0,0,0,0,0,0,0,0,0,0,0,0,0,0,0,0,0,0,0,0,0,0],"sum_hessian":[9.009794E3,6.108955E3,2.9008386E3,4.4423066E3,1.6666483E3,1.1657704E3,1.7350684E3,4.3849243E3,5.738225E1,1.5011032E2,1.516538E3,4.899545E2,6.7581586E2,1.1691241E2,1.618156E3,4.3812764E3,3.6484141E0,3.891961E1,1.8462645E1,5.5218864E1,9.4891464E1,1.4911168E3,2.5421099E1,2.4493115E2,2.4502335E2,3.840707E1,6.3740875E2,8.247537E1,3.443703E1,7.550316E2,8.631243E2],"tree_param":{"num_deleted":"0","num_feature":"120","num_nodes":"31","size_leaf_vector":"1"}},{"base_weights":[-1.09682724E-1,2.6857543E-1,-4.9946082E-1,1.2664211E-2,5.0525194E-1,-5.536463E-1,-2.2368395E-1,2.1536247E-1,-3.567801E-1,6.276874E-1,3.147737E-1,-4.72099E-1,-5.958851E-1,-1.5353619E-2,-3.2771707E-1,1.6074494E-1,5.455871E-3,-1.4699279E-1,-9.588176E-3,1.9597325E-1,4.1149728E-2,2.0137028E-1,7.331458E-2,-2.5630774E-2,-1.4744979E-1,-1.8404764E-1,-1.6043988E-1,-5.081374E-2,7.8787506E-2,-1.5144256E-1,-7.21686E-2],"categories":[],"categories_nodes":[],"categories_segments":[],"categories_sizes":[],"default_left":[0,0,0,0,0,0,0,0,0,0,0,0,0,0,0,0,0,0,0,0,0,0,0,0,0,0,0,0,0,0,0],"id":8,"left_children":[1,3,5,7,9,11,13,15,17,19,21,23,25,27,29,-1,-1,-1,-1,-1,-1,-1,-1,-1,-1,-1,-1,-1,-1,-1,-1],"loss_changes":[1.402001E3,2.9230096E2,6.985718E1,1.7380008E2,5.8274597E1,1.3198486E1,1.6699303E1,9.468035E1,3.5558617E1,1.9030762E1,2.450203E1,1.0011108E1,2.4406128E0,1.107998E1,7.811718E0,0E0,0E0,0E0,0E0,0E0,0E0,0E0,0E0,0E0,0E0,0E0,0E0,0E0,0E0,0E0,0E0],"parents":[2147483647,0,0,1,1,2,2,3,3,4,4,5,5,6,6,7,7,8,8,9,9,10,10,11,11,12,12,13,13,14,14],"right_children":[2,4,6,8,10,12,14,16,18,20,22,24,26,28,30,-1,-1,-1,-1,-1,-1,-1,-1,-1,-1,-1,-1,-1,-1,-1,-1],"split_conditions":[4.57E2,4.42E2,4.73E2,2.63E2,4.85E2,4.79E2,5.1E2,1.32E2,4.58E2,4.28E2,2.1E2,1.32E2,7.23E2,3E2,6.47E2,1.6074494E-1,5.455871E-3,-1.4699279E-1,-9.588176E-3,1.9597325E-1,4.1149728E-2,2.0137028E-1,7.331458E-2,-2.5630774E-2,-1.4744979E-1,-1.8404764E-1,-1.6043988E-1,-5.081374E-2,7.8787506E-2,-1.5144256E-1,-7.21686E-2],"split_indices":[69,111,103,45,83,61,71,115,107,75,4,113,82,117,93,0,0,0,0,0,0,0,0,0,0,0,0,0,0,0,0],"split_type":[0,0,0,0,0,0,0,0,0,0,0,0,0,0,0,0,0,0,0,0,0,0,0,0,0,0,0,0,0,0,0],"sum_hessian":[9.50726E3,4.8250884E3,4.6821714E3,2.3188445E3,2.506244E3,3.9124363E3,7.697349E2,1.4975952E3,8.212492E2,1.5242148E3,9.82029E2,1.3391727E3,2.5732634E3,2.5674356E2,5.1299133E2,5.6981134E2,9.277839E2,5.820605E2,2.3918875E2,1.4484187E3,7.5796135E1,1.605378E2,8.2149115E2,6.4239075E1,1.2749337E3,1.990491E3,5.8277246E2,1.6545634E2,9.128722E1,1.6761679E2,3.4537457E2],"tree_param":{"num_deleted":"0","num_feature":"120","num_nodes":"31","size_leaf_vector":"1"}},{"base_weights":[2.482532E-1,4.456283E-2,4.100787E-1,-9.319593E-2,1.7418818E-1,2.3964548E-1,4.3655112E-1,-2.5640213E-1,3.793668E-2,2.4097592E-1,1.8563882E-2,2.6987135E-1,-4.8899767E-1,4.7032222E-1,3.0859926E-1,-9.333299E-2,3.4635138E-2,1.2853654E-1,-2.5764076E-2,-1.808305E-2,8.668128E-2,-1.6067108E-2,4.1530892E-2,3.1322125E-2,1.1433606E-1,9.08231E-2,-1.9878061E-1,1.4517613E-1,5.1683243E-2,4.9395557E-3,1.02795504E-1],"categories":[],"categories_nodes":[],"categories_segments":[],"categories_sizes":[],"default_left":[0,0,0,0,0,0,0,0,0,0,0,0,0,0,0,0,0,0,0,0,0,0,0,0,0,0,0,0,0,0,0],"id":9,"left_children":[1,3,5,7,9,11,13,15,17,19,21,23,25,27,29,-1,-1,-1,-1,-1,-1,-1,-1,-1,-1,-1,-1,-1,-1,-1,-1],"loss_changes":[3.6000458E2,8.6386314E1,2.7356384E1,5.020658E1,2.5899872E1,1.8202576E1,2.2614014E1,2.1296051E1,6.2962852E1,2.5212852E1,6.4869776E0,1.447403E1,4.74143E0,1.6797668E1,1.0964561E1,0E0,0E0,0E0,0E0,0E0,0E0,0E0,0E0,0E0,0E0,0E0,0E0,0E0,0E0,0E0,0E0],"parents":[2147483647,0,0,1,1,2,2,3,3,4,4,5,5,6,6,7,7,8,8,9,9,10,10,11,11,12,12,13,13,14,14],"right_children":[2,4,6,8,10,12,14,16,18,20,22,24,26,28,30,-1,-1,-1,-1,-1,-1,-1,-1,-1,-1,-1,-1,-1,-1,-1,-1],"split_conditions":[5.61E2,4.18E2,1.8E2,1.99E2,3.72E2,1.559E3,4.97E2,5.33E2,1.75E2,1.38E2,8.74E2,3.6E2,2.78E2,1.426E3,2.1E2,-9.333299E-2,3.4635138E-2,1.2853654E-1,-2.5764076E-2,-1.808305E-2,8.668128E-2,-1.6067108E-2,4.1530892E-2,3.1322125E-2,1.1433606E-1,9.08231E-2,-1.9878061E-1,1.4517613E-1,5.1683243E-2,4.9395557E-3,1.02795504E-1],"split_indices":[83,76,41,35,40,57,106,85,63,38,24,68,0,63,10,0,0,0,0,0,0,0,0,0,0,0,0,0,0,0,0],"split_type":[0,0,0,0,0,0,0,0,0,0,0,0,0,0,0,0,0,0,0,0,0,0,0,0,0,0,0,0,0,0,0],"sum_hessian":[1.0921264E4,4.8357554E3,6.0855083E3,2.3444658E3,2.4912896E3,8.1950055E2,5.266008E3,1.0440712E3,1.3003947E3,1.7428007E3,7.4848895E2,7.8746423E2,3.20363E1,4.1642393E3,1.1017684E3,9.1030786E2,1.3376334E2,3.124542E2,9.879404E2,2.3932368E2,1.5034769E3,4.676699E2,2.8081906E2,3.173688E2,4.700954E2,5.6275196E0,2.640878E1,3.9819414E3,1.8229808E2,1.1517463E2,9.865938E2],"tree_param":{"num_deleted":"0","num_feature":"120","num_nodes":"31","size_leaf_vector":"1"}},{"base_weights":[-2.3319423E-1,-4.769715E-1,1.5029572E-1,-5.4674506E-1,-2.4136157E-1,3.0234027E-1,-3.7185278E-2,-5.59802E-1,3.7844035E-1,4.4031575E-1,-2.8124976E-1,4.289952E-1,1.9051963E-1,4.4941428E-1,-7.991629E-2,-1.7390421E-1,-1.4021361E-1,1.9497637E-1,-1.5447275E-1,-1.1567615E-2,2.5894383E-1,-8.9910366E-2,1.6889706E-1,-7.9849385E-2,1.3787553E-1,2.0211432E-2,8.399314E-2,2.8153682E-2,2.167616E-1,-2.7566167E-2,2.8181916E-1],"categories":[],"categories_nodes":[],"categories_segments":[],"categories_sizes":[],"default_left":[0,0,0,0,0,0,0,0,0,0,0,0,0,0,0,0,0,0,0,0,0,0,0,0,0,0,0,0,0,0,0],"id":10,"left_children":[1,3,5,7,9,11,13,15,17,19,21,23,25,27,29,-1,-1,-1,-1,-1,-1,-1,-1,-1,-1,-1,-1,-1,-1,-1,-1],"loss_changes":[7.619381E2,8.177832E1,9.031474E1,4.6640137E1,3.1126915E1,2.4694336E1,2.9552242E1,6.692749E0,1.3451128E1,1.2874768E1,1.695781E1,1.754866E1,1.0236511E1,1.1075634E1,1.601978E1,0E0,0E0,0E0,0E0,0E0,0E0,0E0,0E0,0E0,0E0,0E0,0E0,0E0,0E0,0E0,0E0],"parents":[2147483647,0,0,1,1,2,2,3,3,4,4,5,5,6,6,7,7,8,8,9,9,10,10,11,11,12,12,13,13,14,14],"right_children":[2,4,6,8,10,12,14,16,18,20,22,24,26,28,30,-1,-1,-1,-1,-1,-1,-1,-1,-1,-1,-1,-1,-1,-1,-1,-1],"split_conditions":[4.83E2,5.96E2,4.33E2,4.8E2,4.07E2,8.95E2,1.32E2,5.47E2,4.37E2,1.76E2,9.34E2,1.95E2,2.96E2,7.26E2,1.237E3,-1.7390421E-1,-1.4021361E-1,1.9497637E-1,-1.5447275E-1,-1.1567615E-2,2.5894383E-1,-8.9910366E-2,1.6889706E-1,-7.9849385E-2,1.3787553E-1,2.0211432E-2,8.399314E-2,2.8153682E-2,2.167616E-1,-2.7566167E-2,2.8181916E-1],"split_indices":[57,67,88,49,87,60,37,72,100,94,53,65,0,2,102,0,0,0,0,0,0,0,0,0,0,0,0,0,0,0,0],"split_type":[0,0,0,0,0,0,0,0,0,0,0,0,0,0,0,0,0,0,0,0,0,0,0,0,0,0,0,0,0,0,0],"sum_hessian":[8.1485117E3,4.981575E3,3.1669365E3,3.8423735E3,1.1392017E3,1.7483973E3,1.4185392E3,3.789291E3,5.3082474E1,6.2420193E1,1.0767815E3,8.1848944E2,9.2990784E2,1.1374543E2,1.3047938E3,3.1142063E3,6.7508466E2,4.0919804E1,1.2162672E1,2.9696438E1,3.2723755E1,1.0543823E3,2.2399254E1,3.417422E1,7.843152E2,3.9201233E2,5.378955E2,4.9998356E1,6.3747078E1,1.2905474E3,1.4246472E1],"tree_param":{"num_deleted":"0","num_feature":"120","num_nodes":"31","size_leaf_vector":"1"}},{"base_weights":[-9.278582E-2,2.0249267E-1,-4.7473636E-1,3.045142E-2,4.3120018E-1,-5.2786154E-1,-2.2172877E-1,2.9513323E-1,-1.4285383E-1,5.4312325E-1,2.6406056E-1,-4.6482298E-1,-5.7296056E-1,-2.953441E-1,6.776112E-2,1.2738544E-1,-3.6562007E-2,-1.3770102E-1,-5.103449E-3,1.7602341E-1,1.084102E-1,9.8115586E-2,-1.8272731E-2,-3.185126E-2,-1.4525707E-1,-1.7449538E-1,-1.3129601E-1,1.5609203E-2,-1.0829032E-1,-2.7696711E-3,3.030494E-1],"categories":[],"categories_nodes":[],"categories_segments":[],"categories_sizes":[],"default_left":[0,0,0,0,0,0,0,0,0,0,0,0,0,0,0,0,0,0,0,0,0,0,0,0,0,0,0,0,0,0,0],"id":11,"left_children":[1,3,5,7,9,11,13,15,17,19,21,23,25,27,29,-1,-1,-1,-1,-1,-1,-1,-1,-1,-1,-1,-1,-1,-1,-1,-1],"loss_changes":[9.8595447E2,1.9399586E2,5.1114807E1,1.2916971E2,3.945273E1,8.687317E0,1.4152836E1,6.0213806E1,6.769976E1,9.831696E0,1.7437584E1,9.108917E0,1.899292E0,1.2075787E1,9.823923E0,0E0,0E0,0E0,0E0,0E0,0E0,0E0,0E0,0E0,0E0,0E0,0E0,0E0,0E0,0E0,0E0],"parents":[2147483647,0,0,1,1,2,2,3,3,4,4,5,5,6,6,7,7,8,8,9,9,10,10,11,11,12,12,13,13,14,14],"right_children":[2,4,6,8,10,12,14,16,18,20,22,24,26,28,30,-1,-1,-1,-1,-1,-1,-1,-1,-1,-1,-1,-1,-1,-1,-1,-1],"split_conditions":[4.57E2,4.33E2,4.94E2,1.32E2,3.13E2,4.83E2,7.62E2,2.83E2,4.4E2,6.21E2,5.81E2,1.34E2,8.93E2,3.27E2,3.59E2,1.2738544E-1,-3.6562007E-2,-1.3770102E-1,-5.103449E-3,1.7602341E-1,1.084102E-1,9.8115586E-2,-1.8272731E-2,-3.185126E-2,-1.4525707E-1,-1.7449538E-1,-1.3129601E-1,1.5609203E-2,-1.0829032E-1,-2.7696711E-3,3.030494E-1],"split_indices":[67,113,100,113,68,57,107,53,95,91,13,113,88,61,30,0,0,0,0,0,0,0,0,0,0,0,0,0,0,0,0],"split_type":[0,0,0,0,0,0,0,0,0,0,0,0,0,0,0,0,0,0,0,0,0,0,0,0,0,0,0,0,0,0,0],"sum_hessian":[8.740291E3,4.929703E3,3.8105874E3,2.8140308E3,2.1156726E3,3.1484138E3,6.6217334E2,1.1131937E3,1.7008369E3,1.265797E3,8.498756E2,1.3177687E3,1.8306453E3,5.279093E2,1.3426404E2,8.494213E2,2.6377243E2,4.8350238E2,1.2173346E3,1.01900714E3,2.4678989E2,7.1188E2,1.379956E2,6.784584E1,1.2499229E3,1.7170604E3,1.1358484E2,8.3915375E1,4.4399396E2,1.25038704E2,9.225326E0],"tree_param":{"num_deleted":"0","num_feature":"120","num_nodes":"31","size_leaf_vector":"1"}},{"base_weights":[2.0066531E-1,4.5184165E-2,3.2687357E-1,-1.9954221E-1,9.719265E-2,3.3476412E-1,-8.030987E-2,-3.2331464E-1,-1.336039E-2,1.4704679E-1,-1.8693328E-1,3.6861488E-1,2.2377399E-1,2.3063268E-1,-6.705604E-1,-7.149711E-2,-1.4233682E-1,-2.9626599E-2,1.3090223E-1,6.64257E-2,-1.3167793E-2,-8.293739E-2,7.912959E-2,7.0060566E-2,1.18413284E-1,1.9619172E-2,8.565209E-2,-2.4699107E-1,9.0864524E-2,-5.5624668E-2,-2.2387198E-1],"categories":[],"categories_nodes":[],"categories_segments":[],"categories_sizes":[],"default_left":[0,0,0,0,0,0,0,0,0,0,0,0,0,0,0,0,0,0,0,0,0,0,0,0,0,0,0,0,0,0,0],"id":12,"left_children":[1,3,5,7,9,11,13,15,17,19,21,23,25,27,29,-1,-1,-1,-1,-1,-1,-1,-1,-1,-1,-1,-1,-1,-1,-1,-1],"loss_changes":[2.0576462E2,5.9835213E1,1.8623291E1,1.8984608E1,5.4938652E1,2.125116E1,2.0497028E1,6.244583E0,1.27195015E1,4.6849937E1,2.3439152E1,1.5240356E1,1.2980888E1,5.8337946E0,1.2751293E0,0E0,0E0,0E0,0E0,0E0,0E0,0E0,0E0,0E0,0E0,0E0,0E0,0E0,0E0,0E0,0E0],"parents":[2147483647,0,0,1,1,2,2,3,3,4,4,5,5,6,6,7,7,8,8,9,9,10,10,11,11,12,12,13,13,14,14],"right_children":[2,4,6,8,10,12,14,16,18,20,22,24,26,28,30,-1,-1,-1,-1,-1,-1,-1,-1,-1,-1,-1,-1,-1,-1,-1,-1],"split_conditions":[5.61E2,1.34E2,1.521E3,3.8E2,6.37E2,4.34E2,7.95E2,2.1E2,6.34E2,4.47E2,4.78E2,1.87E2,3.48E2,4.06E2,5.44E2,-7.149711E-2,-1.4233682E-1,-2.9626599E-2,1.3090223E-1,6.64257E-2,-1.3167793E-2,-8.293739E-2,7.912959E-2,7.0060566E-2,1.18413284E-1,1.9619172E-2,8.565209E-2,-2.4699107E-1,9.0864524E-2,-5.5624668E-2,-2.2387198E-1],"split_indices":[83,119,57,73,119,108,8,73,90,45,15,115,67,86,85,0,0,0,0,0,0,0,0,0,0,0,0,0,0,0,0],"split_type":[0,0,0,0,0,0,0,0,0,0,0,0,0,0,0,0,0,0,0,0,0,0,0,0,0,0,0,0,0,0,0],"sum_hessian":[1.0485643E4,4.6986016E3,5.7870415E3,8.2302295E2,3.8755784E3,5.677204E3,1.0983709E2,4.9392703E2,3.2909592E2,3.2974705E3,5.7810803E2,4.348607E3,1.3285973E3,7.233857E1,3.749852E1,3.177976E2,1.7612944E2,2.77232E2,5.186392E1,2.373008E3,9.244623E2,4.8262766E2,9.548034E1,7.056964E2,3.6429106E3,3.7320206E2,9.5539526E2,3.9738922E0,6.836468E1,5.5257263E0,3.1972792E1],"tree_param":{"num_deleted":"0","num_feature":"120","num_nodes":"31","size_leaf_vector":"1"}},{"base_weights":[-1.9856273E-1,-4.519482E-1,1.15221016E-1,-4.7148195E-1,3.389564E-1,2.4324182E-1,-4.1911427E-2,-5.445514E-1,-2.6170054E-1,6.0789055E-1,-4.252583E-1,3.6284605E-1,1.4864317E-1,3.2274336E-1,-8.910277E-2,-1.63816E-1,2.0421167E-1,-8.165134E-2,2.705155E-1,1.9692235E-1,-1.7788279E-1,1.7789641E-1,-1.4879312E-1,1.2790345E-1,3.397359E-2,1.9576041E-2,7.6706596E-2,1.8396717E-1,-1.2061775E-2,-6.4155646E-2,5.844551E-3],"categories":[],"categories_nodes":[],"categories_segments":[],"categories_sizes":[],"default_left":[0,0,0,0,0,0,0,0,0,0,0,0,0,0,0,0,0,0,0,0,0,0,0,0,0,0,0,0,0,0,0],"id":13,"left_children":[1,3,5,7,9,11,13,15,17,19,21,23,25,27,29,-1,-1,-1,-1,-1,-1,-1,-1,-1,-1,-1,-1,-1,-1,-1,-1],"loss_changes":[5.8791736E2,6.335956E1,6.6474106E1,6.105829E1,2.0642426E1,2.054731E1,2.5569624E1,5.81958E0,1.2833199E1,4.687416E0,2.19555E0,1.2685501E1,9.073801E0,1.797752E1,1.7815807E1,0E0,0E0,0E0,0E0,0E0,0E0,0E0,0E0,0E0,0E0,0E0,0E0,0E0,0E0,0E0,0E0],"parents":[2147483647,0,0,1,1,2,2,3,3,4,4,5,5,6,6,7,7,8,8,9,9,10,10,11,11,12,12,13,13,14,14],"right_children":[2,4,6,8,10,12,14,16,18,20,22,24,26,28,30,-1,-1,-1,-1,-1,-1,-1,-1,-1,-1,-1,-1,-1,-1,-1,-1],"split_conditions":[4.88E2,4.64E2,4.15E2,5.35E2,4.84E2,8.62E2,1.33E2,4.94E2,1.045E3,3.43E2,3.65E2,2.84E2,3.76E2,8.54E2,7.45E2,-1.63816E-1,2.0421167E-1,-8.165134E-2,2.705155E-1,1.9692235E-1,-1.7788279E-1,1.7789641E-1,-1.4879312E-1,1.2790345E-1,3.397359E-2,1.9576041E-2,7.6706596E-2,1.8396717E-1,-1.2061775E-2,-6.4155646E-2,5.844551E-3],"split_indices":[59,49,91,67,90,62,39,51,55,119,70,109,40,69,8,0,0,0,0,0,0,0,0,0,0,0,0,0,0,0,0],"split_type":[0,0,0,0,0,0,0,0,0,0,0,0,0,0,0,0,0,0,0,0,0,0,0,0,0,0,0,0,0,0,0],"sum_hessian":[7.392766E3,4.08977E3,3.3029958E3,3.9915896E3,9.8180466E1,1.8197993E3,1.4831964E3,2.959251E3,1.0323386E3,7.277487E1,2.5405592E1,8.0242773E2,1.01737164E3,1.692828E2,1.3139136E3,2.9561814E3,3.0695539E0,1.0238899E3,8.448773E0,7.038451E1,2.39037E0,1.170268E0,2.4235325E1,6.3912537E2,1.6330238E2,5.7277936E2,4.445923E2,9.364556E1,7.563725E1,6.1099335E2,7.029202E2],"tree_param":{"num_deleted":"0","num_feature":"120","num_nodes":"31","size_leaf_vector":"1"}},{"base_weights":[-7.926756E-2,1.622995E-1,-4.4472465E-1,-2.9475177E-2,3.0029815E-1,-4.9440208E-1,-1.868474E-1,1.3818197E-1,-3.002904E-1,4.172783E-1,1.6641487E-1,-5.4368246E-1,-4.1980603E-1,-2.694269E-1,-2.083689E-2,9.552727E-2,-1.6166152E-2,-1.3510758E-1,-4.5715112E-2,1.3496545E-1,-1.6063709E-2,1.2912653E-1,3.375466E-2,-2.5482805E-2,-1.6543138E-1,-7.988972E-2,-1.3226925E-1,2.4254829E-2,-9.9700004E-2,3.621583E-2,-9.842429E-2],"categories":[],"categories_nodes":[],"categories_segments":[],"categories_sizes":[],"default_left":[0,0,0,0,0,0,0,0,0,0,0,0,0,0,0,0,0,0,0,0,0,0,0,0,0,0,0,0,0,0,0],"id":14,"left_children":[1,3,5,7,9,11,13,15,17,19,21,23,25,27,29,-1,-1,-1,-1,-1,-1,-1,-1,-1,-1,-1,-1,-1,-1,-1,-1],"loss_changes":[7.0860156E2,1.2790166E2,4.08266E1,9.190226E1,4.394629E1,9.614868E0,7.0893116E0,4.3300217E1,1.7109192E1,2.304007E1,1.8623707E1,5.677582E0,3.3455658E0,7.6405087E0,7.5639844E0,0E0,0E0,0E0,0E0,0E0,0E0,0E0,0E0,0E0,0E0,0E0,0E0,0E0,0E0,0E0,0E0],"parents":[2147483647,0,0,1,1,2,2,3,3,4,4,5,5,6,6,7,7,8,8,9,9,10,10,11,11,12,12,13,13,14,14],"right_children":[2,4,6,8,10,12,14,16,18,20,22,24,26,28,30,-1,-1,-1,-1,-1,-1,-1,-1,-1,-1,-1,-1,-1,-1,-1,-1],"split_conditions":[4.68E2,4.23E2,5.05E2,2.48E2,5.2E2,5.06E2,6.36E2,4E2,5.29E2,3.96E2,2.1E2,1.31E2,1.84E2,3.2E2,6.48E2,9.552727E-2,-1.6166152E-2,-1.3510758E-1,-4.5715112E-2,1.3496545E-1,-1.6063709E-2,1.2912653E-1,3.375466E-2,-2.5482805E-2,-1.6543138E-1,-7.988972E-2,-1.3226925E-1,2.4254829E-2,-9.9700004E-2,3.621583E-2,-9.842429E-2],"split_indices":[67,109,100,41,85,93,106,73,97,28,4,117,37,61,12,0,0,0,0,0,0,0,0,0,0,0,0,0,0,0,0],"split_type":[0,0,0,0,0,0,0,0,0,0,0,0,0,0,0,0,0,0,0,0,0,0,0,0,0,0,0,0,0,0,0],"sum_hessian":[8.024716E3,4.8315913E3,3.193125E3,2.0221816E3,2.8094094E3,2.6765896E3,5.1653534E2,1.2492697E3,7.72912E2,1.4982239E3,1.3111857E3,1.6080055E3,1.0685841E3,3.4453064E2,1.720047E2,6.4413763E2,6.0513196E2,3.8263773E2,3.9027426E2,1.4012275E3,9.699629E1,2.211203E2,1.0900653E3,2.693173E1,1.5810739E3,1.3073062E2,9.3785345E2,5.241081E1,2.921198E2,1.1816823E2,5.3836468E1],"tree_param":{"num_deleted":"0","num_feature":"120","num_nodes":"31","size_leaf_vector":"1"}},{"base_weights":[1.6293289E-1,4.6402007E-2,2.6033837E-1,-1.2762831E-1,1.0057812E-1,2.7028972E-1,-3.4527194E-2,-2.0969625E-1,9.72901E-2,2.6495697E-3,1.738305E-1,2.9933876E-1,1.715929E-1,2.0346577E-1,-5.747657E-1,-7.764199E-2,3.421175E-2,1.1427581E-2,1.9140911E-1,-5.079199E-2,3.0356152E-2,6.704657E-2,-2.285539E-2,3.504813E-2,9.449332E-2,-1.7188672E-2,6.4729966E-2,9.1095045E-2,-1.05386294E-1,-1.9520888E-1,1.4449792E-1],"categories":[],"categories_nodes":[],"categories_segments":[],"categories_sizes":[],"default_left":[0,0,0,0,0,0,0,0,0,0,0,0,0,0,0,0,0,0,0,0,0,0,0,0,0,0,0,0,0,0,0],"id":15,"left_children":[1,3,5,7,9,11,13,15,17,19,21,23,25,27,29,-1,-1,-1,-1,-1,-1,-1,-1,-1,-1,-1,-1,-1,-1,-1,-1],"loss_changes":[1.13920685E2,4.3112263E1,1.6051788E1,2.006021E1,2.501086E1,1.5111877E1,2.3179579E1,1.26808815E1,9.2882185E0,2.5315184E1,2.4780521E1,1.1622437E1,1.2195938E1,7.0681896E0,4.734558E0,0E0,0E0,0E0,0E0,0E0,0E0,0E0,0E0,0E0,0E0,0E0,0E0,0E0,0E0,0E0,0E0],"parents":[2147483647,0,0,1,1,2,2,3,3,4,4,5,5,6,6,7,7,8,8,9,9,10,10,11,11,12,12,13,13,14,14],"right_children":[2,4,6,8,10,12,14,16,18,20,22,24,26,28,30,-1,-1,-1,-1,-1,-1,-1,-1,-1,-1,-1,-1,-1,-1,-1,-1],"split_conditions":[5.61E2,1.92E2,1.43E3,4.58E2,2.15E2,5.37E2,9.07E2,1.96E2,1.174E3,4.46E2,5.28E2,1.61E2,2.6E2,4.05E2,5.45E2,-7.764199E-2,3.421175E-2,1.1427581E-2,1.9140911E-1,-5.079199E-2,3.0356152E-2,6.704657E-2,-2.285539E-2,3.504813E-2,9.449332E-2,-1.7188672E-2,6.4729966E-2,9.1095045E-2,-1.05386294E-1,-1.9520888E-1,1.4449792E-1],"split_indices":[83,39,61,82,119,106,8,35,110,78,119,39,65,48,95,0,0,0,0,0,0,0,0,0,0,0,0,0,0,0,0],"split_type":[0,0,0,0,0,0,0,0,0,0,0,0,0,0,0,0,0,0,0,0,0,0,0,0,0,0,0,0,0,0,0],"sum_hessian":[1.0036471E4,4.5702896E3,5.4661816E3,1.084663E3,3.4856267E3,5.2878076E3,1.7837389E2,7.947451E2,2.8991788E2,1.4920256E3,1.993601E3,4.0838054E3,1.2040022E3,1.2425765E2,5.411624E1,6.902373E2,1.0450784E2,2.6227542E2,2.7642458E1,5.4326514E2,9.487605E2,1.6633351E3,3.302659E2,3.229819E2,3.7608235E3,1.9472502E2,1.00927716E3,1.05633644E2,1.8624012E1,5.0845764E1,3.2704782E0],"tree_param":{"num_deleted":"0","num_feature":"120","num_nodes":"31","size_leaf_vector":"1"}},{"base_weights":[-1.684868E-1,-4.3657863E-1,8.7618224E-2,-4.5750883E-1,3.1259593E-1,1.5460384E-1,-1.301457E-1,-5.207055E-1,-2.387492E-1,5.225755E-1,-4.3010813E-1,2.437411E-1,4.4945363E-2,-1.830954E-1,3.2560417E-1,-1.5680547E-1,2.6756865E-1,-4.073466E-2,-1.14901885E-1,1.7430764E-1,-1.8543501E-1,-1.5701003E-1,1.8221289E-1,1.5937087E-1,6.1296757E-2,-2.007427E-2,5.208102E-2,-6.312827E-2,2.358257E-1,-9.760569E-3,2.7555513E-1],"categories":[],"categories_nodes":[],"categories_segments":[],"categories_sizes":[],"default_left":[0,0,0,0,0,0,0,0,0,0,0,0,0,0,0,0,0,0,0,0,0,0,0,0,0,0,0,0,0,0,0],"id":16,"left_children":[1,3,5,7,9,11,13,15,17,19,21,23,25,27,29,-1,-1,-1,-1,-1,-1,-1,-1,-1,-1,-1,-1,-1,-1,-1,-1],"loss_changes":[4.631218E2,5.181549E1,5.0349213E1,4.420111E1,1.4284945E1,2.5784977E1,1.9659374E1,7.4191895E0,1.0649731E1,5.0754128E0,2.2935889E0,1.638633E1,1.705916E1,1.9457817E1,1.8058025E1,0E0,0E0,0E0,0E0,0E0,0E0,0E0,0E0,0E0,0E0,0E0,0E0,0E0,0E0,0E0,0E0],"parents":[2147483647,0,0,1,1,2,2,3,3,4,4,5,5,6,6,7,7,8,8,9,9,10,10,11,11,12,12,13,13,14,14],"right_children":[2,4,6,8,10,12,14,16,18,20,22,24,26,28,30,-1,-1,-1,-1,-1,-1,-1,-1,-1,-1,-1,-1,-1,-1,-1,-1],"split_conditions":[4.79E2,4.64E2,4.6E2,5.35E2,4.9E2,9.33E2,1.426E3,5.55E2,3.38E2,3.48E2,1.419E3,1.32E2,4.23E2,1.237E3,8.34E2,-1.5680547E-1,2.6756865E-1,-4.073466E-2,-1.14901885E-1,1.7430764E-1,-1.8543501E-1,-1.5701003E-1,1.8221289E-1,1.5937087E-1,6.1296757E-2,-2.007427E-2,5.208102E-2,-6.312827E-2,2.358257E-1,-9.760569E-3,2.7555513E-1],"split_indices":[61,49,94,67,92,65,63,55,107,119,83,37,49,102,6,0,0,0,0,0,0,0,0,0,0,0,0,0,0,0,0],"split_type":[0,0,0,0,0,0,0,0,0,0,0,0,0,0,0,0,0,0,0,0,0,0,0,0,0,0,0,0,0,0,0],"sum_hessian":[6.7436226E3,3.2943638E3,3.4492588E3,3.205207E3,8.9156715E1,2.6380632E3,8.1119556E2,2.4857322E3,7.19475E2,6.9736885E1,1.9419836E1,1.4545177E3,1.1835454E3,7.2729553E2,8.390004E1,2.482883E3,2.8490274E0,4.2095166E2,2.9852335E2,6.6804405E1,2.9324732E0,1.8272848E1,1.1469889E0,1.7387825E2,1.2806394E3,6.333605E2,5.5018494E2,7.081088E2,1.9186693E1,5.2894875E1,3.1005163E1],"tree_param":{"num_deleted":"0","num_feature":"120","num_nodes":"31","size_leaf_vector":"1"}},{"base_weights":[-6.7486055E-2,1.3398132E-1,-4.1333157E-1,1.9694906E-1,-1.596206E-1,-4.9397576E-1,-2.4527714E-1,2.951755E-1,4.569845E-2,-3.9065072E-1,8.3945565E-2,-5.157086E-1,-3.1547132E-1,-2.8631952E-1,7.437201E-2,1.3524233E-1,6.782721E-2,8.98775E-2,1.9357125E-4,-1.2605365E-1,2.1677595E-2,4.4740003E-2,-8.2089834E-2,-1.4028762E-1,-1.62645E-1,5.3604584E-2,-1.2114967E-1,-3.0996E-2,-1.0035647E-1,-1.8538548E-2,1.4524056E-1],"categories":[],"categories_nodes":[],"categories_segments":[],"categories_sizes":[],"default_left":[0,0,0,0,0,0,0,0,0,0,0,0,0,0,0,0,0,0,0,0,0,0,0,0,0,0,0,0,0,0,0],"id":17,"left_children":[1,3,5,7,9,11,13,15,17,19,21,23,25,27,29,-1,-1,-1,-1,-1,-1,-1,-1,-1,-1,-1,-1,-1,-1,-1,-1],"loss_changes":[5.1530853E2,8.643416E1,3.677365E1,5.7166092E1,4.650575E1,6.96994E0,1.1628384E1,2.4983994E1,1.7346994E1,5.8262405E0,9.431219E0,1.8283386E0,8.8978405E0,6.883507E0,5.6914043E0,0E0,0E0,0E0,0E0,0E0,0E0,0E0,0E0,0E0,0E0,0E0,0E0,0E0,0E0,0E0,0E0],"parents":[2147483647,0,0,1,1,2,2,3,3,4,4,5,5,6,6,7,7,8,8,9,9,10,10,11,11,12,12,13,13,14,14],"right_children":[2,4,6,8,10,12,14,16,18,20,22,24,26,28,30,-1,-1,-1,-1,-1,-1,-1,-1,-1,-1,-1,-1,-1,-1,-1,-1],"split_conditions":[4.74E2,2.89E2,4.76E2,3.98E2,4.58E2,7.5E2,7.49E2,1.32E2,2.1E2,1.09E3,4.64E2,5.51E2,2.57E2,3.09E2,9.96E2,1.3524233E-1,6.782721E-2,8.98775E-2,1.9357125E-4,-1.2605365E-1,2.1677595E-2,4.4740003E-2,-8.2089834E-2,-1.4028762E-1,-1.62645E-1,5.3604584E-2,-1.2114967E-1,-3.0996E-2,-1.0035647E-1,-1.8538548E-2,1.4524056E-1],"split_indices":[67,47,95,73,107,0,106,119,4,104,17,57,10,59,95,0,0,0,0,0,0,0,0,0,0,0,0,0,0,0,0],"split_type":[0,0,0,0,0,0,0,0,0,0,0,0,0,0,0,0,0,0,0,0,0,0,0,0,0,0,0,0,0,0,0],"sum_hessian":[7.393925E3,4.672588E3,2.721337E3,3.8477124E3,8.2487573E2,1.8375929E3,8.8374396E2,2.3321782E3,1.5155343E3,4.2302216E2,4.0185358E2,1.6364648E3,2.0112807E2,7.832769E2,1.004671E2,7.1528345E2,1.6168947E3,2.2754962E2,1.2879846E3,3.977432E2,2.5278957E1,3.4038342E2,6.1470154E1,5.872478E2,1.049217E3,3.0353827E1,1.7077425E2,1.6395673E2,6.193202E2,7.604575E1,2.4421343E1],"tree_param":{"num_deleted":"0","num_feature":"120","num_nodes":"31","size_leaf_vector":"1"}},{"base_weights":[1.3284294E-1,5.5510603E-2,2.2134747E-1,-1.16244204E-1,9.6207134E-2,3.5844085E-1,2.0105697E-1,9.233409E-2,-1.7837E-1,1.3473783E-1,-4.551913E-2,1.2184538E-1,4.620812E-1,-2.7266803E-1,2.1246532E-1,-5.533536E-2,8.621021E-2,-9.4515435E-2,-2.430592E-3,6.359591E-2,1.6872863E-3,-9.904941E-2,5.45004E-3,1.083084E-1,-4.586841E-2,1.4148714E-1,-7.836153E-2,-1.5193485E-1,6.476498E-2,9.407412E-3,7.259047E-2],"categories":[],"categories_nodes":[],"categories_segments":[],"categories_sizes":[],"default_left":[0,0,0,0,0,0,0,0,0,0,0,0,0,0,0,0,0,0,0,0,0,0,0,0,0,0,0,0,0,0,0],"id":18,"left_children":[1,3,5,7,9,11,13,15,17,19,21,23,25,27,29,-1,-1,-1,-1,-1,-1,-1,-1,-1,-1,-1,-1,-1,-1,-1,-1],"loss_changes":[6.59025E1,3.5946358E1,1.2419388E1,1.2783563E1,2.2705692E1,1.4108559E1,2.121045E1,1.2294758E1,1.7672598E1,3.2598526E1,1.6126854E1,1.170763E1,2.8932724E0,1.0671583E1,2.0416489E1,0E0,0E0,0E0,0E0,0E0,0E0,0E0,0E0,0E0,0E0,0E0,0E0,0E0,0E0,0E0,0E0],"parents":[2147483647,0,0,1,1,2,2,3,3,4,4,5,5,6,6,7,7,8,8,9,9,10,10,11,11,12,12,13,13,14,14],"right_children":[2,4,6,8,10,12,14,16,18,20,22,24,26,28,30,-1,-1,-1,-1,-1,-1,-1,-1,-1,-1,-1,-1,-1,-1,-1,-1],"split_conditions":[6.01E2,1.85E2,1.35E2,1.35E2,3.74E2,2.27E2,3.45E2,1.66E2,4.27E2,4.34E2,4.31E2,9.24E2,1.503E3,2.76E2,3.48E2,-5.533536E-2,8.621021E-2,-9.4515435E-2,-2.430592E-3,6.359591E-2,1.6872863E-3,-9.904941E-2,5.45004E-3,1.083084E-1,-4.586841E-2,1.4148714E-1,-7.836153E-2,-1.5193485E-1,6.476498E-2,9.407412E-3,7.259047E-2],"split_indices":[85,41,101,103,39,109,91,119,82,109,72,85,75,115,67,0,0,0,0,0,0,0,0,0,0,0,0,0,0,0,0],"split_type":[0,0,0,0,0,0,0,0,0,0,0,0,0,0,0,0,0,0,0,0,0,0,0,0,0,0,0,0,0,0,0],"sum_hessian":[9.629666E3,5.14007E3,4.489596E3,9.8426044E2,4.1558096E3,5.7666626E2,3.91293E3,2.2577327E2,7.584872E2,3.267526E3,8.882834E2,1.7632292E2,4.0034332E2,9.147752E1,3.8214524E3,9.334919E1,1.3242407E2,4.2026895E2,3.3821823E2,2.0439753E3,1.2235507E3,1.6164107E2,7.2664233E2,9.409331E1,8.2229614E1,3.9547363E2,4.8696914E0,6.184624E1,2.9631283E1,5.356094E2,3.285843E3],"tree_param":{"num_deleted":"0","num_feature":"120","num_nodes":"31","size_leaf_vector":"1"}},{"base_weights":[-1.417361E-1,-4.4827756E-1,5.571325E-2,-4.6890485E-1,3.528994E-1,1.3417271E-1,-1.4243384E-1,-5.0918025E-1,-2.972249E-1,4.204064E-1,-4.5295614E-1,5.723178E-2,2.3645425E-1,-1.800827E-1,2.5051415E-1,-1.5533601E-1,7.614977E-2,1.3549809E-2,-9.9322885E-2,9.332799E-2,2.5008515E-1,-1.9659846E-1,6.0622275E-2,-9.8650716E-2,2.835956E-2,1.5910622E-1,5.2586548E-2,-5.9334695E-2,1.7802566E-1,1.74189E-1,-3.4439743E-2],"categories":[],"categories_nodes":[],"categories_segments":[],"categories_sizes":[],"default_left":[0,0,0,0,0,0,0,0,0,0,0,0,0,0,0,0,0,0,0,0,0,0,0,0,0,0,0,0,0,0,0],"id":19,"left_children":[1,3,5,7,9,11,13,15,17,19,21,23,25,27,29,-1,-1,-1,-1,-1,-1,-1,-1,-1,-1,-1,-1,-1,-1,-1,-1],"loss_changes":[3.7596347E2,4.0381042E1,5.876448E1,1.6255432E1,3.5442648E0,2.129253E1,1.5908899E1,1.2743256E1,5.268654E0,2.333558E0,8.2792187E-1,2.2299894E1,2.0795273E1,1.352239E1,1.1423708E1,0E0,0E0,0E0,0E0,0E0,0E0,0E0,0E0,0E0,0E0,0E0,0E0,0E0,0E0,0E0,0E0],"parents":[2147483647,0,0,1,1,2,2,3,3,4,4,5,5,6,6,7,7,8,8,9,9,10,10,11,11,12,12,13,13,14,14],"right_children":[2,4,6,8,10,12,14,16,18,20,22,24,26,28,30,-1,-1,-1,-1,-1,-1,-1,-1,-1,-1,-1,-1,-1,-1,-1,-1],"split_conditions":[4.38E2,4.8E2,4.62E2,6.73E2,3.4E2,7.96E2,1.426E3,4.06E2,4.38E2,1.166E3,6.9E2,2.22E2,1.34E2,1.431E3,7.73E2,-1.5533601E-1,7.614977E-2,1.3549809E-2,-9.9322885E-2,9.332799E-2,2.5008515E-1,-1.9659846E-1,6.0622275E-2,-9.8650716E-2,2.835956E-2,1.5910622E-1,5.2586548E-2,-5.9334695E-2,1.7802566E-1,1.74189E-1,-3.4439743E-2],"split_indices":[63,51,94,75,117,2,63,37,89,51,98,9,28,102,79,0,0,0,0,0,0,0,0,0,0,0,0,0,0,0,0],"split_type":[0,0,0,0,0,0,0,0,0,0,0,0,0,0,0,0,0,0,0,0,0,0,0,0,0,0,0,0,0,0,0],"sum_hessian":[6.210147E3,2.4324622E3,3.7776846E3,2.3718118E3,6.065043E1,2.7063755E3,1.0713092E3,1.9195317E3,4.522801E2,5.6403763E1,4.246666E0,1.5454076E3,1.1609679E3,9.781345E2,9.317461E1,1.8984396E3,2.1092154E1,4.0662586E1,4.116175E2,4.599014E1,1.0413626E1,3.2439816E0,1.0026846E0,1.3546692E2,1.4099407E3,1.9867398E2,9.6229395E2,9.569808E2,2.1153774E1,4.863559E1,4.453902E1],"tree_param":{"num_deleted":"0","num_feature":"120","num_nodes":"31","size_leaf_vector":"1"}},{"base_weights":[-5.8075167E-2,1.0946646E-1,-3.8317183E-1,1.3543865E-1,-4.1757163E-1,-4.7095045E-1,-2.0881343E-1,2.0130341E-1,-3.1643663E-2,-5.2770656E-1,8.202305E-2,-4.96884E-1,-2.8072453E-1,-2.8246802E-1,-4.1674808E-2,6.776589E-2,-1.982287E-2,-3.828001E-2,3.0134153E-2,-1.601695E-1,-9.56404E-3,-5.6570955E-2,1.0333107E-1,-1.5609992E-1,-1.2463718E-1,5.0803594E-2,-1.1085307E-1,-9.661942E-2,-1.2244734E-2,2.1930723E-2,-1.0265548E-1],"categories":[],"categories_nodes":[],"categories_segments":[],"categories_sizes":[],"default_left":[0,0,0,0,0,0,0,0,0,0,0,0,0,0,0,0,0,0,0,0,0,0,0,0,0,0,0,0,0,0,0],"id":20,"left_children":[1,3,5,7,9,11,13,15,17,19,21,23,25,27,29,-1,-1,-1,-1,-1,-1,-1,-1,-1,-1,-1,-1,-1,-1,-1,-1],"loss_changes":[3.7427472E2,6.2131447E1,3.5668E1,4.757643E1,1.1775574E1,7.524658E0,9.643742E0,2.0394897E1,1.5515233E1,5.197525E-1,2.8612387E0,2.3918457E0,7.602516E0,5.194519E0,8.340498E0,0E0,0E0,0E0,0E0,0E0,0E0,0E0,0E0,0E0,0E0,0E0,0E0,0E0,0E0,0E0,0E0],"parents":[2147483647,0,0,1,1,2,2,3,3,4,4,5,5,6,6,7,7,8,8,9,9,10,10,11,11,12,12,13,13,14,14],"right_children":[2,4,6,8,10,12,14,16,18,20,22,24,26,28,30,-1,-1,-1,-1,-1,-1,-1,-1,-1,-1,-1,-1,-1,-1,-1,-1],"split_conditions":[4.79E2,4.19E2,4.73E2,4.41E2,5.85E2,7.23E2,4.17E2,7.48E2,2.72E2,7.1E2,2.97E2,5.18E2,2.57E2,1.049E3,6.68E2,6.776589E-2,-1.982287E-2,-3.828001E-2,3.0134153E-2,-1.601695E-1,-9.56404E-3,-5.6570955E-2,1.0333107E-1,-1.5609992E-1,-1.2463718E-1,5.0803594E-2,-1.1085307E-1,-9.661942E-2,-1.2244734E-2,2.1930723E-2,-1.0265548E-1],"split_indices":[67,55,95,73,104,0,108,12,119,119,33,92,10,77,64,0,0,0,0,0,0,0,0,0,0,0,0,0,0,0,0],"split_type":[0,0,0,0,0,0,0,0,0,0,0,0,0,0,0,0,0,0,0,0,0,0,0,0,0,0,0,0,0,0,0],"sum_hessian":[6.8697886E3,4.533876E3,2.3359126E3,4.32165E3,2.1222583E2,1.5525825E3,7.833299E2,3.0995757E3,1.2220745E3,1.7384555E2,3.838028E1,1.3648943E3,1.8768834E2,5.4324347E2,2.4008644E2,2.8387373E3,2.608383E2,7.0787683E2,5.141977E2,1.7162558E2,2.2199752E0,1.9034208E1,1.9346071E1,1.055534E3,3.0936017E2,3.0775366E1,1.5691296E2,4.66475E2,7.676848E1,1.7427887E2,6.5807556E1],"tree_param":{"num_deleted":"0","num_feature":"120","num_nodes":"31","size_leaf_vector":"1"}},{"base_weights":[1.0888766E-1,6.3935206E-3,1.4926082E-1,-1.4697036E-1,6.371498E-2,5.944459E-3,1.6494215E-1,4.827385E-2,-2.2409406E-1,3.4138355E-1,1.4644245E-2,3.3186227E-2,-6.0441697E-1,3.155627E-1,1.5074348E-1,-5.4686904E-2,7.1282856E-2,-1.11125074E-1,-2.8629132E-2,1.12995885E-1,-1.0418226E-1,-6.070667E-2,1.5907845E-2,5.5756573E-2,-3.130919E-2,-2.1455316E-1,1.5377864E-1,-2.291146E-1,1.0287994E-1,-6.873535E-2,4.880707E-2],"categories":[],"categories_nodes":[],"categories_segments":[],"categories_sizes":[],"default_left":[0,0,0,0,0,0,0,0,0,0,0,0,0,0,0,0,0,0,0,0,0,0,0,0,0,0,0,0,0,0,0],"id":21,"left_children":[1,3,5,7,9,11,13,15,17,19,21,23,25,27,29,-1,-1,-1,-1,-1,-1,-1,-1,-1,-1,-1,-1,-1,-1,-1,-1],"loss_changes":[3.8412758E1,2.3080425E1,1.4966064E1,1.0767046E1,2.603397E1,1.0958551E1,1.2790253E1,8.908993E0,9.608145E0,7.100746E0,1.3545942E1,1.3263942E1,3.8504925E0,1.5511051E1,2.4940865E1,0E0,0E0,0E0,0E0,0E0,0E0,0E0,0E0,0E0,0E0,0E0,0E0,0E0,0E0,0E0,0E0],"parents":[2147483647,0,0,1,1,2,2,3,3,4,4,5,5,6,6,7,7,8,8,9,9,10,10,11,11,12,12,13,13,14,14],"right_children":[2,4,6,8,10,12,14,16,18,20,22,24,26,28,30,-1,-1,-1,-1,-1,-1,-1,-1,-1,-1,-1,-1,-1,-1,-1,-1],"split_conditions":[4.67E2,1.97E2,1.33E2,1.35E2,1.75E2,1.648E3,1.36E2,2.26E2,3.92E2,8.46E2,3.05E2,2.88E2,6.8E2,1.75E2,3.45E2,-5.4686904E-2,7.1282856E-2,-1.11125074E-1,-2.8629132E-2,1.12995885E-1,-1.0418226E-1,-6.070667E-2,1.5907845E-2,5.5756573E-2,-3.130919E-2,-2.1455316E-1,1.5377864E-1,-2.291146E-1,1.0287994E-1,-6.873535E-2,4.880707E-2],"split_indices":[83,39,118,103,63,0,99,119,85,111,63,24,88,118,91,0,0,0,0,0,0,0,0,0,0,0,0,0,0,0,0],"split_type":[0,0,0,0,0,0,0,0,0,0,0,0,0,0,0,0,0,0,0,0,0,0,0,0,0,0,0,0,0,0,0],"sum_hessian":[9.282129E3,2.623383E3,6.658746E3,7.13322E2,1.910061E3,6.5686255E2,6.0018833E3,2.0209018E2,5.1123184E2,2.8596436E2,1.6240967E3,6.297031E2,2.71594E1,5.15215E2,5.4866685E3,9.114075E1,1.1094944E2,2.383215E2,2.7291034E2,2.724633E2,1.3501059E1,2.4344714E2,1.3806495E3,2.9828308E2,3.3142004E2,2.5036577E1,2.1228244E0,1.2077281E1,5.0313773E2,1.6674132E2,5.3199272E3],"tree_param":{"num_deleted":"0","num_feature":"120","num_nodes":"31","size_leaf_vector":"1"}},{"base_weights":[-1.1963003E-1,-4.25559E-1,5.448925E-2,-4.4645363E-1,2.7780908E-1,9.4760664E-2,-2.3632212E-1,-4.960592E-1,-2.478266E-1,-6.4035155E-2,5.538084E-1,3.5613587E-1,7.298721E-2,-2.7567208E-1,4.7286236E-1,-1.5038319E-1,7.444658E-2,-8.742315E-2,1.6618334E-2,1.1080172E-1,-1.1537497E-1,2.0527647E-1,-7.367637E-2,1.2958721E-2,1.458629E-1,-1.3855362E-4,5.4282464E-2,-9.17528E-2,7.601593E-2,-8.387248E-2,2.3696275E-1],"categories":[],"categories_nodes":[],"categories_segments":[],"categories_sizes":[],"default_left":[0,0,0,0,0,0,0,0,0,0,0,0,0,0,0,0,0,0,0,0,0,0,0,0,0,0,0,0,0,0,0],"id":22,"left_children":[1,3,5,7,9,11,13,15,17,19,21,23,25,27,29,-1,-1,-1,-1,-1,-1,-1,-1,-1,-1,-1,-1,-1,-1,-1,-1],"loss_changes":[3.0742065E2,3.0887482E1,4.3102966E1,1.9910492E1,5.7912354E0,1.8366291E1,1.2624729E1,6.438507E0,5.412178E0,4.05232E0,3.6986027E0,1.0084482E1,2.3664894E1,6.858471E0,5.9229245E0,0E0,0E0,0E0,0E0,0E0,0E0,0E0,0E0,0E0,0E0,0E0,0E0,0E0,0E0,0E0,0E0],"parents":[2147483647,0,0,1,1,2,2,3,3,4,4,5,5,6,6,7,7,8,8,9,9,10,10,11,11,12,12,13,13,14,14],"right_children":[2,4,6,8,10,12,14,16,18,20,22,24,26,28,30,-1,-1,-1,-1,-1,-1,-1,-1,-1,-1,-1,-1,-1,-1,-1,-1],"split_conditions":[4.38E2,4.64E2,4.97E2,6.76E2,5.27E2,1.32E2,1.431E3,4.06E2,4.04E2,2.1E2,3.7E2,6.37E2,3.35E2,1.538E3,6.76E2,-1.5038319E-1,7.444658E-2,-8.742315E-2,1.6618334E-2,1.1080172E-1,-1.1537497E-1,2.0527647E-1,-7.367637E-2,1.2958721E-2,1.458629E-1,-1.3855362E-4,5.4282464E-2,-9.17528E-2,7.601593E-2,-8.387248E-2,2.3696275E-1],"split_indices":[63,49,95,75,12,37,102,37,62,108,100,6,37,68,4,0,0,0,0,0,0,0,0,0,0,0,0,0,0,0,0],"split_type":[0,0,0,0,0,0,0,0,0,0,0,0,0,0,0,0,0,0,0,0,0,0,0,0,0,0,0,0,0,0,0],"sum_hessian":[5.769757E3,2.0922363E3,3.6775203E3,2.0322311E3,6.000527E1,3.2307954E3,4.4672482E2,1.624922E3,4.0730914E2,2.7148258E1,3.285701E1,2.4725964E2,2.983536E3,4.2381995E2,2.2904877E1,1.6139323E3,1.0989709E1,3.5615555E2,5.115357E1,1.1478014E1,1.5670244E1,2.837137E1,4.485642E0,7.298928E1,1.7427036E2,1.7761141E3,1.2074216E3,4.0135388E2,2.2466057E1,6.8246174E0,1.608026E1],"tree_param":{"num_deleted":"0","num_feature":"120","num_nodes":"31","size_leaf_vector":"1"}},{"base_weights":[-4.9718026E-2,7.154327E-2,-4.1037464E-1,-2.009206E-2,1.9458258E-1,-4.886715E-1,-2.7327448E-1,1.3548075E-1,-1.1573058E-1,3.464819E-1,1.2957735E-1,-3.4580722E-1,-5.1515627E-1,-3.5920173E-1,-1.412337E-1,3.0238837E-2,2.331152E-1,-9.674803E-2,-3.1257158E-3,1.1034113E-1,-6.190394E-2,6.602818E-2,8.3591975E-3,-2.5669353E-2,-1.2465376E-1,-1.561775E-1,-1.4853693E-2,-1.1172304E-1,7.909717E-2,-5.2054543E-2,1.8441832E-1],"categories":[],"categories_nodes":[],"categories_segments":[],"categories_sizes":[],"default_left":[0,0,0,0,0,0,0,0,0,0,0,0,0,0,0,0,0,0,0,0,0,0,0,0,0,0,0,0,0,0,0],"id":23,"left_children":[1,3,5,7,9,11,13,15,17,19,21,23,25,27,29,-1,-1,-1,-1,-1,-1,-1,-1,-1,-1,-1,-1,-1,-1,-1,-1],"loss_changes":[2.819191E2,5.439997E1,1.7277893E1,4.117163E1,2.029116E1,3.723404E0,6.6645393E0,2.3365622E1,3.7308403E1,7.344284E0,1.3287281E1,2.944954E0,2.1706848E0,3.042572E0,5.840852E0,0E0,0E0,0E0,0E0,0E0,0E0,0E0,0E0,0E0,0E0,0E0,0E0,0E0,0E0,0E0,0E0],"parents":[2147483647,0,0,1,1,2,2,3,3,4,4,5,5,6,6,7,7,8,8,9,9,10,10,11,11,12,12,13,13,14,14],"right_children":[2,4,6,8,10,12,14,16,18,20,22,24,26,28,30,-1,-1,-1,-1,-1,-1,-1,-1,-1,-1,-1,-1,-1,-1,-1,-1],"split_conditions":[4.83E2,3.79E2,5.11E2,1.32E2,3.84E2,3.82E2,4.14E2,1.134E3,4.27E2,1.555E3,2.5E2,5.45E2,1.586E3,1.355E3,1.447E3,3.0238837E-2,2.331152E-1,-9.674803E-2,-3.1257158E-3,1.1034113E-1,-6.190394E-2,6.602818E-2,8.3591975E-3,-2.5669353E-2,-1.2465376E-1,-1.561775E-1,-1.4853693E-2,-1.1172304E-1,7.909717E-2,-5.2054543E-2,1.8441832E-1],"split_indices":[65,113,93,113,84,14,0,83,100,109,56,63,68,28,57,0,0,0,0,0,0,0,0,0,0,0,0,0,0,0,0],"split_type":[0,0,0,0,0,0,0,0,0,0,0,0,0,0,0,0,0,0,0,0,0,0,0,0,0,0,0,0,0,0,0],"sum_hessian":[6.444597E3,4.823593E3,1.6210045E3,2.7650889E3,2.058504E3,1.0301368E3,5.908677E2,1.0525369E3,1.7125521E3,6.1562585E2,1.4428779E3,1.63303E2,8.668338E2,3.5689395E2,2.3397372E2,9.996507E2,5.2886127E1,5.7721594E2,1.1353362E3,5.9308594E2,2.2539886E1,7.6284485E2,6.800331E2,3.497022E1,1.2833276E2,8.567154E2,1.0118394E1,3.4987653E2,7.01741E0,2.2513055E2,8.843167E0],"tree_param":{"num_deleted":"0","num_feature":"120","num_nodes":"31","size_leaf_vector":"1"}},{"base_weights":[8.8871695E-2,-6.1068837E-2,1.0532013E-1,-1.5497556E-1,9.596533E-2,1.2983045E-1,2.7508745E-3,-5.6281533E-2,-2.8187028E-1,-1.03209764E-1,2.435242E-1,1.6910008E-1,5.474931E-2,-2.7018696E-1,3.1852007E-2,3.5436753E-2,-5.969893E-2,-1.3680308E-1,-3.1492475E-2,-8.304125E-2,4.0613867E-2,9.762927E-3,1.2668644E-1,9.480606E-2,4.2697992E-2,-9.867924E-2,2.664451E-2,9.480937E-2,-1.12052225E-1,-8.474828E-2,1.4200119E-2],"categories":[],"categories_nodes":[],"categories_segments":[],"categories_sizes":[],"default_left":[0,0,0,0,0,0,0,0,0,0,0,0,0,0,0,0,0,0,0,0,0,0,0,0,0,0,0,0,0,0,0],"id":24,"left_children":[1,3,5,7,9,11,13,15,17,19,21,23,25,27,29,-1,-1,-1,-1,-1,-1,-1,-1,-1,-1,-1,-1,-1,-1,-1,-1],"loss_changes":[2.2158691E1,1.3117998E1,2.0349182E1,6.9526415E0,9.815873E0,1.9253387E1,1.2417108E1,7.844959E0,7.4432774E0,5.938355E0,7.2148237E0,1.6826668E1,2.9373203E1,9.24114E0,6.8879986E0,0E0,0E0,0E0,0E0,0E0,0E0,0E0,0E0,0E0,0E0,0E0,0E0,0E0,0E0,0E0,0E0],"parents":[2147483647,0,0,1,1,2,2,3,3,4,4,5,5,6,6,7,7,8,8,9,9,10,10,11,11,12,12,13,13,14,14],"right_children":[2,4,6,8,10,12,14,16,18,20,22,24,26,28,30,-1,-1,-1,-1,-1,-1,-1,-1,-1,-1,-1,-1,-1,-1,-1,-1],"split_conditions":[1.32E2,6.26E2,4.47E2,7.63E2,3.5E2,2.95E2,3.67E2,1.71E2,4.85E2,2.01E2,3E2,1.99E2,1.73E2,2.39E2,1.34E2,3.5436753E-2,-5.969893E-2,-1.3680308E-1,-3.1492475E-2,-8.304125E-2,4.0613867E-2,9.762927E-3,1.2668644E-1,9.480606E-2,4.2697992E-2,-9.867924E-2,2.664451E-2,9.480937E-2,-1.12052225E-1,-8.474828E-2,1.4200119E-2],"split_indices":[119,91,49,103,10,119,76,61,83,21,59,68,115,12,28,0,0,0,0,0,0,0,0,0,0,0,0,0,0,0,0],"split_type":[0,0,0,0,0,0,0,0,0,0,0,0,0,0,0,0,0,0,0,0,0,0,0,0,0,0,0,0,0,0,0],"sum_hessian":[8.981026E3,8.875543E2,8.0934717E3,5.554232E2,3.3213104E2,6.5322393E3,1.5612327E3,3.132401E2,2.4218312E2,1.4147223E2,1.9065881E2,4.2881562E3,2.244083E3,1.4962491E2,1.4116078E3,1.4104684E2,1.7219328E2,1.21246925E2,1.209362E2,8.1797386E1,5.9674847E1,8.799143E1,1.0266738E2,6.593187E2,3.6288374E3,1.8229129E2,2.0617917E3,2.2111313E1,1.27513596E2,6.5449585E1,1.3461582E3],"tree_param":{"num_deleted":"0","num_feature":"120","num_nodes":"31","size_leaf_vector":"1"}},{"base_weights":[-1.0050562E-1,-4.080328E-1,4.7990948E-2,-4.38879E-1,1.2332135E-1,8.3529055E-2,-2.0865807E-1,-4.9102107E-1,-2.695912E-1,4.029617E-1,-1.3878165E-1,1.2973279E-1,-2.9629832E-2,-2.4358027E-1,3.9573452E-1,-1.4852004E-1,9.587768E-2,-8.6516865E-2,1.92035E-1,6.9855385E-2,3.8368434E-1,-8.8705234E-2,2.1152648E-1,-6.707629E-2,4.6964865E-2,1.3784118E-1,-1.7704653E-2,-8.1993826E-2,6.72086E-2,-7.7712595E-2,1.9521669E-1],"categories":[],"categories_nodes":[],"categories_segments":[],"categories_sizes":[],"default_left":[0,0,0,0,0,0,0,0,0,0,0,0,0,0,0,0,0,0,0,0,0,0,0,0,0,0,0,0,0,0,0],"id":25,"left_children":[1,3,5,7,9,11,13,15,17,19,21,23,25,27,29,-1,-1,-1,-1,-1,-1,-1,-1,-1,-1,-1,-1,-1,-1,-1,-1],"loss_changes":[2.4692033E2,2.8911926E1,3.3280243E1,1.4558289E1,7.193572E0,1.6755829E1,9.464647E0,4.3270264E0,6.924465E0,6.761219E0,6.9626846E0,2.159322E1,1.3390156E1,5.903702E0,4.2801466E0,0E0,0E0,0E0,0E0,0E0,0E0,0E0,0E0,0E0,0E0,0E0,0E0,0E0,0E0,0E0,0E0],"parents":[2147483647,0,0,1,1,2,2,3,3,4,4,5,5,6,6,7,7,8,8,9,9,10,10,11,11,12,12,13,13,14,14],"right_children":[2,4,6,8,10,12,14,16,18,20,22,24,26,28,30,-1,-1,-1,-1,-1,-1,-1,-1,-1,-1,-1,-1,-1,-1,-1,-1],"split_conditions":[4.28E2,4.01E2,4.97E2,6.11E2,3.4E2,5.89E2,1.431E3,3.91E2,1.013E3,1.393E3,1.104E3,2.28E2,5.09E2,1.405E3,6.76E2,-1.4852004E-1,9.587768E-2,-8.6516865E-2,1.92035E-1,6.9855385E-2,3.8368434E-1,-8.8705234E-2,2.1152648E-1,-6.707629E-2,4.6964865E-2,1.3784118E-1,-1.7704653E-2,-8.1993826E-2,6.72086E-2,-7.7712595E-2,1.9521669E-1],"split_indices":[63,49,95,75,76,28,102,41,55,75,49,8,69,62,4,0,0,0,0,0,0,0,0,0,0,0,0,0,0,0,0],"split_type":[0,0,0,0,0,0,0,0,0,0,0,0,0,0,0,0,0,0,0,0,0,0,0,0,0,0,0,0,0,0,0],"sum_hessian":[5.4055776E3,1.7596676E3,3.6459102E3,1.6632845E3,9.638303E1,3.2030583E3,4.428519E2,1.2701632E3,3.931213E2,4.6371445E1,5.0011585E1,2.2742969E3,9.2876135E2,4.1922574E2,2.3626152E1,1.2642427E3,5.92052E0,3.8583142E2,7.2898855E0,3.989075E1,6.480693E0,4.2718464E1,7.293121E0,1.5992249E2,2.1143745E3,5.1808903E1,8.7695245E2,3.945539E2,2.467183E1,6.6174564E0,1.7008696E1],"tree_param":{"num_deleted":"0","num_feature":"120","num_nodes":"31","size_leaf_vector":"1"}},{"base_weights":[-4.1967332E-2,5.7330076E-2,-4.0956825E-1,1.06006615E-1,-1.6224486E-1,-4.4336212E-1,-1.0564851E-2,1.2660521E-1,-1.5664609E-1,-3.1597218E-1,-9.3196765E-2,-4.8193476E-1,-3.037379E-1,-9.7295545E-2,1.08656E0,6.284563E-2,1.1793946E-2,-1.2725481E-1,-1.4159732E-2,7.367967E-2,-1.04040645E-1,-5.418979E-2,3.4552034E-2,-1.4601724E-1,2.0980483E-3,-6.695563E-2,-1.3716057E-1,4.2191535E-2,-1.13717005E-1,-9.943462E-2,4.4040418E-1],"categories":[],"categories_nodes":[],"categories_segments":[],"categories_sizes":[],"default_left":[0,0,0,0,0,0,0,0,0,0,0,0,0,0,0,0,0,0,0,0,0,0,0,0,0,0,0,0,0,0,0],"id":26,"left_children":[1,3,5,7,9,11,13,15,17,19,21,23,25,27,29,-1,-1,-1,-1,-1,-1,-1,-1,-1,-1,-1,-1,-1,-1,-1,-1],"loss_changes":[2.2168924E2,5.1128918E1,1.7411621E1,2.1200783E1,9.18557E0,6.2666626E0,9.799923E0,2.6259792E1,8.32947E0,4.7365303E0,1.0961109E1,2.1841736E0,3.117712E0,6.4444704E0,4.5682106E0,0E0,0E0,0E0,0E0,0E0,0E0,0E0,0E0,0E0,0E0,0E0,0E0,0E0,0E0,0E0,0E0],"parents":[2147483647,0,0,1,1,2,2,3,3,4,4,5,5,6,6,7,7,8,8,9,9,10,10,11,11,12,12,13,13,14,14],"right_children":[2,4,6,8,10,12,14,16,18,20,22,24,26,28,30,-1,-1,-1,-1,-1,-1,-1,-1,-1,-1,-1,-1,-1,-1,-1,-1],"split_conditions":[4.57E2,5.1E2,6.04E2,8.29E2,4.76E2,7.14E2,1.293E3,2.4E2,2.72E2,5.51E2,8.55E2,1.554E3,6.82E2,6.55E2,5.17E2,6.284563E-2,1.1793946E-2,-1.2725481E-1,-1.4159732E-2,7.367967E-2,-1.04040645E-1,-5.418979E-2,3.4552034E-2,-1.4601724E-1,2.0980483E-3,-6.695563E-2,-1.3716057E-1,4.2191535E-2,-1.13717005E-1,-9.943462E-2,4.4040418E-1],"split_indices":[61,71,99,14,95,85,64,54,115,71,76,74,3,80,2,0,0,0,0,0,0,0,0,0,0,0,0,0,0,0,0],"split_type":[0,0,0,0,0,0,0,0,0,0,0,0,0,0,0,0,0,0,0,0,0,0,0,0,0,0,0,0,0,0,0],"sum_hessian":[6.071733E3,4.781094E3,1.2906388E3,3.9139468E3,8.671473E2,1.18976E3,1.008787E2,3.629797E3,2.841497E2,2.676594E2,5.9948785E2,9.303024E2,2.5945758E2,9.4332756E1,6.545943E0,1.8612332E3,1.768564E3,8.1660286E1,2.024894E2,1.3567088E1,2.5409232E2,4.2238196E2,1.771059E2,9.212825E2,9.019979E0,1.7175735E2,8.7700226E1,5.141558E1,4.2917175E1,1.415412E0,5.130531E0],"tree_param":{"num_deleted":"0","num_feature":"120","num_nodes":"31","size_leaf_vector":"1"}},{"base_weights":[7.270267E-2,-3.3211615E-3,9.404489E-2,4.636093E-2,-2.3423652E-1,-3.221754E-2,1.081753E-1,2.2721927E-1,-1.89423E-2,-2.647157E-1,6.9384235E-1,-1.5914775E-1,5.588405E-2,1.1660108E-1,-1.14358574E-1,3.1171909E-2,1.14374414E-1,-5.2285813E-2,1.5725043E-2,-1.0194296E-1,1.5085808E-3,2.4828997E-1,-5.0833102E-2,-8.90678E-2,2.962981E-3,7.029485E-2,-2.2009894E-2,3.2022532E-2,8.622995E-2,-5.106133E-4,-1.9018693E-1],"categories":[],"categories_nodes":[],"categories_segments":[],"categories_sizes":[],"default_left":[0,0,0,0,0,0,0,0,0,0,0,0,0,0,0,0,0,0,0,0,0,0,0,0,0,0,0,0,0,0,0],"id":27,"left_children":[1,3,5,7,9,11,13,15,17,19,21,23,25,27,29,-1,-1,-1,-1,-1,-1,-1,-1,-1,-1,-1,-1,-1,-1,-1,-1],"loss_changes":[1.4214703E1,2.20524E1,1.2207771E1,1.868792E1,9.81097E0,7.716646E0,1.154879E1,7.9328423E0,1.2903321E1,6.6912155E0,1.4220543E0,6.583821E0,9.417355E0,9.954147E0,1.3166383E1,0E0,0E0,0E0,0E0,0E0,0E0,0E0,0E0,0E0,0E0,0E0,0E0,0E0,0E0,0E0,0E0],"parents":[2147483647,0,0,1,1,2,2,3,3,4,4,5,5,6,6,7,7,8,8,9,9,10,10,11,11,12,12,13,13,14,14],"right_children":[2,4,6,8,10,12,14,16,18,20,22,24,26,28,30,-1,-1,-1,-1,-1,-1,-1,-1,-1,-1,-1,-1,-1,-1,-1,-1],"split_conditions":[4.05E2,3.57E2,1.34E2,2.2E2,1.192E3,3.8E2,1.411E3,2.36E2,7.3E2,3.36E2,1.71E3,8.77E2,2.49E2,1.353E3,9.38E2,3.1171909E-2,1.14374414E-1,-5.2285813E-2,1.5725043E-2,-1.0194296E-1,1.5085808E-3,2.4828997E-1,-5.0833102E-2,-8.90678E-2,2.962981E-3,7.029485E-2,-2.2009894E-2,3.2022532E-2,8.622995E-2,-5.106133E-4,-1.9018693E-1],"split_indices":[87,95,119,69,71,73,59,39,56,26,13,105,28,14,8,0,0,0,0,0,0,0,0,0,0,0,0,0,0,0,0],"split_type":[0,0,0,0,0,0,0,0,0,0,0,0,0,0,0,0,0,0,0,0,0,0,0,0,0,0,0,0,0,0,0],"sum_hessian":[8.759703E3,1.9202742E3,6.8394287E3,1.5809315E3,3.3934265E2,6.882536E2,6.151175E3,4.187413E2,1.1621902E3,3.2924463E2,1.0098002E1,2.816569E2,4.065967E2,5.927229E3,2.2394603E2,2.3348866E2,1.8525262E2,3.6536786E2,7.968224E2,2.573431E2,7.190153E1,8.778778E0,1.3192242E0,1.5477106E2,1.2688582E2,1.704605E2,2.3613622E2,5.6053496E3,3.2187906E2,1.8486732E2,3.90787E1],"tree_param":{"num_deleted":"0","num_feature":"120","num_nodes":"31","size_leaf_vector":"1"}},{"base_weights":[-8.471379E-2,-3.8635957E-1,4.4096556E-2,-4.189348E-1,9.490618E-2,6.9881216E-2,-2.2057135E-1,-4.6919647E-1,-1.9661446E-1,-1.3356505E-1,3.374214E-1,9.204189E-2,-1.2620369E-1,-2.666679E-1,3.1555423E-1,-1.4174886E-1,2.6406142E-1,-8.597157E-2,6.899928E-3,3.5131373E-2,-1.2040022E-1,2.4819784E-1,5.2397486E-2,9.734092E-2,2.1951228E-2,-6.4803525E-3,-1.3108726E-1,-8.765137E-2,1.5303071E-1,-4.18858E-2,1.9562231E-1],"categories":[],"categories_nodes":[],"categories_segments":[],"categories_sizes":[],"default_left":[0,0,0,0,0,0,0,0,0,0,0,0,0,0,0,0,0,0,0,0,0,0,0,0,0,0,0,0,0,0,0],"id":28,"left_children":[1,3,5,7,9,11,13,15,17,19,21,23,25,27,29,-1,-1,-1,-1,-1,-1,-1,-1,-1,-1,-1,-1,-1,-1,-1,-1],"loss_changes":[1.9912831E2,2.4081802E1,2.4527905E1,1.5959656E1,5.4770074E0,1.4237479E1,7.9704504E0,5.629547E0,5.2735653E0,3.483347E0,3.6701722E0,1.2880175E1,1.0809839E1,5.9808826E0,4.031156E0,0E0,0E0,0E0,0E0,0E0,0E0,0E0,0E0,0E0,0E0,0E0,0E0,0E0,0E0,0E0,0E0],"parents":[2147483647,0,0,1,1,2,2,3,3,4,4,5,5,6,6,7,7,8,8,9,9,10,10,11,11,12,12,13,13,14,14],"right_children":[2,4,6,8,10,12,14,16,18,20,22,24,26,28,30,-1,-1,-1,-1,-1,-1,-1,-1,-1,-1,-1,-1,-1,-1,-1,-1],"split_conditions":[4.28E2,3.96E2,5.45E2,5.48E2,6.48E2,1.169E3,1.361E3,1.903E3,2.17E2,3.4E2,6.7E2,1.32E2,3.18E2,1.612E3,7.99E2,-1.4174886E-1,2.6406142E-1,-8.597157E-2,6.899928E-3,3.5131373E-2,-1.2040022E-1,2.4819784E-1,5.2397486E-2,9.734092E-2,2.1951228E-2,-6.4803525E-3,-1.3108726E-1,-8.765137E-2,1.5303071E-1,-4.18858E-2,1.9562231E-1],"split_indices":[63,49,95,69,6,71,102,79,32,76,9,37,115,95,18,0,0,0,0,0,0,0,0,0,0,0,0,0,0,0,0],"split_type":[0,0,0,0,0,0,0,0,0,0,0,0,0,0,0,0,0,0,0,0,0,0,0,0,0,0,0,0,0,0,0],"sum_hessian":[5.123457E3,1.5325529E3,3.5909043E3,1.4355171E3,9.703574E1,3.2727957E3,3.1810855E2,1.1699149E3,2.6560217E2,5.019591E1,4.6839832E1,2.9409526E3,3.3184323E2,2.9338562E2,2.472295E1,1.1677094E3,2.20556E0,1.882054E2,7.739677E1,2.6216358E1,2.3979551E1,1.0662749E1,3.6177086E1,2.1963277E2,2.7213198E3,2.4907265E2,8.277057E1,2.8466327E2,8.722349E0,1.0757533E1,1.3965418E1],"tree_param":{"num_deleted":"0","num_feature":"120","num_nodes":"31","size_leaf_vector":"1"}},{"base_weights":[-3.5050496E-2,5.0114848E-2,-3.8792208E-1,8.9623705E-2,-1.334045E-1,-4.228768E-1,-9.576468E-3,1.0711873E-1,-1.3407671E-1,-7.641857E-2,-3.0991912E-1,-4.6588978E-1,-2.7098754E-1,-8.301064E-2,9.9355745E-1,5.2696206E-2,1.0869606E-2,-1.3022523E-1,-1.0612214E-2,2.1289442E-2,-5.753735E-2,-9.968496E-2,3.8867503E-1,-7.78485E-2,-1.441107E-1,-1.04646936E-1,-1.9530281E-2,1.3249528E-1,-5.6412004E-2,-1.0398355E-1,4.4365045E-1],"categories":[],"categories_nodes":[],"categories_segments":[],"categories_sizes":[],"default_left":[0,0,0,0,0,0,0,0,0,0,0,0,0,0,0,0,0,0,0,0,0,0,0,0,0,0,0,0,0,0,0],"id":29,"left_children":[1,3,5,7,9,11,13,15,17,19,21,23,25,27,29,-1,-1,-1,-1,-1,-1,-1,-1,-1,-1,-1,-1,-1,-1,-1,-1],"loss_changes":[1.7391318E2,3.3816036E1,1.4875671E1,1.5030697E1,8.287962E0,6.6026E0,7.167529E0,1.7284916E1,8.238964E0,1.0657603E1,7.659441E0,2.2698364E0,3.658123E0,5.072384E0,4.8294306E0,0E0,0E0,0E0,0E0,0E0,0E0,0E0,0E0,0E0,0E0,0E0,0E0,0E0,0E0,0E0,0E0],"parents":[2147483647,0,0,1,1,2,2,3,3,4,4,5,5,6,6,7,7,8,8,9,9,10,10,11,11,12,12,13,13,14,14],"right_children":[2,4,6,8,10,12,14,16,18,20,22,24,26,28,30,-1,-1,-1,-1,-1,-1,-1,-1,-1,-1,-1,-1,-1,-1,-1,-1],"split_conditions":[4.6E2,5.1E2,6.04E2,8.29E2,8.27E2,7.14E2,1.412E3,2.4E2,6.44E2,2.76E2,1.114E3,2.52E2,2.63E2,4.92E2,6.43E2,5.2696206E-2,1.0869606E-2,-1.3022523E-1,-1.0612214E-2,2.1289442E-2,-5.753735E-2,-9.968496E-2,3.8867503E-1,-7.78485E-2,-1.441107E-1,-1.04646936E-1,-1.9530281E-2,1.3249528E-1,-5.6412004E-2,-1.0398355E-1,4.4365045E-1],"split_indices":[61,71,99,14,2,85,60,54,3,51,0,14,116,80,101,0,0,0,0,0,0,0,0,0,0,0,0,0,0,0,0],"split_type":[0,0,0,0,0,0,0,0,0,0,0,0,0,0,0,0,0,0,0,0,0,0,0,0,0,0,0,0,0,0,0],"sum_hessian":[5.785345E3,4.66122E3,1.1241248E3,3.8359185E3,8.2530194E2,1.0289446E3,9.518026E1,3.5581648E3,2.7775363E2,6.2496985E2,2.003321E2,8.0025574E2,2.2868877E2,8.9542564E1,5.6376934E0,1.8083362E3,1.7498285E3,6.791815E1,2.098355E2,2.745848E2,3.50385E2,1.9836203E2,1.970076E0,5.370043E1,7.4655536E2,1.6544713E2,6.324164E1,1.4400679E1,7.5141884E1,1.5746888E0,4.0630045E0],"tree_param":{"num_deleted":"0","num_feature":"120","num_nodes":"31","size_leaf_vector":"1"}},{"base_weights":[5.96618E-2,-1.0382759E-2,7.570987E-2,-8.391201E-2,6.4694226E-2,1.9777161E-1,6.1842725E-2,7.69084E-2,-1.4377476E-1,9.3713075E-2,-2.1822752E-1,1.250677E-1,4.373362E-1,-1.627645E-1,7.131788E-2,-5.8267448E-2,7.6385E-2,-7.887549E-2,-1.591524E-2,2.1114701E-2,1.3699727E-1,-2.309522E-1,-7.19246E-4,2.5823813E-2,2.2915705E-1,1.3774052E-1,-1.4822844E-1,1.3402219E-1,-6.460698E-2,-2.0431144E-2,2.4181811E-2],"categories":[],"categories_nodes":[],"categories_segments":[],"categories_sizes":[],"default_left":[0,0,0,0,0,0,0,0,0,0,0,0,0,0,0,0,0,0,0,0,0,0,0,0,0,0,0,0,0,0,0],"id":30,"left_children":[1,3,5,7,9,11,13,15,17,19,21,23,25,27,29,-1,-1,-1,-1,-1,-1,-1,-1,-1,-1,-1,-1,-1,-1,-1,-1],"loss_changes":[9.632853E0,8.827796E0,1.1788391E1,7.788198E0,6.5172267E0,1.2325172E1,1.3338139E1,1.0639289E1,6.353179E0,6.051135E0,8.7979965E0,1.3549824E1,3.578802E0,8.230956E0,7.78714E0,0E0,0E0,0E0,0E0,0E0,0E0,0E0,0E0,0E0,0E0,0E0,0E0,0E0,0E0,0E0,0E0],"parents":[2147483647,0,0,1,1,2,2,3,3,4,4,5,5,6,6,7,7,8,8,9,9,10,10,11,11,12,12,13,13,14,14],"right_children":[2,4,6,8,10,12,14,16,18,20,22,24,26,28,30,-1,-1,-1,-1,-1,-1,-1,-1,-1,-1,-1,-1,-1,-1,-1,-1],"split_conditions":[1.87E2,5.53E2,2.19E2,1.85E2,1.059E3,4.24E2,3.53E2,1.68E2,2.89E2,1.248E3,1.085E3,1.404E3,3.91E2,2.49E2,2.62E2,-5.8267448E-2,7.6385E-2,-7.887549E-2,-1.591524E-2,2.1114701E-2,1.3699727E-1,-2.309522E-1,-7.19246E-4,2.5823813E-2,2.2915705E-1,1.3774052E-1,-1.4822844E-1,1.3402219E-1,-6.460698E-2,-2.0431144E-2,2.4181811E-2],"split_indices":[41,90,77,99,77,71,77,119,70,109,78,101,41,4,91,0,0,0,0,0,0,0,0,0,0,0,0,0,0,0,0],"split_type":[0,0,0,0,0,0,0,0,0,0,0,0,0,0,0,0,0,0,0,0,0,0,0,0,0,0,0,0,0,0,0],"sum_hessian":[8.567845E3,1.5971523E3,6.970692E3,8.068339E2,7.903185E2,7.0978064E2,6.260911E3,2.1878542E2,5.880485E2,7.174042E2,7.291429E1,5.4569366E2,1.6408699E2,2.5277354E2,6.0081377E3,8.658615E1,1.3219925E2,2.5338797E2,3.3466055E2,6.751953E2,4.2208885E1,1.9783983E1,5.313031E1,5.1537274E2,3.0320889E1,1.6083005E2,3.2569385E0,1.9483149E1,2.3329039E2,3.7486197E2,5.633276E3],"tree_param":{"num_deleted":"0","num_feature":"120","num_nodes":"31","size_leaf_vector":"1"}},{"base_weights":[-7.0940934E-2,-3.6390093E-1,4.075373E-2,-2.208625E-1,-4.800621E-1,6.1506942E-2,-2.0221955E-1,-2.96607E-1,2.194911E-1,-4.969677E-1,-1.8023524E-1,-1.7661393E-2,1.08905286E-1,-2.6570532E-1,2.779621E-1,-1.4446704E-1,-5.409096E-2,1.0945222E-1,-3.5708312E-2,-1.5335372E-1,-1.21508576E-1,4.6097036E-2,-1.1820148E-1,-2.3731025E-2,5.2612673E-2,-8.441072E-2,3.9867416E-2,-9.574864E-2,3.0054491E-2,2.4592261E-1,-5.7521705E-2],"categories":[],"categories_nodes":[],"categories_segments":[],"categories_sizes":[],"default_left":[0,0,0,0,0,0,0,0,0,0,0,0,0,0,0,0,0,0,0,0,0,0,0,0,0,0,0,0,0,0,0],"id":31,"left_children":[1,3,5,7,9,11,13,15,17,19,21,23,25,27,29,-1,-1,-1,-1,-1,-1,-1,-1,-1,-1,-1,-1,-1,-1,-1,-1],"loss_changes":[1.5999498E2,2.2318298E1,1.786511E1,2.030054E1,3.6811829E0,1.2244731E1,8.574196E0,1.1056988E1,4.452727E0,7.1232605E-1,3.006647E0,1.4515666E1,1.9142859E1,4.8589764E0,8.567489E0,0E0,0E0,0E0,0E0,0E0,0E0,0E0,0E0,0E0,0E0,0E0,0E0,0E0,0E0,0E0,0E0],"parents":[2147483647,0,0,1,1,2,2,3,3,4,4,5,5,6,6,7,7,8,8,9,9,10,10,11,11,12,12,13,13,14,14],"right_children":[2,4,6,8,10,12,14,16,18,20,22,24,26,28,30,-1,-1,-1,-1,-1,-1,-1,-1,-1,-1,-1,-1,-1,-1,-1,-1],"split_conditions":[4.28E2,4.63E2,4.84E2,2.88E2,5.36E2,2.97E2,1.366E3,1.92E2,8.58E2,4.37E2,5.67E2,5.49E2,2.38E2,1.162E3,7.34E2,-1.4446704E-1,-5.409096E-2,1.0945222E-1,-3.5708312E-2,-1.5335372E-1,-1.21508576E-1,4.6097036E-2,-1.1820148E-1,-2.3731025E-2,5.2612673E-2,-8.441072E-2,3.9867416E-2,-9.574864E-2,3.0054491E-2,2.4592261E-1,-5.7521705E-2],"split_indices":[63,105,98,30,28,0,68,105,85,68,6,45,6,79,80,0,0,0,0,0,0,0,0,0,0,0,0,0,0,0,0],"split_type":[0,0,0,0,0,0,0,0,0,0,0,0,0,0,0,0,0,0,0,0,0,0,0,0,0,0,0,0,0,0,0],"sum_hessian":[4.8880596E3,1.3486018E3,3.539458E3,6.056806E2,7.4292114E2,3.2616184E3,2.778396E2,5.170672E2,8.861343E1,7.0264526E2,4.027587E1,1.2216885E3,2.0399299E3,2.4578989E2,3.204971E1,1.9840962E2,3.1865756E2,6.1940372E1,2.6673056E1,6.046264E2,9.8018875E1,1.5830709E1,2.4445164E1,9.2716876E2,2.9451968E2,1.174927E2,1.9224373E3,2.1456866E2,3.1221218E1,1.4536845E1,1.7512865E1],"tree_param":{"num_deleted":"0","num_feature":"120","num_nodes":"31","size_leaf_vector":"1"}},{"base_weights":[-2.9640378E-2,4.0430054E-2,-3.8078058E-1,7.59786E-2,-1.1403849E-1,-4.6125934E-1,-1.8649158E-1,8.452818E-2,-2.878151E-1,-2.661279E-1,-4.3185852E-2,-2.6592064E-1,-4.840599E-1,-2.3103507E-1,2.5825757E-1,4.0411983E-2,6.3250796E-3,-1.7193584E-1,5.755015E-2,-9.978588E-2,-7.4283932E-3,-3.9624672E-2,2.8173327E-2,-9.760366E-2,1.8749526E-1,-1.4659269E-1,-3.3191327E-2,-7.780038E-2,8.010039E-2,3.2897034E-1,-2.0052178E-3],"categories":[],"categories_nodes":[],"categories_segments":[],"categories_sizes":[],"default_left":[0,0,0,0,0,0,0,0,0,0,0,0,0,0,0,0,0,0,0,0,0,0,0,0,0,0,0,0,0,0,0],"id":32,"left_children":[1,3,5,7,9,11,13,15,17,19,21,23,25,27,29,-1,-1,-1,-1,-1,-1,-1,-1,-1,-1,-1,-1,-1,-1,-1,-1],"loss_changes":[1.3648271E2,2.5403255E1,1.4342545E1,1.1719219E1,9.315986E0,2.7743683E0,5.4473E0,1.1695133E1,1.1955893E1,4.4035244E0,7.223564E0,3.9277325E0,9.4262695E-1,3.5607395E0,5.6110187E0,0E0,0E0,0E0,0E0,0E0,0E0,0E0,0E0,0E0,0E0,0E0,0E0,0E0,0E0,0E0,0E0],"parents":[2147483647,0,0,1,1,2,2,3,3,4,4,5,5,6,6,7,7,8,8,9,9,10,10,11,11,12,12,13,13,14,14],"right_children":[2,4,6,8,10,12,14,16,18,20,22,24,26,28,30,-1,-1,-1,-1,-1,-1,-1,-1,-1,-1,-1,-1,-1,-1,-1,-1],"split_conditions":[4.57E2,5.1E2,5.18E2,1.709E3,4.76E2,3.9E2,9.25E2,2.73E2,4.38E2,7.5E2,7.89E2,3.93E2,1.529E3,1.378E3,5.63E2,4.0411983E-2,6.3250796E-3,-1.7193584E-1,5.755015E-2,-9.978588E-2,-7.4283932E-3,-3.9624672E-2,2.8173327E-2,-9.760366E-2,1.8749526E-1,-1.4659269E-1,-3.3191327E-2,-7.780038E-2,8.010039E-2,3.2897034E-1,-2.0052178E-3],"split_indices":[59,71,92,101,95,4,47,57,11,0,77,3,69,54,79,0,0,0,0,0,0,0,0,0,0,0,0,0,0,0,0],"split_type":[0,0,0,0,0,0,0,0,0,0,0,0,0,0,0,0,0,0,0,0,0,0,0,0,0,0,0,0,0,0,0],"sum_hessian":[5.545427E3,4.623656E3,9.21771E2,3.7590718E3,8.6458405E2,6.5081506E2,2.7095596E2,3.6735076E3,8.556413E1,2.738953E2,5.906887E2,6.934873E1,5.814663E2,2.4672586E2,2.4230104E1,2.0505786E3,1.622929E3,5.3529118E1,3.2035015E1,2.1444258E2,5.9452717E1,3.5835852E2,2.323302E2,6.560742E1,3.741313E0,5.741127E2,7.3536506E0,2.3391365E2,1.2812207E1,5.06497E0,1.9165134E1],"tree_param":{"num_deleted":"0","num_feature":"120","num_nodes":"31","size_leaf_vector":"1"}},{"base_weights":[4.9345437E-2,5.2893143E-2,-2.571507E-1,1.3966556E-3,7.315735E-2,-6.660234E-2,-5.901632E-1,2.0470414E-2,-3.0939966E-1,2.1228084E-1,5.3582326E-2,-2.3160493E-1,2.8525086E-2,-6.452589E-1,1.381478E-1,-1.2598825E-3,6.2797226E-2,-1.2903748E-1,6.4087674E-2,7.248954E-2,-5.567405E-2,-9.6011244E-2,1.8821774E-2,1.4136994E-1,-3.4163624E-2,-1.4335093E-2,-2.1317387E-1],"categories":[],"categories_nodes":[],"categories_segments":[],"categories_sizes":[],"default_left":[0,0,0,0,0,0,0,0,0,0,0,0,0,0,0,0,0,0,0,0,0,0,0,0,0,0,0],"id":33,"left_children":[1,3,5,7,9,11,13,15,17,19,21,-1,23,25,-1,-1,-1,-1,-1,-1,-1,-1,-1,-1,-1,-1,-1],"loss_changes":[9.171175E0,8.688707E0,6.086542E0,1.39506235E1,1.6260792E1,4.218103E0,2.3236132E0,1.0330774E1,8.683933E0,8.647381E0,1.7945137E1,0E0,3.5881689E0,1.2804842E0,0E0,0E0,0E0,0E0,0E0,0E0,0E0,0E0,0E0,0E0,0E0,0E0,0E0],"parents":[2147483647,0,0,1,1,2,2,3,3,4,4,5,5,6,6,7,7,8,8,9,9,10,10,12,12,13,13],"right_children":[2,4,6,8,10,12,14,16,18,20,22,-1,24,26,-1,-1,-1,-1,-1,-1,-1,-1,-1,-1,-1,-1,-1],"split_conditions":[1.659E3,2.02E2,7.37E2,2.95E2,2.52E2,3.47E2,1.032E3,2.14E2,2.78E2,3.97E2,2.57E2,-2.3160493E-1,2.47E2,2.1E2,1.381478E-1,-1.2598825E-3,6.2797226E-2,-1.2903748E-1,6.4087674E-2,7.248954E-2,-5.567405E-2,-9.6011244E-2,1.8821774E-2,1.4136994E-1,-3.4163624E-2,-1.4335093E-2,-2.1317387E-1],"split_indices":[57,117,10,119,97,86,43,119,56,115,89,0,0,111,0,0,0,0,0,0,0,0,0,0,0,0,0],"split_type":[0,0,0,0,0,0,0,0,0,0,0,0,0,0,0,0,0,0,0,0,0,0,0,0,0,0,0],"sum_hessian":[8.420857E3,8.325319E3,9.553848E1,2.3512544E3,5.974065E3,6.1530807E1,3.400768E1,2.2161802E3,1.3507419E2,7.3567004E2,5.238395E3,6.4660964E0,5.5064713E1,3.267982E1,1.3278579E0,1.9609927E3,2.5518742E2,1.0988746E2,2.5186726E1,6.854927E2,5.0177406E1,1.2450259E2,5.113892E3,1.2839589E1,4.222512E1,3.3913455E0,2.9288475E1],"tree_param":{"num_deleted":"0","num_feature":"120","num_nodes":"27","size_leaf_vector":"1"}},{"base_weights":[-5.985604E-2,-3.722611E-1,2.9624602E-2,-4.311953E-1,5.4959845E-2,5.476847E-2,-1.9857779E-1,-4.7148788E-1,-1.6211715E-1,1.9230181E-1,-3.2977876E-1,8.803349E-2,-4.794027E-2,-2.4110307E-1,2.945876E-1,-1.4439425E-1,1.00210875E-1,2.0726149E-1,-8.260844E-2,-2.4754874E-2,1.3128251E-1,3.8335737E-2,-1.2847328E-1,4.7215726E-2,1.3060919E-3,-2.9776E-2,7.0643246E-2,-8.34156E-2,4.7677882E-2,-4.5376748E-2,2.0981684E-1],"categories":[],"categories_nodes":[],"categories_segments":[],"categories_sizes":[],"default_left":[0,0,0,0,0,0,0,0,0,0,0,0,0,0,0,0,0,0,0,0,0,0,0,0,0,0,0,0,0,0,0],"id":34,"left_children":[1,3,5,7,9,11,13,15,17,19,21,23,25,27,29,-1,-1,-1,-1,-1,-1,-1,-1,-1,-1,-1,-1,-1,-1,-1,-1],"loss_changes":[1.3124E2,2.6342102E1,2.0954924E1,9.883911E0,6.8060617E0,1.1240245E1,7.67297E0,6.481262E0,1.1895289E1,6.4180307E0,1.5837071E0,1.4417583E1,1.1733306E1,4.984701E0,5.38031E0,0E0,0E0,0E0,0E0,0E0,0E0,0E0,0E0,0E0,0E0,0E0,0E0,0E0,0E0,0E0,0E0],"parents":[2147483647,0,0,1,1,2,2,3,3,4,4,5,5,6,6,7,7,8,8,9,9,10,10,11,11,12,12,13,13,14,14],"right_children":[2,4,6,8,10,12,14,16,18,20,22,24,26,28,30,-1,-1,-1,-1,-1,-1,-1,-1,-1,-1,-1,-1,-1,-1,-1,-1],"split_conditions":[4.15E2,3.18E2,5.45E2,4.74E2,3.61E2,3.21E2,1.436E3,4.04E2,1.37E2,5.52E2,2E2,3.72E2,1.192E3,1.236E3,7.95E2,-1.4439425E-1,1.00210875E-1,2.0726149E-1,-8.260844E-2,-2.4754874E-2,1.3128251E-1,3.8335737E-2,-1.2847328E-1,4.7215726E-2,1.3060919E-3,-2.9776E-2,7.0643246E-2,-8.34156E-2,4.7677882E-2,-4.5376748E-2,2.0981684E-1],"split_indices":[65,41,95,21,107,104,70,51,47,6,0,28,55,77,15,0,0,0,0,0,0,0,0,0,0,0,0,0,0,0,0],"split_type":[0,0,0,0,0,0,0,0,0,0,0,0,0,0,0,0,0,0,0,0,0,0,0,0,0,0,0,0,0,0,0],"sum_hessian":[4.693427E3,1.044297E3,3.6491296E3,9.1769385E2,1.2660311E2,3.287649E3,3.6148077E2,7.975187E2,1.2017517E2,9.366666E1,3.2936455E1,2.4834568E3,8.041922E2,3.3325552E2,2.8225254E1,7.88305E2,9.213718E0,1.3486938E1,1.0668823E2,4.448902E1,4.9177635E1,5.779873E0,2.7156582E1,1.3575032E3,1.1259536E3,6.814625E2,1.22729645E2,3.0535608E2,2.789944E1,1.372979E1,1.4495463E1],"tree_param":{"num_deleted":"0","num_feature":"120","num_nodes":"31","size_leaf_vector":"1"}},{"base_weights":[-2.515632E-2,3.527234E-2,-3.5957098E-1,6.40462E-2,-1.0779227E-1,-3.962137E-1,5.7627343E-2,1.1062615E-1,-3.2841515E-2,-2.2847365E-1,6.6418326E-3,-4.4115555E-1,-2.5237572E-1,-6.092255E-2,7.4396884E-1,1.4461325E-2,6.332795E-2,7.0772753E-3,-6.938589E-2,-1.4765657E-1,-3.887142E-2,1.8700311E-2,-1.09846435E-1,-1.346388E-1,4.391953E-2,-8.5276976E-2,1.07098386E-1,4.712245E-2,-1.4472488E-1,-1.280613E-2,3.4575087E-1],"categories":[],"categories_nodes":[],"categories_segments":[],"categories_sizes":[],"default_left":[0,0,0,0,0,0,0,0,0,0,0,0,0,0,0,0,0,0,0,0,0,0,0,0,0,0,0,0,0,0,0],"id":35,"left_children":[1,3,5,7,9,11,13,15,17,19,21,23,25,27,29,-1,-1,-1,-1,-1,-1,-1,-1,-1,-1,-1,-1,-1,-1,-1,-1],"loss_changes":[1.0813005E2,1.8664055E1,1.2541641E1,1.7035675E1,1.0487317E1,4.7557526E0,5.4960613E0,1.5974802E1,1.3735935E1,9.575722E0,8.134588E0,2.6350098E0,3.6290588E0,5.409493E0,3.244482E0,0E0,0E0,0E0,0E0,0E0,0E0,0E0,0E0,0E0,0E0,0E0,0E0,0E0,0E0,0E0,0E0],"parents":[2147483647,0,0,1,1,2,2,3,3,4,4,5,5,6,6,7,7,8,8,9,9,10,10,11,11,12,12,13,13,14,14],"right_children":[2,4,6,8,10,12,14,16,18,20,22,24,26,28,30,-1,-1,-1,-1,-1,-1,-1,-1,-1,-1,-1,-1,-1,-1,-1,-1],"split_conditions":[4.79E2,7.37E2,6.09E2,2.78E2,3.37E2,7.25E2,1.268E3,2.79E2,6.37E2,1.93E2,1.014E3,1.554E3,1.434E3,6.8E2,8.44E2,1.4461325E-2,6.332795E-2,7.0772753E-3,-6.938589E-2,-1.4765657E-1,-3.887142E-2,1.8700311E-2,-1.09846435E-1,-1.346388E-1,4.391953E-2,-8.5276976E-2,1.07098386E-1,4.712245E-2,-1.4472488E-1,-1.280613E-2,3.4575087E-1],"split_indices":[61,6,99,51,115,83,65,26,77,58,110,74,54,80,73,0,0,0,0,0,0,0,0,0,0,0,0,0,0,0,0],"split_type":[0,0,0,0,0,0,0,0,0,0,0,0,0,0,0,0,0,0,0,0,0,0,0,0,0,0,0,0,0,0,0],"sum_hessian":[5.349165E3,4.5312617E3,8.179035E2,3.7729749E3,7.582869E2,7.5191296E2,6.5990585E1,2.5478992E3,1.2250756E3,3.685842E2,3.8970273E2,5.71334E2,1.8057895E2,5.7048065E1,8.94252E0,1.5724136E3,9.754856E2,9.545173E2,2.7055826E2,9.9445145E1,2.6913904E2,3.39776E2,4.992675E1,5.64233E2,7.10105E0,1.7210815E2,8.470781E0,3.801432E1,1.9033745E1,3.3627887E0,5.579732E0],"tree_param":{"num_deleted":"0","num_feature":"120","num_nodes":"31","size_leaf_vector":"1"}},{"base_weights":[4.0828325E-2,4.6525694E-2,-1.1594235E-1,4.150533E-2,2.360198E-1,-2.43346E-1,1.4685494E-1,4.3980587E-2,-3.7988782E-1,4.6940755E-2,3.680518E-1,2.591043E-1,-3.1898442E-1,-6.022622E-1,2.2534564E-1,8.107751E-3,3.1830005E-2,-1.8961784E-1,-2.0206751E-2,3.8712434E-2,-4.141774E-1,1.2146255E-1,-1.3968371E-2,-1.6789089E-1,1.573884E-1,-5.0211072E-2,-1.5010461E-1,1.541304E-1,-2.6487064E-1,1.2598608E-1,4.6511125E-3],"categories":[],"categories_nodes":[],"categories_segments":[],"categories_sizes":[],"default_left":[0,0,0,0,0,0,0,0,0,0,0,0,0,0,0,0,0,0,0,0,0,0,0,0,0,0,0,0,0,0,0],"id":36,"left_children":[1,3,5,7,9,11,13,15,17,19,21,23,25,27,29,-1,-1,-1,-1,-1,-1,-1,-1,-1,-1,-1,-1,-1,-1,-1,-1],"loss_changes":[7.4151945E0,7.6063232E0,9.785714E0,8.152916E0,5.135721E0,7.550603E0,5.7630377E0,8.165583E0,3.555604E0,1.0259532E1,1.8722496E0,6.002935E0,4.6248837E0,3.3817282E0,3.5608296E0,0E0,0E0,0E0,0E0,0E0,0E0,0E0,0E0,0E0,0E0,0E0,0E0,0E0,0E0,0E0,0E0],"parents":[2147483647,0,0,1,1,2,2,3,3,4,4,5,5,6,6,7,7,8,8,9,9,10,10,11,11,12,12,13,13,14,14],"right_children":[2,4,6,8,10,12,14,16,18,20,22,24,26,28,30,-1,-1,-1,-1,-1,-1,-1,-1,-1,-1,-1,-1,-1,-1,-1,-1],"split_conditions":[1.396E3,1.497E3,9.87E2,1.595E3,2.72E2,7.09E2,9.6E2,8.78E2,1.293E3,3.21E2,4.1E2,1.71E2,2.72E2,8.68E2,6.17E2,8.107751E-3,3.1830005E-2,-1.8961784E-1,-2.0206751E-2,3.8712434E-2,-4.141774E-1,1.2146255E-1,-1.3968371E-2,-1.6789089E-1,1.573884E-1,-5.0211072E-2,-1.5010461E-1,1.541304E-1,-2.6487064E-1,1.2598608E-1,4.6511125E-3],"split_indices":[63,83,28,58,118,61,66,63,61,110,114,42,33,19,5,0,0,0,0,0,0,0,0,0,0,0,0,0,0,0,0],"split_type":[0,0,0,0,0,0,0,0,0,0,0,0,0,0,0,0,0,0,0,0,0,0,0,0,0,0,0,0,0,0,0],"sum_hessian":[8.294971E3,8.0047637E3,2.9020636E2,7.7993506E3,2.0541318E2,1.9550157E2,9.4704796E1,7.7546953E3,4.4655354E1,8.501758E1,1.2039559E2,2.5262491E1,1.7023907E2,8.348971E0,8.635582E1,6.0930933E3,1.6616019E3,2.4148418E1,2.0506935E1,8.1254074E1,3.7635057E0,1.1059659E2,9.799003E0,5.915233E0,1.9347258E1,9.37719E1,7.6467186E1,1.5106834E0,6.838288E0,4.4284748E1,4.2071075E1],"tree_param":{"num_deleted":"0","num_feature":"120","num_nodes":"31","size_leaf_vector":"1"}},{"base_weights":[-5.0518762E-2,-3.5193098E-1,2.6373416E-2,-4.1545603E-1,6.262595E-2,4.6949502E-2,-1.9617836E-1,-4.599471E-1,-1.4232919E-1,1.827584E-1,-3.0482757E-1,-1.7900364E-1,6.0453918E-2,-2.5597778E-1,1.6514304E-1,-1.4060587E-1,1.5845872E-1,3.3107695E-1,-6.2184084E-2,-4.5100845E-2,1.0229472E-1,-1.3264853E-1,1.7460974E-2,-1.03870034E-1,4.552242E-2,9.9746086E-2,1.2349424E-2,-1.2555988E-1,-4.9224976E-2,-7.63762E-2,1.3502802E-1],"categories":[],"categories_nodes":[],"categories_segments":[],"categories_sizes":[],"default_left":[0,0,0,0,0,0,0,0,0,0,0,0,0,0,0,0,0,0,0,0,0,0,0,0,0,0,0,0,0,0,0],"id":37,"left_children":[1,3,5,7,9,11,13,15,17,19,21,23,25,27,29,-1,-1,-1,-1,-1,-1,-1,-1,-1,-1,-1,-1,-1,-1,-1,-1],"loss_changes":[1.0512E2,2.430368E1,1.6560398E1,9.650101E0,5.501404E0,1.0108736E1,6.6557198E0,6.1808167E0,9.408998E0,4.984047E0,1.5598025E0,1.0389164E1,1.6375843E1,3.8601513E0,5.3856573E0,0E0,0E0,0E0,0E0,0E0,0E0,0E0,0E0,0E0,0E0,0E0,0E0,0E0,0E0,0E0,0E0],"parents":[2147483647,0,0,1,1,2,2,3,3,4,4,5,5,6,6,7,7,8,8,9,9,10,10,11,11,12,12,13,13,14,14],"right_children":[2,4,6,8,10,12,14,16,18,20,22,24,26,28,30,-1,-1,-1,-1,-1,-1,-1,-1,-1,-1,-1,-1,-1,-1,-1,-1],"split_conditions":[4.15E2,3.18E2,4.85E2,4.74E2,3.61E2,1.35E2,1.236E3,6.48E2,2.17E2,2.55E2,7.86E2,1.33E2,1.7E2,4.27E2,5.18E2,-1.4060587E-1,1.5845872E-1,3.3107695E-1,-6.2184084E-2,-4.5100845E-2,1.0229472E-1,-1.3264853E-1,1.7460974E-2,-1.03870034E-1,4.552242E-2,9.9746086E-2,1.2349424E-2,-1.2555988E-1,-4.9224976E-2,-7.63762E-2,1.3502802E-1],"split_indices":[65,41,99,21,107,101,77,54,87,23,95,106,102,61,19,0,0,0,0,0,0,0,0,0,0,0,0,0,0,0,0],"split_type":[0,0,0,0,0,0,0,0,0,0,0,0,0,0,0,0,0,0,0,0,0,0,0,0,0,0,0,0,0,0,0],"sum_hessian":[4.5342793E3,9.208869E2,3.6133923E3,7.9852234E2,1.2236458E2,3.3083105E3,3.050817E2,6.860792E2,1.1244311E2,9.259493E1,2.9769644E1,1.858839E2,3.1224265E3,2.6201007E2,4.3071632E1,6.805859E2,5.493392E0,4.7790117E0,1.0766409E2,2.9835281E1,6.275965E1,2.1440685E1,8.32896E0,1.2342931E2,6.2454586E1,2.0566862E2,2.916758E3,9.334126E1,1.6866881E2,1.7459877E1,2.5611755E1],"tree_param":{"num_deleted":"0","num_feature":"120","num_nodes":"31","size_leaf_vector":"1"}},{"base_weights":[-2.1134544E-2,2.5871031E-2,-3.7100282E-1,5.252943E-2,-1.0543852E-1,-4.1276118E-1,7.842678E-2,4.247853E-2,3.0007076E-1,-5.23172E-2,-3.1315404E-1,-4.4913277E-1,-1.9703911E-1,-3.18109E-1,3.1144324E-1,1.7686866E-2,-4.9055398E-2,-1.014949E-1,1.6630942E-1,8.5012294E-2,-3.018547E-2,-1.0045162E-1,1.8395317E-1,-6.2280882E-2,-1.3968536E-1,3.0309452E-2,-9.828858E-2,-1.3511461E-1,2.0183979E-1,3.0342844E-1,3.738437E-2],"categories":[],"categories_nodes":[],"categories_segments":[],"categories_sizes":[],"default_left":[0,0,0,0,0,0,0,0,0,0,0,0,0,0,0,0,0,0,0,0,0,0,0,0,0,0,0,0,0,0,0],"id":38,"left_children":[1,3,5,7,9,11,13,15,17,19,21,23,25,27,29,-1,-1,-1,-1,-1,-1,-1,-1,-1,-1,-1,-1,-1,-1,-1,-1],"loss_changes":[8.528964E1,1.6010872E1,1.1560043E1,9.445064E0,8.501355E0,4.3224335E0,5.0017595E0,1.2413235E1,2.4239315E1,1.0015409E1,3.3592386E0,1.8156662E0,3.2596452E0,2.9419544E0,4.3107123E0,0E0,0E0,0E0,0E0,0E0,0E0,0E0,0E0,0E0,0E0,0E0,0E0,0E0,0E0,0E0,0E0],"parents":[2147483647,0,0,1,1,2,2,3,3,4,4,5,5,6,6,7,7,8,8,9,9,10,10,11,11,12,12,13,13,14,14],"right_children":[2,4,6,8,10,12,14,16,18,20,22,24,26,28,30,-1,-1,-1,-1,-1,-1,-1,-1,-1,-1,-1,-1,-1,-1,-1,-1],"split_conditions":[4.74E2,5.36E2,6.04E2,1.039E3,3.06E2,8.25E2,3.81E2,8.29E2,4.37E2,1.82E2,1.44E3,2.39E2,2.42E2,1.597E3,3.93E2,1.7686866E-2,-4.9055398E-2,-1.014949E-1,1.6630942E-1,8.5012294E-2,-3.018547E-2,-1.0045162E-1,1.8395317E-1,-6.2280882E-2,-1.3968536E-1,3.0309452E-2,-9.828858E-2,-1.3511461E-1,2.0183979E-1,3.0342844E-1,3.738437E-2],"split_indices":[57,71,99,79,45,82,50,14,94,109,0,12,31,66,47,0,0,0,0,0,0,0,0,0,0,0,0,0,0,0,0],"split_type":[0,0,0,0,0,0,0,0,0,0,0,0,0,0,0,0,0,0,0,0,0,0,0,0,0,0,0,0,0,0,0],"sum_hessian":[5.1845337E3,4.571296E3,6.132376E2,3.8003506E3,7.7094525E2,5.6117786E2,5.2059746E1,3.653192E3,1.4715862E2,6.1493353E2,1.560117E2,4.7928632E2,8.189156E1,1.9133734E1,3.292601E1,3.3832769E3,2.6991498E2,4.182627E1,1.0533235E2,7.673808E1,5.381955E2,1.5306706E2,2.944647E0,3.1491077E1,4.4779523E2,2.5016869E1,5.687469E1,1.7361668E1,1.7720656E0,6.006814E0,2.6919197E1],"tree_param":{"num_deleted":"0","num_feature":"120","num_nodes":"31","size_leaf_vector":"1"}},{"base_weights":[3.4026526E-2,2.7593479E-2,1.7620051E-1,3.3742465E-2,-1.9334266E-1,3.1669027E-1,-3.203676E-2,8.9122996E-2,1.0195589E-2,-2.8110775E-1,3.595318E-1,4.853929E-1,8.771117E-2,1.163079E-1,-4.52049E-1,-1.4632799E-2,3.7342917E-2,2.7548352E-2,-5.8213114E-3,5.12194E-3,-1.190491E-1,2.5320105E-2,2.3396939E-1,3.467427E-2,1.810935E-1,-9.5562264E-2,7.336687E-2,-1.0537153E-1,8.531702E-2,-1.8202254E-1,1.06023535E-1],"categories":[],"categories_nodes":[],"categories_segments":[],"categories_sizes":[],"default_left":[0,0,0,0,0,0,0,0,0,0,0,0,0,0,0,0,0,0,0,0,0,0,0,0,0,0,0,0,0,0,0],"id":39,"left_children":[1,3,5,7,9,11,13,15,17,19,21,23,25,27,29,-1,-1,-1,-1,-1,-1,-1,-1,-1,-1,-1,-1,-1,-1,-1,-1],"loss_changes":[7.5067625E0,1.0682648E1,1.0405771E1,9.970584E0,1.0433668E1,8.157654E0,9.028656E0,1.1127043E1,1.2968893E1,6.3673487E0,3.3588662E0,5.2657146E0,5.893679E0,8.528816E0,4.9250197E0,0E0,0E0,0E0,0E0,0E0,0E0,0E0,0E0,0E0,0E0,0E0,0E0,0E0,0E0,0E0,0E0],"parents":[2147483647,0,0,1,1,2,2,3,3,4,4,5,5,6,6,7,7,8,8,9,9,10,10,11,11,12,12,13,13,14,14],"right_children":[2,4,6,8,10,12,14,16,18,20,22,24,26,28,30,-1,-1,-1,-1,-1,-1,-1,-1,-1,-1,-1,-1,-1,-1,-1,-1],"split_conditions":[1.204E3,1.043E3,8.43E2,2.87E2,7.09E2,3.66E2,3.28E2,4.31E2,4E2,2.55E2,8.5E2,3.7E2,3.85E2,2.47E2,5.96E2,-1.4632799E-2,3.7342917E-2,2.7548352E-2,-5.8213114E-3,5.12194E-3,-1.190491E-1,2.5320105E-2,2.3396939E-1,3.467427E-2,1.810935E-1,-9.5562264E-2,7.336687E-2,-1.0537153E-1,8.531702E-2,-1.8202254E-1,1.06023535E-1],"split_indices":[109,109,0,0,6,19,63,6,6,24,98,4,22,67,83,0,0,0,0,0,0,0,0,0,0,0,0,0,0,0,0],"split_type":[0,0,0,0,0,0,0,0,0,0,0,0,0,0,0,0,0,0,0,0,0,0,0,0,0,0,0,0,0,0,0],"sum_hessian":[8.211908E3,7.8575654E3,3.5434277E2,7.6456235E3,2.1194199E2,2.1127965E2,1.4306313E2,2.2801328E3,5.3654907E3,1.8333098E2,2.8611013E1,1.21006836E2,9.0272804E1,1.0625712E2,3.6806004E1,4.652E2,1.8149329E3,1.4272491E3,3.9382415E3,5.1495533E1,1.3183545E2,1.8018564E1,1.0592449E1,2.9797613E1,9.120922E1,2.4857433E1,6.5415375E1,2.780991E1,7.844721E1,3.108306E1,5.7229447E0],"tree_param":{"num_deleted":"0","num_feature":"120","num_nodes":"31","size_leaf_vector":"1"}},{"base_weights":[-4.1893993E-2,1.9802162E-2,-3.5938352E-1,-3.0809718E-1,3.9772045E-2,-4.3764794E-1,-1.0982815E-1,-4.214562E-1,4.3247962E-1,5.7652358E-2,-2.1813856E-1,-4.9404797E-1,-2.6358396E-1,-2.0208673E-1,2.372339E-1,-1.4672399E-1,1.0279431E-1,2.0545617E-1,-4.0768094E-2,2.763674E-2,-1.4034162E-2,-8.182685E-2,1.294477E-1,-1.5005735E-1,-6.2217735E-2,-1.3971387E-1,-4.812413E-2,-3.0654663E-2,-1.4431103E-1,-5.8150195E-2,1.5208517E-1],"categories":[],"categories_nodes":[],"categories_segments":[],"categories_sizes":[],"default_left":[0,0,0,0,0,0,0,0,0,0,0,0,0,0,0,0,0,0,0,0,0,0,0,0,0,0,0,0,0,0,0],"id":40,"left_children":[1,3,5,7,9,11,13,15,17,19,21,23,25,27,29,-1,-1,-1,-1,-1,-1,-1,-1,-1,-1,-1,-1,-1,-1,-1,-1],"loss_changes":[8.625781E1,2.41602E1,1.3945999E1,1.7964424E1,1.6046644E1,5.221161E0,5.5678563E0,9.685688E0,4.197228E0,1.1712081E1,8.123342E0,6.1925507E-1,2.7518682E0,3.7612767E0,4.360922E0,0E0,0E0,0E0,0E0,0E0,0E0,0E0,0E0,0E0,0E0,0E0,0E0,0E0,0E0,0E0,0E0],"parents":[2147483647,0,0,1,1,2,2,3,3,4,4,5,5,6,6,7,7,8,8,9,9,10,10,11,11,12,12,13,13,14,14],"right_children":[2,4,6,8,10,12,14,16,18,20,22,24,26,28,30,-1,-1,-1,-1,-1,-1,-1,-1,-1,-1,-1,-1,-1,-1,-1,-1],"split_conditions":[5.26E2,1.34E2,4.89E2,1.33E2,3.37E2,3.73E2,1.236E3,4.22E2,1.84E2,1.023E3,1.251E3,4.47E2,2.15E2,7.98E2,6.76E2,-1.4672399E-1,1.0279431E-1,2.0545617E-1,-4.0768094E-2,2.763674E-2,-1.4034162E-2,-8.182685E-2,1.294477E-1,-1.5005735E-1,-6.2217735E-2,-1.3971387E-1,-4.812413E-2,-3.0654663E-2,-1.4431103E-1,-5.8150195E-2,1.5208517E-1],"split_indices":[99,107,66,106,119,21,77,45,100,24,53,57,46,79,17,0,0,0,0,0,0,0,0,0,0,0,0,0,0,0,0],"split_type":[0,0,0,0,0,0,0,0,0,0,0,0,0,0,0,0,0,0,0,0,0,0,0,0,0,0,0,0,0,0,0],"sum_hessian":[4.4022676E3,3.6867732E3,7.1549457E2,2.108157E2,3.4759575E3,5.4410205E2,1.7139252E2,1.8320386E2,2.761184E1,3.2513271E3,2.2463016E2,4.0955887E2,1.345432E2,1.357296E2,3.5662914E1,1.686391E2,1.45647545E1,1.897947E1,8.632371E0,2.4445679E3,8.0675934E2,2.0774423E2,1.6885927E1,4.0023666E2,9.322206E0,4.427889E1,9.0264305E1,1.00943504E2,3.478609E1,1.3834159E1,2.1828756E1],"tree_param":{"num_deleted":"0","num_feature":"120","num_nodes":"31","size_leaf_vector":"1"}},{"base_weights":[-1.8737778E-2,2.0568332E-2,-3.592307E-1,3.7582465E-2,-1.3526009E-1,-4.1050717E-1,4.69349E-2,4.671056E-2,-2.0981738E-1,1.6363062E-1,-2.033087E-1,-4.4559655E-1,-2.107448E-1,-3.0427688E-1,1.9423413E-1,2.3995864E-3,3.234476E-2,9.3374714E-2,-1.0925693E-1,-3.290843E-2,1.5582633E-1,-3.3422135E-2,-1.04251444E-1,-1.4125903E-1,-8.534469E-2,-7.7801585E-2,3.1637633E-1,8.159954E-2,-1.3437107E-1,8.887274E-2,-1.4677705E-1],"categories":[],"categories_nodes":[],"categories_segments":[],"categories_sizes":[],"default_left":[0,0,0,0,0,0,0,0,0,0,0,0,0,0,0,0,0,0,0,0,0,0,0,0,0,0,0,0,0,0,0],"id":41,"left_children":[1,3,5,7,9,11,13,15,17,19,21,23,25,27,29,-1,-1,-1,-1,-1,-1,-1,-1,-1,-1,-1,-1,-1,-1,-1,-1],"loss_changes":[6.785132E1,1.2056663E1,1.0946625E1,9.266283E0,9.138461E0,3.1723251E0,3.1481304E0,9.352005E0,1.1860065E1,8.184264E0,4.7994776E0,1.4758606E0,4.670947E0,1.6143823E0,3.1205153E0,0E0,0E0,0E0,0E0,0E0,0E0,0E0,0E0,0E0,0E0,0E0,0E0,0E0,0E0,0E0,0E0],"parents":[2147483647,0,0,1,1,2,2,3,3,4,4,5,5,6,6,7,7,8,8,9,9,10,10,11,11,12,12,13,13,14,14],"right_children":[2,4,6,8,10,12,14,16,18,20,22,24,26,28,30,-1,-1,-1,-1,-1,-1,-1,-1,-1,-1,-1,-1,-1,-1,-1,-1],"split_conditions":[4.83E2,5.55E2,6.02E2,1.503E3,1.94E2,4.94E2,4.9E2,2.96E2,5.82E2,9.73E2,6.55E2,5.43E2,1.425E3,1.82E2,1.091E3,2.3995864E-3,3.234476E-2,9.3374714E-2,-1.0925693E-1,-3.290843E-2,1.5582633E-1,-3.3422135E-2,-1.04251444E-1,-1.4125903E-1,-8.534469E-2,-7.7801585E-2,3.1637633E-1,8.159954E-2,-1.3437107E-1,8.887274E-2,-1.4677705E-1],"split_indices":[57,67,95,99,41,0,54,119,89,66,4,91,91,113,105,0,0,0,0,0,0,0,0,0,0,0,0,0,0,0,0],"split_type":[0,0,0,0,0,0,0,0,0,0,0,0,0,0,0,0,0,0,0,0,0,0,0,0,0,0,0,0,0,0,0],"sum_hessian":[5.06824E3,4.5445605E3,5.2367926E2,4.097891E3,4.4666956E2,4.649685E2,5.8710747E1,3.9528574E3,1.4503392E2,8.257403E1,3.6409552E2,3.9445047E2,7.051801E1,1.7032864E1,4.1677883E1,2.4205203E3,1.5323372E3,3.2915417E1,1.121185E2,4.7090134E1,3.5483894E1,2.234531E2,1.4064243E2,3.393146E2,5.5135868E1,6.867564E1,1.8423754E0,3.219885E0,1.3812979E1,3.675841E1,4.9194727E0],"tree_param":{"num_deleted":"0","num_feature":"120","num_nodes":"31","size_leaf_vector":"1"}},{"base_weights":[2.8397663E-2,1.0797628E-1,1.9093221E-2,-6.291748E-3,2.0723172E-1,-2.630549E-1,2.8652662E-2,1.9235104E-2,-7.360602E-1,2.4854009E-1,-1.666495E-1,-3.439966E-1,-2.9352954E-2,3.8244523E-2,-8.016255E-2,1.8725025E-2,-9.657446E-2,-3.2443944E-2,-3.1288874E-1,8.1487894E-2,-8.104494E-2,4.723574E-2,-1.08879164E-1,-1.2226669E-1,-1.4483695E-2,-5.495898E-2,1.9205461E-1,1.2418431E-2,-7.208935E-2,-1.4502358E-1,6.3654425E-4],"categories":[],"categories_nodes":[],"categories_segments":[],"categories_sizes":[],"default_left":[0,0,0,0,0,0,0,0,0,0,0,0,0,0,0,0,0,0,0,0,0,0,0,0,0,0,0,0,0,0,0],"id":42,"left_children":[1,3,5,7,9,11,13,15,17,19,21,23,25,27,29,-1,-1,-1,-1,-1,-1,-1,-1,-1,-1,-1,-1,-1,-1,-1,-1],"loss_changes":[6.036647E0,9.681817E0,1.9705286E1,7.4233603E0,7.0964375E0,4.5189266E0,7.376747E0,5.695562E0,2.482531E0,5.0039577E0,2.9864242E0,3.321041E0,6.5740824E0,5.707453E0,1.9001007E1,0E0,0E0,0E0,0E0,0E0,0E0,0E0,0E0,0E0,0E0,0E0,0E0,0E0,0E0,0E0,0E0],"parents":[2147483647,0,0,1,1,2,2,3,3,4,4,5,5,6,6,7,7,8,8,9,9,10,10,11,11,12,12,13,13,14,14],"right_children":[2,4,6,8,10,12,14,16,18,20,22,24,26,28,30,-1,-1,-1,-1,-1,-1,-1,-1,-1,-1,-1,-1,-1,-1,-1,-1],"split_conditions":[1.76E2,2.49E2,2.32E2,1.692E3,4.09E2,4.99E2,1.083E3,2.95E2,7.92E2,1.029E3,2.42E2,8.69E2,2.56E2,1.644E3,1.8E2,1.8725025E-2,-9.657446E-2,-3.2443944E-2,-3.1288874E-1,8.1487894E-2,-8.104494E-2,4.723574E-2,-1.08879164E-1,-1.2226669E-1,-1.4483695E-2,-5.495898E-2,1.9205461E-1,1.2418431E-2,-7.208935E-2,-1.4502358E-1,6.3654425E-4],"split_indices":[94,117,87,26,115,89,83,119,78,67,22,60,46,58,109,0,0,0,0,0,0,0,0,0,0,0,0,0,0,0,0],"split_type":[0,0,0,0,0,0,0,0,0,0,0,0,0,0,0,0,0,0,0,0,0,0,0,0,0,0,0,0,0,0,0],"sum_hessian":[8.1546265E3,8.5253107E2,7.302095E3,3.9673065E2,4.558004E2,2.3842528E2,7.06367E3,3.8426303E2,1.2467643E1,4.1075345E2,4.5046955E1,1.7674011E2,6.1685158E1,6.4920557E3,5.716143E2,3.4181433E2,4.2448696E1,4.537145E0,7.930497E0,3.937064E2,1.7047045E1,1.7065683E1,2.7981272E1,1.4516205E2,3.1578074E1,5.0750294E1,1.0934861E1,6.4202954E3,7.176056E1,9.6046455E1,4.7556784E2],"tree_param":{"num_deleted":"0","num_feature":"120","num_nodes":"31","size_leaf_vector":"1"}},{"base_weights":[-3.5270102E-2,-3.1390962E-1,2.3340268E-2,-3.8508254E-1,7.3124655E-2,-1.8138933E-1,3.735236E-2,-4.3896338E-1,-9.751369E-2,7.447181E-1,2.3497695E-2,2.3428227E-1,-2.7998108E-1,1.4898942E-1,1.3721632E-2,-1.3607559E-1,8.209888E-2,1.6270421E-1,-6.247982E-2,3.273424E-1,-1.0762626E-1,-4.72161E-2,7.121358E-2,-1.1953848E-2,1.557405E-1,3.877208E-2,-1.23528786E-1,6.2397093E-2,-6.770872E-2,-3.1972844E-2,1.6992496E-2],"categories":[],"categories_nodes":[],"categories_segments":[],"categories_sizes":[],"default_left":[0,0,0,0,0,0,0,0,0,0,0,0,0,0,0,0,0,0,0,0,0,0,0,0,0,0,0,0,0,0,0],"id":43,"left_children":[1,3,5,7,9,11,13,15,17,19,21,23,25,27,29,-1,-1,-1,-1,-1,-1,-1,-1,-1,-1,-1,-1,-1,-1,-1,-1],"loss_changes":[7.028645E1,2.0631432E1,1.0209059E1,9.748611E0,3.882632E0,9.40892E0,8.781231E0,5.6667786E0,7.2707415E0,3.4570298E0,4.2929854E0,3.4762266E0,1.0015537E1,1.2902856E1,1.4199115E1,0E0,0E0,0E0,0E0,0E0,0E0,0E0,0E0,0E0,0E0,0E0,0E0,0E0,0E0,0E0,0E0],"parents":[2147483647,0,0,1,1,2,2,3,3,4,4,5,5,6,6,7,7,8,8,9,9,10,10,11,11,12,12,13,13,14,14],"right_children":[2,4,6,8,10,12,14,16,18,20,22,24,26,28,30,-1,-1,-1,-1,-1,-1,-1,-1,-1,-1,-1,-1,-1,-1,-1,-1],"split_conditions":[4.15E2,3.18E2,2.63E2,4.74E2,2.97E2,1.33E2,2.19E2,4.21E2,1.37E2,7.21E2,6.26E2,7.95E2,2.32E2,1.361E3,4.22E2,-1.3607559E-1,8.209888E-2,1.6270421E-1,-6.247982E-2,3.273424E-1,-1.0762626E-1,-4.72161E-2,7.121358E-2,-1.1953848E-2,1.557405E-1,3.877208E-2,-1.23528786E-1,6.2397093E-2,-6.770872E-2,-3.1972844E-2,1.6992496E-2],"split_indices":[65,41,10,21,49,39,28,54,47,69,5,6,119,10,52,0,0,0,0,0,0,0,0,0,0,0,0,0,0,0,0],"split_type":[0,0,0,0,0,0,0,0,0,0,0,0,0,0,0,0,0,0,0,0,0,0,0,0,0,0,0,0,0,0,0],"sum_hessian":[4.302375E3,7.469491E2,3.5554258E3,6.309304E2,1.1601866E2,2.2698726E2,3.3284385E3,5.30926E2,1.0000438E2,7.019439E0,1.0899922E2,4.325289E1,1.8373436E2,5.8053784E2,2.7479006E3,5.2060754E2,1.0318491E1,1.4180572E1,8.582381E1,5.350791E0,1.6686484E0,5.9198032E1,4.9801193E1,2.2479668E1,2.0773226E1,4.4760086E1,1.3897427E2,5.0194287E2,7.8594986E1,7.222025E2,2.0256982E3],"tree_param":{"num_deleted":"0","num_feature":"120","num_nodes":"31","size_leaf_vector":"1"}},{"base_weights":[-1.6064042E-2,1.7669393E-2,-3.393008E-1,4.05431E-2,-8.351463E-2,-4.1612065E-1,-5.6895725E-2,1.0622796E-1,-5.640728E-3,-2.7456388E-1,-2.8931635E-2,-1.99692E-1,-4.520245E-1,1.4818929E-2,-4.3969393E-1,3.9100002E-2,-6.337281E-2,-1.9884754E-2,2.2054207E-2,-1.188357E-1,1.2787837E-2,4.5289613E-2,-2.814061E-2,-8.249285E-2,1.9801511E-1,-1.3658236E-1,8.255111E-2,-2.2124711E-2,1.8507075E-1,7.10645E-2,-1.501329E-1],"categories":[],"categories_nodes":[],"categories_segments":[],"categories_sizes":[],"default_left":[0,0,0,0,0,0,0,0,0,0,0,0,0,0,0,0,0,0,0,0,0,0,0,0,0,0,0,0,0,0,0],"id":44,"left_children":[1,3,5,7,9,11,13,15,17,19,21,23,25,27,29,-1,-1,-1,-1,-1,-1,-1,-1,-1,-1,-1,-1,-1,-1,-1,-1],"loss_changes":[5.4186066E1,1.0419057E1,1.0164074E1,1.113743E1,8.648216E0,2.777275E0,2.7951934E0,1.1626516E1,1.0356376E1,7.1242685E0,7.5616803E0,3.6959836E0,8.7145996E-1,4.6593165E0,7.786617E-1,0E0,0E0,0E0,0E0,0E0,0E0,0E0,0E0,0E0,0E0,0E0,0E0,0E0,0E0,0E0,0E0],"parents":[2147483647,0,0,1,1,2,2,3,3,4,4,5,5,6,6,7,7,8,8,9,9,10,10,11,11,12,12,13,13,14,14],"right_children":[2,4,6,8,10,12,14,16,18,20,22,24,26,28,30,-1,-1,-1,-1,-1,-1,-1,-1,-1,-1,-1,-1,-1,-1,-1,-1],"split_conditions":[4.83E2,7.09E2,5.61E2,2.28E2,1.65E2,4.56E2,1.041E3,2.89E2,2.77E2,9.9E2,3.1E2,1.027E3,6.79E2,9.15E2,5.66E2,3.9100002E-2,-6.337281E-2,-1.9884754E-2,2.2054207E-2,-1.188357E-1,1.2787837E-2,4.5289613E-2,-2.814061E-2,-8.249285E-2,1.9801511E-1,-1.3658236E-1,8.255111E-2,-2.2124711E-2,1.8507075E-1,7.10645E-2,-1.501329E-1],"split_indices":[57,6,93,54,57,2,71,47,28,93,66,42,101,72,92,0,0,0,0,0,0,0,0,0,0,0,0,0,0,0,0],"split_type":[0,0,0,0,0,0,0,0,0,0,0,0,0,0,0,0,0,0,0,0,0,0,0,0,0,0,0,0,0,0,0],"sum_hessian":[4.967877E3,4.499272E3,4.6860492E2,3.670187E3,8.2908496E2,3.6802206E2,1.0058286E2,1.514662E3,2.155525E3,1.8333896E2,6.45746E2,5.3298744E1,3.147233E2,8.5522156E1,1.506071E1,1.4083186E3,1.06343445E2,1.2205804E3,9.349445E2,1.3236467E2,5.0974285E1,1.7078949E2,4.7495648E2,4.9632767E1,3.6659775E0,3.1369525E2,1.0280546E0,7.531992E1,1.0202234E1,1.0019889E0,1.4058721E1],"tree_param":{"num_deleted":"0","num_feature":"120","num_nodes":"31","size_leaf_vector":"1"}},{"base_weights":[2.366903E-2,1.7840637E-2,1.5066747E-1,1.4148881E-2,3.066997E-1,7.711322E-3,2.997024E-1,1.9159326E-2,-1.6704316E-1,5.4392946E-1,7.350453E-3,2.2115538E-1,-1.3867347E-1,6.2142193E-1,1.4199035E-1,2.0000985E-2,-3.5699608E-4,-7.339732E-2,9.257723E-2,1.9928886E-1,4.739569E-2,-1.6206296E-1,5.9912566E-2,1.0298102E-1,-1.0994773E-1,2.3268217E-3,-1.7031847E-1,2.9140255E-1,8.603057E-2,-1.7143992E-1,5.449297E-2],"categories":[],"categories_nodes":[],"categories_segments":[],"categories_sizes":[],"default_left":[0,0,0,0,0,0,0,0,0,0,0,0,0,0,0,0,0,0,0,0,0,0,0,0,0,0,0,0,0,0,0],"id":45,"left_children":[1,3,5,7,9,11,13,15,17,19,21,23,25,27,29,-1,-1,-1,-1,-1,-1,-1,-1,-1,-1,-1,-1,-1,-1,-1,-1],"loss_changes":[5.967534E0,8.2207155E0,7.5352745E0,6.918001E0,6.9044886E0,5.704828E0,8.698969E0,7.166642E0,7.6453815E0,2.4156322E0,4.744815E0,5.455055E0,6.8108706E0,6.3580685E0,3.4282415E0,0E0,0E0,0E0,0E0,0E0,0E0,0E0,0E0,0E0,0E0,0E0,0E0,0E0,0E0,0E0,0E0],"parents":[2147483647,0,0,1,1,2,2,3,3,4,4,5,5,6,6,7,7,8,8,9,9,10,10,11,11,12,12,13,13,14,14],"right_children":[2,4,6,8,10,12,14,16,18,20,22,24,26,28,30,-1,-1,-1,-1,-1,-1,-1,-1,-1,-1,-1,-1,-1,-1,-1,-1],"split_conditions":[1.204E3,1.598E3,6.5E2,1.043E3,4.15E2,8.28E2,2.47E2,2.87E2,7.09E2,8.17E2,4.2E2,2.77E2,3.6E2,6.82E2,2.68E2,2.0000985E-2,