{"learner":{"attributes":{"scikit_learn":"{\"_estimator_type\": \"classifier\"}"},"feature_names":["0","1","2","3","4","5","6","7","8","9","10","11","12","13","14","15","16","17","18","19","20","21","22","23","24","25","26","27","28","29","30","31","32","33","34","35","36","37","38","39","40","41","42","43","44","45","46","47","48","49","50","51","52","53","54","55","56","57","58","59","60","61","62","63","64","65","66","67","68","69","70","71","72","73","74","75","76","77","78","79","80","81","82","83","84","85","86","87","88","89","90","91","92","93","94","95","96","97","98","99","100","101","102","103","104","105","106","107","108","109","110","111","112","113","114","115","116","117","118","119","120","121","122","123","124","125","126","127","128","129","130","131","132","133","134","135","136","137","138","139","140","141","142","143","144","145","146","147","148","149","150","151","152","153","154","155","156","157","158","159","160","161","162","163","164","165","166","167","168","169","170","171","172","173","174","175","176","177","178","179","180","181","182","183","184","185","186","187","188","189","190","191","192","193","194","195","196","197","198","199","200","201","202","203","204","205","206","207","208","209","210","211","212","213","214","215","216","217","218","219","220","221","222","223","224","225","226","227","228","229","230","231","232","233","234","235","236","237","238","239"],"feature_types":["int","int","int","int","int","int","int","int","int","int","int","int","int","int","int","int","int","int","int","int","int","int","int","int","int","int","int","int","int","int","int","int","int","int","int","int","int","int","int","int","int","int","int","int","int","int","int","int","int","int","int","int","int","int","int","int","int","int","int","int","int","int","int","int","int","int","int","int","int","int","int","int","int","int","int","int","int","int","int","int","int","int","int","int","int","int","int","int","int","int","int","int","int","int","int","int","int","int","int","int","int","int","int","int","int","int","int","int","int","int","int","int","int","int","int","int","int","int","int","int","int","int","int","int","int","int","int","int","int","int","int","int","int","int","int","int","int","int","int","int","int","int","int","int","int","int","int","int","int","int","int","int","int","int","int","int","int","int","int","int","int","int","int","int","int","int","int","int","int","int","int","int","int","int","int","int","int","int","int","int","int","int","int","int","int","int","int","int","int","int","int","int","int","int","int","int","int","int","int","int","int","int","int","int","int","int","int","int","int","int","int","int","int","int","int","int","int","int","int","int","int","int","int","int","int","int","int","int","int","int","int","int","int","int","int","int","int","int","int","int"],"gradient_booster":{"model":{"gbtree_model_param":{"num_parallel_tree":"1","num_trees":"300"},"iteration_indptr":[0,3,6,9,12,15,18,21,24,27,30,33,36,39,42,45,48,51,54,57,60,63,66,69,72,75,78,81,84,87,90,93,96,99,102,105,108,111,114,117,120,123,126,129,132,135,138,141,144,147,150,153,156,159,162,165,168,171,174,177,180,183,186,189,192,195,198,201,204,207,210,213,216,219,222,225,228,231,234,237,240,243,246,249,252,255,258,261,264,267,270,273,276,279,282,285,288,291,294,297,300],"tree_info":[0,1,2,0,1,2,0,1,2,0,1,2,0,1,2,0,1,2,0,1,2,0,1,2,0,1,2,0,1,2,0,1,2,0,1,2,0,1,2,0,1,2,0,1,2,0,1,2,0,1,2,0,1,2,0,1,2,0,1,2,0,1,2,0,1,2,0,1,2,0,1,2,0,1,2,0,1,2,0,1,2,0,1,2,0,1,2,0,1,2,0,1,2,0,1,2,0,1,2,0,1,2,0,1,2,0,1,2,0,1,2,0,1,2,0,1,2,0,1,2,0,1,2,0,1,2,0,1,2,0,1,2,0,1,2,0,1,2,0,1,2,0,1,2,0,1,2,0,1,2,0,1,2,0,1,2,0,1,2,0,1,2,0,1,2,0,1,2,0,1,2,0,1,2,0,1,2,0,1,2,0,1,2,0,1,2,0,1,2,0,1,2,0,1,2,0,1,2,0,1,2,0,1,2,0,1,2,0,1,2,0,1,2,0,1,2,0,1,2,0,1,2,0,1,2,0,1,2,0,1,2,0,1,2,0,1,2,0,1,2,0,1,2,0,1,2,0,1,2,0,1,2,0,1,2,0,1,2,0,1,2,0,1,2,0,1,2,0,1,2,0,1,2,0,1,2,0,1,2,0,1,2,0,1,2,0,1,2,0,1,2,0,1,2,0,1,2,0,1,2],"trees":[{"base_weights":[5.668448E-1,3.5717523E-1,9.280223E-1,4.527077E-1,-1.4979908E-1,7.016224E-1,1.0637257E0,5.880302E-1,-1.0455011E-1,-4.2504942E-1,2.125073E-1,3.0151474E-1,8.9762944E-1,8.290673E-1,1.1676072E0,9.6730806E-2,2.6411247E-1,-1.08744234E-1,6.9447786E-2,-1.7522568E-1,-8.698415E-2,1.3059711E-1,-5.151655E-2,2.011388E-1,-5.207839E-2,1.136057E-1,3.0904874E-1,2.683922E-1,6.6614166E-2,3.5758725E-1,2.3323065E-1],"categories":[],"categories_nodes":[],"categories_segments":[],"categories_sizes":[],"default_left":[0,0,0,0,0,0,0,0,0,0,0,0,0,0,0,0,0,0,0,0,0,0,0,0,0,0,0,0,0,0,0],"id":0,"left_children":[1,3,5,7,9,11,13,15,17,19,21,23,25,27,29,-1,-1,-1,-1,-1,-1,-1,-1,-1,-1,-1,-1,-1,-1,-1,-1],"loss_changes":[2.3152334E3,9.3714526E2,3.4428613E2,1.2277703E3,3.0610187E2,3.300249E2,1.7014795E2,1.0168408E3,2.758764E2,3.730487E1,1.1354942E2,2.4312756E2,1.9399731E2,8.567688E1,4.5277832E1,0E0,0E0,0E0,0E0,0E0,0E0,0E0,0E0,0E0,0E0,0E0,0E0,0E0,0E0,0E0,0E0],"parents":[2147483647,0,0,1,1,2,2,3,3,4,4,5,5,6,6,7,7,8,8,9,9,10,10,11,11,12,12,13,13,14,14],"right_children":[2,4,6,8,10,12,14,16,18,20,22,24,26,28,30,-1,-1,-1,-1,-1,-1,-1,-1,-1,-1,-1,-1,-1,-1,-1,-1],"split_conditions":[5.42E2,5.32E2,2.16E2,3.97E2,2.93E2,3.64E2,6.78E2,2.01E2,2.87E2,3.14E2,3.33E2,1.38E2,3.32E2,1.045E3,4.86E2,9.6730806E-2,2.6411247E-1,-1.08744234E-1,6.9447786E-2,-1.7522568E-1,-8.698415E-2,1.3059711E-1,-5.151655E-2,2.011388E-1,-5.207839E-2,1.136057E-1,3.0904874E-1,2.683922E-1,6.6614166E-2,3.5758725E-1,2.3323065E-1],"split_indices":[182,214,144,142,168,170,182,214,194,72,224,144,190,214,152,0,0,0,0,0,0,0,0,0,0,0,0,0,0,0,0],"split_type":[0,0,0,0,0,0,0,0,0,0,0,0,0,0,0,0,0,0,0,0,0,0,0,0,0,0,0,0,0,0,0],"sum_hessian":[3.0576443E4,1.934711E4,1.1229333E4,1.6279555E4,3.0675554E3,4.2106665E3,7.018666E3,1.3098666E4,3.1808887E3,1.743111E3,1.3244443E3,1.3853333E3,2.8253333E3,2.1564443E3,4.862222E3,6.864444E3,6.2342217E3,1.7995554E3,1.3813333E3,7.991111E2,9.4399994E2,8.3822217E2,4.862222E2,7.795555E2,6.057778E2,5.7555554E2,2.2497776E3,1.9457777E3,2.1066666E2,4.5746665E3,2.8755554E2],"tree_param":{"num_deleted":"0","num_feature":"240","num_nodes":"31","size_leaf_vector":"1"}},{"base_weights":[-2.9254684E-1,-4.7077966E-1,6.0521173E-1,-5.8224255E-1,-2.6382692E-2,1.011439E0,2.944158E-1,-6.5698475E-1,-1.802522E-1,4.8254284E-1,-2.6887205E-1,1.166036E0,7.1644413E-1,5.8211756E-1,7.521969E-2,-2.003522E-1,1.4498293E-1,3.2396827E-2,-1.8012293E-1,2.2107449E-1,-6.0133647E-2,-1.3023162E-1,-3.6827825E-2,2.9838428E-1,3.9819416E-1,1.2309058E-1,2.4475375E-1,3.8791053E-2,2.4448964E-1,-6.081783E-2,6.837606E-2],"categories":[],"categories_nodes":[],"categories_segments":[],"categories_sizes":[],"default_left":[0,0,0,0,0,0,0,0,0,0,0,0,0,0,0,0,0,0,0,0,0,0,0,0,0,0,0,0,0,0,0],"id":1,"left_children":[1,3,5,7,9,11,13,15,17,19,21,23,25,27,29,-1,-1,-1,-1,-1,-1,-1,-1,-1,-1,-1,-1,-1,-1,-1,-1],"loss_changes":[4.892983E3,1.2637397E3,6.3923364E2,6.127217E2,6.316138E2,9.927832E1,1.8102443E2,2.1321973E2,3.8751263E2,2.87097E2,8.363327E1,3.845703E1,2.2715027E1,1.3078851E2,6.926042E1,0E0,0E0,0E0,0E0,0E0,0E0,0E0,0E0,0E0,0E0,0E0,0E0,0E0,0E0,0E0,0E0],"parents":[2147483647,0,0,1,1,2,2,3,3,4,4,5,5,6,6,7,7,8,8,9,9,10,10,11,11,12,12,13,13,14,14],"right_children":[2,4,6,8,10,12,14,16,18,20,22,24,26,28,30,-1,-1,-1,-1,-1,-1,-1,-1,-1,-1,-1,-1,-1,-1,-1,-1],"split_conditions":[4.48E2,5.42E2,2.9E2,6.26E2,3.23E2,5.86E2,5.97E2,5.8E2,1.43E2,2.29E2,5.49E2,7.45E2,1.59E2,5.7E2,5.6E2,-2.003522E-1,1.4498293E-1,3.2396827E-2,-1.8012293E-1,2.2107449E-1,-6.0133647E-2,-1.3023162E-1,-3.6827825E-2,2.9838428E-1,3.9819416E-1,1.2309058E-1,2.4475375E-1,3.8791053E-2,2.4448964E-1,-6.081783E-2,6.837606E-2],"split_indices":[148,162,192,82,190,168,170,156,148,208,68,138,200,74,70,0,0,0,0,0,0,0,0,0,0,0,0,0,0,0,0],"split_type":[0,0,0,0,0,0,0,0,0,0,0,0,0,0,0,0,0,0,0,0,0,0,0,0,0,0,0,0,0,0,0],"sum_hessian":[3.0576443E4,2.5511998E4,5.0644443E3,2.0395998E4,5.1159995E3,2.1942222E3,2.8702222E3,1.7197777E4,3.198222E3,1.6506666E3,3.465333E3,1.4377777E3,7.564444E2,1.2404443E3,1.6297777E3,1.7035998E4,1.6177777E2,1.8973333E3,1.3008888E3,1.2026666E3,4.4799997E2,1.6253333E3,1.8399999E3,7.004444E2,7.373333E2,1.8666666E2,5.697778E2,4.2177774E2,8.186666E2,5.777778E2,1.0519999E3],"tree_param":{"num_deleted":"0","num_feature":"240","num_nodes":"31","size_leaf_vector":"1"}},{"base_weights":[-2.742981E-1,-4.7005332E-1,6.142003E-1,-2.4544433E-2,-6.462584E-1,1.0580002E0,2.0636939E-1,2.5435486E-1,-5.406394E-1,-6.766128E-1,-2.3672195E-1,1.083344E0,-3.061225E-1,6.1529E-3,5.922703E-1,1.2588029E-1,-1.7771716E-1,-1.02491125E-1,-1.9613692E-1,-2.1313392E-1,-1.7177638E-1,-1.8887859E-3,-1.2231239E-1,3.6219293E-1,2.5774345E-1,-1.8062286E-1,7.26708E-2,9.2312425E-2,-3.420429E-2,2.2461519E-1,-1.07398584E-1],"categories":[],"categories_nodes":[],"categories_segments":[],"categories_sizes":[],"default_left":[0,0,0,0,0,0,0,0,0,0,0,0,0,0,0,0,0,0,0,0,0,0,0,0,0,0,0,0,0,0,0],"id":2,"left_children":[1,3,5,7,9,11,13,15,17,19,21,23,25,27,29,-1,-1,-1,-1,-1,-1,-1,-1,-1,-1,-1,-1,-1,-1,-1,-1],"loss_changes":[5.3185684E3,1.9670176E3,9.990569E2,1.02250073E3,2.2305078E2,9.1728516E1,2.2238708E2,6.455192E2,5.5891968E1,5.842578E1,4.8874855E1,7.1104004E1,8.097991E0,6.874453E1,1.4643994E2,0E0,0E0,0E0,0E0,0E0,0E0,0E0,0E0,0E0,0E0,0E0,0E0,0E0,0E0,0E0,0E0],"parents":[2147483647,0,0,1,1,2,2,3,3,4,4,5,5,6,6,7,7,8,8,9,9,10,10,11,11,12,12,13,13,14,14],"right_children":[2,4,6,8,10,12,14,16,18,20,22,24,26,28,30,-1,-1,-1,-1,-1,-1,-1,-1,-1,-1,-1,-1,-1,-1,-1,-1],"split_conditions":[4.6E2,1.34E2,2.96E2,3.21E2,3.93E2,3.11E2,6.5E2,2.56E2,4.4E2,4.96E2,3.89E2,6.28E2,2.96E2,3.01E2,4.8E2,1.2588029E-1,-1.7771716E-1,-1.02491125E-1,-1.9613692E-1,-2.1313392E-1,-1.7177638E-1,-1.8887859E-3,-1.2231239E-1,3.6219293E-1,2.5774345E-1,-1.8062286E-1,7.26708E-2,9.2312425E-2,-3.420429E-2,2.2461519E-1,-1.07398584E-1],"split_indices":[210,210,168,166,208,152,218,146,166,192,166,194,224,164,172,0,0,0,0,0,0,0,0,0,0,0,0,0,0,0,0],"split_type":[0,0,0,0,0,0,0,0,0,0,0,0,0,0,0,0,0,0,0,0,0,0,0,0,0,0,0,0,0,0,0],"sum_hessian":[3.0576443E4,2.5056443E4,5.5199995E3,7.1017773E3,1.7954666E4,2.6426665E3,2.8773333E3,4.6106665E3,2.491111E3,1.671511E4,1.2395555E3,2.5946665E3,4.7999996E1,1.895111E3,9.8222217E2,3.858222E3,7.524444E2,9.044444E2,1.5866666E3,1.2608443E4,4.1066665E3,5.284444E2,7.111111E2,1.6679999E3,9.266666E2,3.1111109E1,1.6888887E1,5.3955554E2,1.3555554E3,8.435555E2,1.3866666E2],"tree_param":{"num_deleted":"0","num_feature":"240","num_nodes":"31","size_leaf_vector":"1"}},{"base_weights":[4.1259038E-1,2.652341E-1,6.5123814E-1,4.9729124E-1,1.4637108E-1,4.643463E-1,7.2981995E-1,2.663558E-1,7.0298433E-1,-3.714347E-1,2.4684796E-1,1.6668165E-1,6.536772E-1,7.919692E-1,4.6508256E-1,4.3546643E-2,1.6277169E-1,2.3073386E-1,-5.9982322E-2,-1.4693135E-1,-1.876365E-2,1.0774757E-1,-3.9505593E-2,-4.340461E-2,1.3273439E-1,2.2283907E-1,1.5107891E-1,2.414499E-1,4.0728E-2,-3.0091451E-2,1.6867328E-1],"categories":[],"categories_nodes":[],"categories_segments":[],"categories_sizes":[],"default_left":[0,0,0,0,0,0,0,0,0,0,0,0,0,0,0,0,0,0,0,0,0,0,0,0,0,0,0,0,0,0,0],"id":3,"left_children":[1,3,5,7,9,11,13,15,17,19,21,23,25,27,29,-1,-1,-1,-1,-1,-1,-1,-1,-1,-1,-1,-1,-1,-1,-1,-1],"loss_changes":[1.1378223E3,5.518248E2,1.8107861E2,3.2172595E2,6.885581E2,2.0611676E2,1.4268604E2,1.0685341E2,2.1413391E2,7.858896E1,4.712177E2,1.2233104E2,2.9536865E1,5.9318848E1,9.099844E1,0E0,0E0,0E0,0E0,0E0,0E0,0E0,0E0,0E0,0E0,0E0,0E0,0E0,0E0,0E0,0E0],"parents":[2147483647,0,0,1,1,2,2,3,3,4,4,5,5,6,6,7,7,8,8,9,9,10,10,11,11,12,12,13,13,14,14],"right_children":[2,4,6,8,10,12,14,16,18,20,22,24,26,28,30,-1,-1,-1,-1,-1,-1,-1,-1,-1,-1,-1,-1,-1,-1,-1,-1],"split_conditions":[5.4E2,1.39E2,2.22E2,1.67E2,2.32E2,2.06E2,4.37E2,2.78E2,3.39E2,8.04E2,3.81E2,2.96E2,5.62E2,9.89E2,3.11E2,4.3546643E-2,1.6277169E-1,2.3073386E-1,-5.9982322E-2,-1.4693135E-1,-1.876365E-2,1.0774757E-1,-3.9505593E-2,-4.340461E-2,1.3273439E-1,2.2283907E-1,1.5107891E-1,2.414499E-1,4.0728E-2,-3.0091451E-2,1.6867328E-1],"split_indices":[180,202,210,216,202,142,209,164,216,161,216,192,164,142,170,0,0,0,0,0,0,0,0,0,0,0,0,0,0,0,0],"split_type":[0,0,0,0,0,0,0,0,0,0,0,0,0,0,0,0,0,0,0,0,0,0,0,0,0,0,0,0,0,0,0],"sum_hessian":[3.235945E4,2.00076E4,1.2351851E4,6.7758594E3,1.3231739E4,3.658267E3,8.693584E3,3.1931484E3,3.5827112E3,2.1498467E3,1.1081893E4,1.4229681E3,2.235299E3,7.0391045E3,1.654479E3,2.220393E3,9.727553E2,3.3383643E3,2.4434692E2,1.5539412E3,5.959055E2,8.5462705E3,2.5356223E3,6.685704E2,7.5439777E2,1.4000092E3,8.3528986E2,6.9035464E3,1.3555832E2,2.426218E2,1.4118572E3],"tree_param":{"num_deleted":"0","num_feature":"240","num_nodes":"31","size_leaf_vector":"1"}},{"base_weights":[-2.3959117E-1,-4.498588E-1,3.003172E-1,-5.409864E-1,-4.2941295E-2,5.7541233E-1,1.0848082E-2,-5.9789544E-1,-2.1184008E-1,2.0473044E-1,-4.6534872E-1,3.9089036E-1,7.702377E-1,-9.160568E-2,4.8806974E-1,-1.819663E-1,1.354202E-1,8.855663E-2,-1.0723696E-1,-6.435265E-2,1.565166E-1,-9.487623E-2,-1.747198E-1,2.1586707E-1,5.805931E-2,2.6782292E-1,1.8698615E-1,-8.578338E-2,2.0242788E-2,1.8914236E-1,-2.6986567E-2],"categories":[],"categories_nodes":[],"categories_segments":[],"categories_sizes":[],"default_left":[0,0,0,0,0,0,0,0,0,0,0,0,0,0,0,0,0,0,0,0,0,0,0,0,0,0,0,0,0,0,0],"id":4,"left_children":[1,3,5,7,9,11,13,15,17,19,21,23,25,27,29,-1,-1,-1,-1,-1,-1,-1,-1,-1,-1,-1,-1,-1,-1,-1,-1],"loss_changes":[3.256686E3,7.655503E2,6.403065E2,3.1583643E2,3.9541165E2,1.4791223E2,1.9166325E2,1.3093506E2,1.838063E2,3.167611E2,2.4194916E1,1.3733829E2,3.5526978E1,9.979341E1,5.708664E1,0E0,0E0,0E0,0E0,0E0,0E0,0E0,0E0,0E0,0E0,0E0,0E0,0E0,0E0,0E0,0E0],"parents":[2147483647,0,0,1,1,2,2,3,3,4,4,5,5,6,6,7,7,8,8,9,9,10,10,11,11,12,12,13,13,14,14],"right_children":[2,4,6,8,10,12,14,16,18,20,22,24,26,28,30,-1,-1,-1,-1,-1,-1,-1,-1,-1,-1,-1,-1,-1,-1,-1,-1],"split_conditions":[5.4E2,6.41E2,2.8E2,4.92E2,3.4E2,5.72E2,3.53E2,4.92E2,1.34E2,1.39E2,3.93E2,1.31E2,3.02E2,5.14E2,5.85E2,-1.819663E-1,1.354202E-1,8.855663E-2,-1.0723696E-1,-6.435265E-2,1.565166E-1,-9.487623E-2,-1.747198E-1,2.1586707E-1,5.805931E-2,2.6782292E-1,1.8698615E-1,-8.578338E-2,2.0242788E-2,1.8914236E-1,-2.6986567E-2],"split_indices":[156,82,196,164,198,144,136,146,94,202,200,134,46,64,179,0,0,0,0,0,0,0,0,0,0,0,0,0,0,0,0],"split_type":[0,0,0,0,0,0,0,0,0,0,0,0,0,0,0,0,0,0,0,0,0,0,0,0,0,0,0,0,0,0,0],"sum_hessian":[2.8684691E4,2.0644748E4,8.0399434E3,1.6867098E4,3.7776514E3,4.121815E3,3.9181284E3,1.4379996E4,2.4871006E3,2.3816973E3,1.3959542E3,2.1184275E3,2.0033876E3,3.2262905E3,6.918378E2,1.4262722E4,1.1727489E2,5.54686E2,1.9324147E3,1.0256028E3,1.3560945E3,6.1556836E2,7.803858E2,7.9381885E2,1.3246086E3,1.0898004E3,9.135871E2,1.4518589E3,1.7744318E3,5.550119E2,1.3682593E2],"tree_param":{"num_deleted":"0","num_feature":"240","num_nodes":"31","size_leaf_vector":"1"}},{"base_weights":[-2.2538684E-1,-4.0169543E-1,4.532026E-1,-1.3528983E-2,-5.729451E-1,7.506988E-1,1.6092329E-1,2.1335022E-1,-4.750535E-1,-6.087982E-1,-2.5206602E-1,8.8896614E-1,6.1577564E-1,2.6875338E-1,-2.8991768E-1,1.0498039E-1,-1.5672669E-1,-9.186223E-2,-1.7838414E-1,-1.8576978E-1,-9.428677E-2,-1.1682195E-1,-3.3177637E-2,2.700736E-1,1.7167347E-2,1.4342998E-1,2.5396466E-1,3.888956E-2,2.2022855E-1,-2.003951E-2,-1.4960562E-1],"categories":[],"categories_nodes":[],"categories_segments":[],"categories_sizes":[],"default_left":[0,0,0,0,0,0,0,0,0,0,0,0,0,0,0,0,0,0,0,0,0,0,0,0,0,0,0,0,0,0,0],"id":5,"left_children":[1,3,5,7,9,11,13,15,17,19,21,23,25,27,29,-1,-1,-1,-1,-1,-1,-1,-1,-1,-1,-1,-1,-1,-1,-1,-1],"loss_changes":[3.4392812E3,1.5167458E3,5.153894E2,7.316024E2,1.819917E2,5.42594E1,1.455235E2,4.709277E2,4.630304E1,4.3566406E1,3.0907883E1,1.3539185E1,4.694037E1,1.5624268E2,2.6887184E1,0E0,0E0,0E0,0E0,0E0,0E0,0E0,0E0,0E0,0E0,0E0,0E0,0E0,0E0,0E0,0E0],"parents":[2147483647,0,0,1,1,2,2,3,3,4,4,5,5,6,6,7,7,8,8,9,9,10,10,11,11,12,12,13,13,14,14],"right_children":[2,4,6,8,10,12,14,16,18,20,22,24,26,28,30,-1,-1,-1,-1,-1,-1,-1,-1,-1,-1,-1,-1,-1,-1,-1,-1],"split_conditions":[4.34E2,1.34E2,2.96E2,2.91E2,4.64E2,3.13E2,4.8E2,2.41E2,4.18E2,3.55E2,3.8E2,1.366E3,4.76E2,3.19E2,3.99E2,1.0498039E-1,-1.5672669E-1,-9.186223E-2,-1.7838414E-1,-1.8576978E-1,-9.428677E-2,-1.1682195E-1,-3.3177637E-2,2.700736E-1,1.7167347E-2,1.4342998E-1,2.5396466E-1,3.888956E-2,2.2022855E-1,-2.003951E-2,-1.4960562E-1],"split_indices":[210,210,168,164,202,72,172,142,164,210,209,192,220,226,162,0,0,0,0,0,0,0,0,0,0,0,0,0,0,0,0],"split_type":[0,0,0,0,0,0,0,0,0,0,0,0,0,0,0,0,0,0,0,0,0,0,0,0,0,0,0,0,0,0,0],"sum_hessian":[2.8744123E4,2.2816447E4,5.9276763E3,6.984951E3,1.5831495E4,2.9368442E3,2.9908318E3,4.6832607E3,2.3016902E3,1.4239557E4,1.5919384E3,1.4476866E3,1.4891577E3,2.413892E3,5.769398E2,3.950448E3,7.32813E2,9.5565356E2,1.3460365E3,1.3751251E4,4.883063E2,8.0688007E2,7.850583E2,1.4282361E3,1.9450563E1,9.3463855E2,5.5451917E2,1.859302E3,5.545901E2,2.7952213E2,2.9741772E2],"tree_param":{"num_deleted":"0","num_feature":"240","num_nodes":"31","size_leaf_vector":"1"}},{"base_weights":[3.1616858E-1,1.9977187E-1,4.876202E-1,2.5207102E-1,-2.035139E-1,3.5573506E-1,5.5789965E-1,3.1504372E-1,-1.268219E-1,-3.5647893E-1,3.8940825E-2,5.037403E-2,4.5774582E-1,5.933546E-1,3.0220217E-1,5.3773314E-2,1.5717866E-1,-1.1211481E-1,2.813073E-2,-1.3020748E-1,5.8127143E-3,-1.252839E-2,1.7440872E-1,-5.672609E-2,1.880704E-1,4.3705657E-2,1.6382481E-1,1.8057342E-1,2.8954347E-4,4.382897E-2,1.7140839E-1],"categories":[],"categories_nodes":[],"categories_segments":[],"categories_sizes":[],"default_left":[0,0,0,0,0,0,0,0,0,0,0,0,0,0,0,0,0,0,0,0,0,0,0,0,0,0,0,0,0,0,0],"id":6,"left_children":[1,3,5,7,9,11,13,15,17,19,21,23,25,27,29,-1,-1,-1,-1,-1,-1,-1,-1,-1,-1,-1,-1,-1,-1,-1,-1],"loss_changes":[6.5029736E2,4.0951764E2,1.21946045E2,4.1008752E2,8.268742E1,1.4276544E2,7.774121E1,4.1793372E2,1.3346469E2,3.984906E1,3.7812214E1,1.5874236E2,9.463599E1,3.8256836E1,4.3980003E1,0E0,0E0,0E0,0E0,0E0,0E0,0E0,0E0,0E0,0E0,0E0,0E0,0E0,0E0,0E0,0E0],"parents":[2147483647,0,0,1,1,2,2,3,3,4,4,5,5,6,6,7,7,8,8,9,9,10,10,11,11,12,12,13,13,14,14],"right_children":[2,4,6,8,10,12,14,16,18,20,22,24,26,28,30,-1,-1,-1,-1,-1,-1,-1,-1,-1,-1,-1,-1,-1,-1,-1,-1],"split_conditions":[5.24E2,3.65E2,2.01E2,3.39E2,6.19E2,3.52E2,4.1E2,1.96E2,2.68E2,2.61E2,1.273E3,2.24E2,3.04E2,1.561E3,3.34E2,5.3773314E-2,1.5717866E-1,-1.1211481E-1,2.813073E-2,-1.3020748E-1,5.8127143E-3,-1.252839E-2,1.7440872E-1,-5.672609E-2,1.880704E-1,4.3705657E-2,1.6382481E-1,1.8057342E-1,2.8954347E-4,4.382897E-2,1.7140839E-1],"split_indices":[182,138,18,216,166,170,212,138,166,208,74,142,192,162,158,0,0,0,0,0,0,0,0,0,0,0,0,0,0,0,0],"split_type":[0,0,0,0,0,0,0,0,0,0,0,0,0,0,0,0,0,0,0,0,0,0,0,0,0,0,0,0,0,0,0],"sum_hessian":[3.2589781E4,1.9412799E4,1.3176982E4,1.7184625E4,2.2281726E3,4.582886E3,8.594096E3,1.4735694E4,2.4489312E3,1.3659332E3,8.6223944E2,1.1479833E3,3.434903E3,7.546396E3,1.0477003E3,8.931227E3,5.804468E3,1.1552433E3,1.2936879E3,1.1321868E3,2.3374652E2,7.513724E2,1.1086706E2,8.1156946E2,3.3641388E2,7.5840326E2,2.6764998E3,7.4389277E3,1.07468124E2,6.640883E2,3.8361194E2],"tree_param":{"num_deleted":"0","num_feature":"240","num_nodes":"31","size_leaf_vector":"1"}},{"base_weights":[-1.986924E-1,-3.6469284E-1,3.2570103E-1,-1.8933794E-1,-5.834817E-1,5.186439E-1,8.892942E-2,1.1505847E-1,-3.5271E-1,-6.128518E-1,-4.2446557E-1,6.951503E-1,3.7682983E-1,2.6594654E-1,-4.1228548E-2,8.826302E-2,-1.4922412E-1,-1.2505995E-1,1.2677014E-1,-1.8407723E-1,2.3899257E-1,-1.334622E-1,-1.3409718E-2,1.5156992E-1,2.2991143E-1,2.7996315E-2,1.6459173E-1,7.04799E-2,2.2779432E-1,-5.2742347E-2,4.5151547E-2],"categories":[],"categories_nodes":[],"categories_segments":[],"categories_sizes":[],"default_left":[0,0,0,0,0,0,0,0,0,0,0,0,0,0,0,0,0,0,0,0,0,0,0,0,0,0,0,0,0,0,0],"id":7,"left_children":[1,3,5,7,9,11,13,15,17,19,21,23,25,27,29,-1,-1,-1,-1,-1,-1,-1,-1,-1,-1,-1,-1,-1,-1,-1,-1],"loss_changes":[2.3155884E3,7.750403E2,2.9215314E2,5.578532E2,4.171875E1,8.7949524E1,6.6207924E1,4.3008698E2,3.6324744E2,8.38916E0,1.0866226E1,2.0832764E1,9.523691E1,1.845137E1,4.2771423E1,0E0,0E0,0E0,0E0,0E0,0E0,0E0,0E0,0E0,0E0,0E0,0E0,0E0,0E0,0E0,0E0],"parents":[2147483647,0,0,1,1,2,2,3,3,4,4,5,5,6,6,7,7,8,8,9,9,10,10,11,11,12,12,13,13,14,14],"right_children":[2,4,6,8,10,12,14,16,18,20,22,24,26,28,30,-1,-1,-1,-1,-1,-1,-1,-1,-1,-1,-1,-1,-1,-1,-1,-1],"split_conditions":[4.68E2,4.16E2,6.08E2,1.34E2,5.37E2,2.94E2,2.89E2,5.27E2,3.32E2,1.439E3,1.482E3,2.49E2,1.81E2,1.656E3,2.21E2,8.826302E-2,-1.4922412E-1,-1.2505995E-1,1.2677014E-1,-1.8407723E-1,2.3899257E-1,-1.334622E-1,-1.3409718E-2,1.5156992E-1,2.2991143E-1,2.7996315E-2,1.6459173E-1,7.04799E-2,2.2779432E-1,-5.2742347E-2,4.5151547E-2],"split_indices":[150,196,170,138,166,188,196,44,138,162,165,170,28,152,12,0,0,0,0,0,0,0,0,0,0,0,0,0,0,0,0],"split_type":[0,0,0,0,0,0,0,0,0,0,0,0,0,0,0,0,0,0,0,0,0,0,0,0,0,0,0,0,0,0,0],"sum_hessian":[2.659845E4,2.0203268E4,6.3951816E3,1.1215854E4,8.987414E3,3.5230735E3,2.8721084E3,3.9173342E3,7.2985195E3,7.583837E3,1.4035769E3,1.567816E3,1.9552574E3,1.216544E3,1.6555645E3,3.0312083E3,8.8612604E2,6.741133E3,5.573866E2,7.5804272E3,3.4098196E0,1.3318335E3,7.174345E1,4.298029E2,1.1380132E3,7.38377E2,1.2168805E3,1.1459825E3,7.056133E1,9.728189E2,6.8274554E2],"tree_param":{"num_deleted":"0","num_feature":"240","num_nodes":"31","size_leaf_vector":"1"}},{"base_weights":[-1.8839103E-1,-3.7644926E-1,2.8688475E-1,-1.2745667E-3,-5.108095E-1,5.6178415E-1,2.6104383E-2,-2.637318E-1,3.4440926E-1,-5.2895E-1,4.2732045E-1,5.9032726E-1,-3.3295396E-1,-1.9723104E-1,2.2716369E-1,-3.692621E-2,-1.7280209E-1,1.5049294E-1,-8.533284E-2,-1.7045982E-1,-1.0240317E-1,1.9819589E-1,2.7236678E-2,1.15265466E-1,2.0673847E-1,-1.7128512E-1,7.3421836E-2,1.3424119E-2,-7.4603714E-2,8.242633E-2,-1.2046004E-1],"categories":[],"categories_nodes":[],"categories_segments":[],"categories_sizes":[],"default_left":[0,0,0,0,0,0,0,0,0,0,0,0,0,0,0,0,0,0,0,0,0,0,0,0,0,0,0,0,0,0,0],"id":8,"left_children":[1,3,5,7,9,11,13,15,17,19,21,23,25,27,29,-1,-1,-1,-1,-1,-1,-1,-1,-1,-1,-1,-1,-1,-1,-1,-1],"loss_changes":[2.3813376E3,9.622556E2,5.41493E2,4.5687112E2,2.394248E2,9.410779E1,1.7415483E2,1.2564508E2,2.1502728E2,1.0134277E2,2.0920528E1,7.230969E1,1.5857507E1,2.288646E1,6.1175346E1,0E0,0E0,0E0,0E0,0E0,0E0,0E0,0E0,0E0,0E0,0E0,0E0,0E0,0E0,0E0,0E0],"parents":[2147483647,0,0,1,1,2,2,3,3,4,4,5,5,6,6,7,7,8,8,9,9,10,10,11,11,12,12,13,13,14,14],"right_children":[2,4,6,8,10,12,14,16,18,20,22,24,26,28,30,-1,-1,-1,-1,-1,-1,-1,-1,-1,-1,-1,-1,-1,-1,-1,-1],"split_conditions":[4.76E2,1.34E2,3.04E2,6E2,5.35E2,3.1E2,3.75E2,4.88E2,2.73E2,4.64E2,2.47E2,1.39E2,2.9E2,2.87E2,5.23E2,-3.692621E-2,-1.7280209E-1,1.5049294E-1,-8.533284E-2,-1.7045982E-1,-1.0240317E-1,1.9819589E-1,2.7236678E-2,1.15265466E-1,2.0673847E-1,-1.7128512E-1,7.3421836E-2,1.3424119E-2,-7.4603714E-2,8.242633E-2,-1.2046004E-1],"split_indices":[206,212,168,44,212,154,214,168,162,196,160,146,224,164,170,0,0,0,0,0,0,0,0,0,0,0,0,0,0,0,0],"split_type":[0,0,0,0,0,0,0,0,0,0,0,0,0,0,0,0,0,0,0,0,0,0,0,0,0,0,0,0,0,0,0],"sum_hessian":[2.6640781E4,1.9088146E4,7.552635E3,5.0336553E3,1.4054491E4,3.6762222E3,3.8764128E3,2.8614006E3,2.172255E3,1.3788305E4,2.661869E2,3.5629019E3,1.1332024E2,1.8364806E3,2.0399321E3,1.9738153E3,8.875852E2,1.7379196E3,4.343353E2,1.1401044E4,2.3872605E3,1.5662712E2,1.0955977E2,1.1560825E3,2.4068193E3,8.0264694E1,3.305554E1,3.2202295E2,1.5144576E3,1.8969044E3,1.4302776E2],"tree_param":{"num_deleted":"0","num_feature":"240","num_nodes":"31","size_leaf_vector":"1"}},{"base_weights":[2.482968E-1,1.6815336E-1,4.02336E-1,2.0500994E-1,-1.81355E-1,3.027562E-1,4.9501252E-1,2.3519759E-1,-2.4465714E-1,-3.2986125E-1,-2.8518925E-3,8.3537176E-2,4.1139713E-1,5.123564E-1,4.22955E-2,2.8005041E-2,1.01362295E-1,-8.7006435E-2,1.4705779E-1,-1.1908055E-1,-2.0804964E-2,-1.7622773E-2,1.6838618E-1,-5.2527413E-2,1.0246944E-1,1.2752786E-1,-1.2859298E-1,1.6755795E-1,1.2618402E-1,-7.901046E-2,1.6397682E-1],"categories":[],"categories_nodes":[],"categories_segments":[],"categories_sizes":[],"default_left":[0,0,0,0,0,0,0,0,0,0,0,0,0,0,0,0,0,0,0,0,0,0,0,0,0,0,0,0,0,0,0],"id":9,"left_children":[1,3,5,7,9,11,13,15,17,19,21,23,25,27,29,-1,-1,-1,-1,-1,-1,-1,-1,-1,-1,-1,-1,-1,-1,-1,-1],"loss_changes":[3.9523853E2,2.7138013E2,1.00975464E2,2.587223E2,5.3279594E1,1.2582669E2,4.4529663E1,2.6004675E2,4.0120697E1,1.9143288E1,2.8844604E1,1.1700398E2,4.083264E1,2.2911743E1,3.2582672E1,0E0,0E0,0E0,0E0,0E0,0E0,0E0,0E0,0E0,0E0,0E0,0E0,0E0,0E0,0E0,0E0],"parents":[2147483647,0,0,1,1,2,2,3,3,4,4,5,5,6,6,7,7,8,8,9,9,10,10,11,11,12,12,13,13,14,14],"right_children":[2,4,6,8,10,12,14,16,18,20,22,24,26,28,30,-1,-1,-1,-1,-1,-1,-1,-1,-1,-1,-1,-1,-1,-1,-1,-1],"split_conditions":[5.7E2,3.91E2,2.39E2,5.7E2,6.03E2,3.73E2,1.01E3,1.88E2,4.12E2,2.65E2,1.374E3,2.1E2,1.584E3,4.18E2,4.09E2,2.8005041E-2,1.01362295E-1,-8.7006435E-2,1.4705779E-1,-1.1908055E-1,-2.0804964E-2,-1.7622773E-2,1.6838618E-1,-5.2527413E-2,1.0246944E-1,1.2752786E-1,-1.2859298E-1,1.6755795E-1,1.2618402E-1,-7.901046E-2,1.6397682E-1],"split_indices":[184,138,144,220,166,170,216,216,88,204,70,22,160,43,76,0,0,0,0,0,0,0,0,0,0,0,0,0,0,0,0],"split_type":[0,0,0,0,0,0,0,0,0,0,0,0,0,0,0,0,0,0,0,0,0,0,0,0,0,0,0,0,0,0,0],"sum_hessian":[3.2019947E4,2.1063258E4,1.0956689E4,1.9054342E4,2.0089166E3,5.283693E3,5.6729966E3,1.785608E4,1.1982615E3,1.0961353E3,9.1278143E2,1.7514109E3,3.5322822E3,5.463553E3,2.094438E2,7.498644E3,1.0357436E4,1.1291606E3,6.910089E1,8.7128235E2,2.2485289E2,8.3131665E2,8.146476E1,8.748474E2,8.765635E2,3.4761028E3,5.617933E1,3.6310964E3,1.8324567E3,1.3070087E2,7.874294E1],"tree_param":{"num_deleted":"0","num_feature":"240","num_nodes":"31","size_leaf_vector":"1"}},{"base_weights":[-1.6510895E-1,-3.6641315E-1,1.8112902E-1,-4.639062E-1,4.5754E-3,4.7231302E-1,4.751695E-2,-4.9088868E-1,1.4285904E-1,2.2943111E-1,-3.5425162E-1,5.3455824E-1,-1.7547147E-1,-7.5320974E-2,2.5597483E-1,-1.5870184E-1,-8.0335274E-2,1.1378338E-1,-5.0444957E-2,1.1027249E-1,-1.1525542E-1,-2.7486427E-2,-1.3668947E-1,8.038564E-2,1.8523617E-1,-1.0627007E-1,7.714846E-2,-7.0548624E-2,2.3071796E-2,8.757676E-2,-8.596937E-2],"categories":[],"categories_nodes":[],"categories_segments":[],"categories_sizes":[],"default_left":[0,0,0,0,0,0,0,0,0,0,0,0,0,0,0,0,0,0,0,0,0,0,0,0,0,0,0,0,0,0,0],"id":10,"left_children":[1,3,5,7,9,11,13,15,17,19,21,23,25,27,29,-1,-1,-1,-1,-1,-1,-1,-1,-1,-1,-1,-1,-1,-1,-1,-1],"loss_changes":[1.7151245E3,5.627993E2,3.519688E2,2.018081E2,2.614302E2,1.1483087E2,1.5884991E2,1.0018823E2,3.8695736E1,1.689909E2,3.3192963E1,5.7214966E1,1.9441948E1,9.5002396E1,4.494226E1,0E0,0E0,0E0,0E0,0E0,0E0,0E0,0E0,0E0,0E0,0E0,0E0,0E0,0E0,0E0,0E0],"parents":[2147483647,0,0,1,1,2,2,3,3,4,4,5,5,6,6,7,7,8,8,9,9,10,10,11,11,12,12,13,13,14,14],"right_children":[2,4,6,8,10,12,14,16,18,20,22,24,26,28,30,-1,-1,-1,-1,-1,-1,-1,-1,-1,-1,-1,-1,-1,-1,-1,-1],"split_conditions":[5.29E2,5.92E2,2.85E2,4.48E2,2.52E2,2.31E2,3.62E2,5.29E2,2.36E2,4.75E2,1.34E2,1.59E2,3.83E2,5.03E2,5.64E2,-1.5870184E-1,-8.0335274E-2,1.1378338E-1,-5.0444957E-2,1.1027249E-1,-1.1525542E-1,-2.7486427E-2,-1.3668947E-1,8.038564E-2,1.8523617E-1,-1.0627007E-1,7.714846E-2,-7.0548624E-2,2.3071796E-2,8.757676E-2,-8.596937E-2],"split_indices":[160,82,190,154,212,216,142,166,206,194,138,200,140,62,187,0,0,0,0,0,0,0,0,0,0,0,0,0,0,0,0],"split_type":[0,0,0,0,0,0,0,0,0,0,0,0,0,0,0,0,0,0,0,0,0,0,0,0,0,0,0,0,0,0,0],"sum_hessian":[2.4605582E4,1.5559288E4,9.046293E3,1.2321134E4,3.2381543E3,2.844554E3,6.2017393E3,1.1796732E4,5.244021E2,1.9909218E3,1.2472324E3,2.5953435E3,2.4921033E2,3.902659E3,2.2990803E3,1.0074185E4,1.7225476E3,2.9780267E2,2.2659944E2,1.625396E3,3.6552576E2,3.47895E2,8.9933746E2,6.1657324E2,1.9787704E3,1.7647348E2,7.273685E1,1.9034532E3,1.9992057E3,2.1566465E3,1.424337E2],"tree_param":{"num_deleted":"0","num_feature":"240","num_nodes":"31","size_leaf_vector":"1"}},{"base_weights":[-1.5813768E-1,5.241931E-2,-4.9887466E-1,1.7568319E-1,-3.6412963E-1,-5.3717947E-1,-2.375098E-1,2.4254745E-1,-2.858939E-1,-4.6198937E-1,7.3324494E-2,-5.734012E-1,-4.6418247E-1,-1.392407E-1,-3.3680958E-1,5.3271865E-3,1.2803774E-1,-1.305744E-1,1.7544924E-1,-1.5534817E-1,-6.244762E-2,6.809568E-2,-8.3751276E-2,-1.628646E-1,-1.7860037E-1,-1.4114986E-1,1.5792327E-1,-6.1182227E-2,2.750936E-2,-1.3867933E-1,-3.7782684E-2],"categories":[],"categories_nodes":[],"categories_segments":[],"categories_sizes":[],"default_left":[0,0,0,0,0,0,0,0,0,0,0,0,0,0,0,0,0,0,0,0,0,0,0,0,0,0,0,0,0,0,0],"id":11,"left_children":[1,3,5,7,9,11,13,15,17,19,21,23,25,27,29,-1,-1,-1,-1,-1,-1,-1,-1,-1,-1,-1,-1,-1,-1,-1,-1],"loss_changes":[1.7639192E3,7.803379E2,9.388257E1,3.62005E2,1.4859839E2,2.1386475E1,1.168309E1,4.2425665E2,1.9328363E2,4.0089417E1,3.447314E1,3.3376465E0,1.727539E1,9.071587E0,1.5740257E1,0E0,0E0,0E0,0E0,0E0,0E0,0E0,0E0,0E0,0E0,0E0,0E0,0E0,0E0,0E0,0E0],"parents":[2147483647,0,0,1,1,2,2,3,3,4,4,5,5,6,6,7,7,8,8,9,9,10,10,11,11,12,12,13,13,14,14],"right_children":[2,4,6,8,10,12,14,16,18,20,22,24,26,28,30,-1,-1,-1,-1,-1,-1,-1,-1,-1,-1,-1,-1,-1,-1,-1,-1],"split_conditions":[4.55E2,5.83E2,4.71E2,2.9E2,3.55E2,4.26E2,3.83E2,1.43E2,3.69E2,4.51E2,2.25E2,5.17E2,1.705E3,4.31E2,4.34E2,5.3271865E-3,1.2803774E-1,-1.305744E-1,1.7544924E-1,-1.5534817E-1,-6.244762E-2,6.809568E-2,-8.3751276E-2,-1.628646E-1,-1.7860037E-1,-1.4114986E-1,1.5792327E-1,-6.1182227E-2,2.750936E-2,-1.3867933E-1,-3.7782684E-2],"split_indices":[168,74,202,148,210,192,160,148,219,200,138,72,40,212,39,0,0,0,0,0,0,0,0,0,0,0,0,0,0,0,0],"split_type":[0,0,0,0,0,0,0,0,0,0,0,0,0,0,0,0,0,0,0,0,0,0,0,0,0,0,0,0,0,0,0],"sum_hessian":[2.458474E4,1.5195557E4,9.389185E3,1.1726164E4,3.469392E3,8.188107E3,1.2010775E3,1.02428545E4,1.48331E3,2.8351133E3,6.34279E2,5.4679893E3,2.7201177E3,6.04879E2,5.961985E2,4.614265E3,5.6285894E3,1.2665592E3,2.1675092E2,2.3230476E3,5.120656E2,4.419699E2,1.9230908E2,2.2972424E3,3.170747E3,2.7034028E3,1.6714663E1,4.725935E2,1.322855E2,3.7305713E2,2.2314137E2],"tree_param":{"num_deleted":"0","num_feature":"240","num_nodes":"31","size_leaf_vector":"1"}},{"base_weights":[1.9763127E-1,3.0828679E-2,2.491461E-1,-8.327415E-2,1.6532885E-1,2.8668004E-1,4.3304265E-2,5.573654E-2,-2.5493404E-1,2.6437578E-1,-8.6721785E-2,1.9317906E-1,4.1487494E-1,-2.5642312E-1,1.7902973E-1,-1.380736E-2,6.2212076E-2,-1.4193323E-1,-1.555243E-2,1.0224332E-1,1.8019961E-2,-8.832433E-2,6.676496E-2,7.064746E-2,-1.2975006E-2,1.3514096E-1,4.2008777E-4,-9.729991E-2,6.19956E-2,7.8103274E-2,-1.4553975E-2],"categories":[],"categories_nodes":[],"categories_segments":[],"categories_sizes":[],"default_left":[0,0,0,0,0,0,0,0,0,0,0,0,0,0,0,0,0,0,0,0,0,0,0,0,0,0,0,0,0,0,0],"id":12,"left_children":[1,3,5,7,9,11,13,15,17,19,21,23,25,27,29,-1,-1,-1,-1,-1,-1,-1,-1,-1,-1,-1,-1,-1,-1,-1,-1],"loss_changes":[2.6814062E2,1.1303767E2,1.841958E2,9.510906E1,8.441722E1,2.416278E2,1.496782E2,3.4000042E1,7.8994995E1,3.7882233E1,6.13713E1,1.1667944E2,1.2515637E2,3.613302E1,4.686756E1,0E0,0E0,0E0,0E0,0E0,0E0,0E0,0E0,0E0,0E0,0E0,0E0,0E0,0E0,0E0,0E0],"parents":[2147483647,0,0,1,1,2,2,3,3,4,4,5,5,6,6,7,7,8,8,9,9,10,10,11,11,12,12,13,13,14,14],"right_children":[2,4,6,8,10,12,14,16,18,20,22,24,26,28,30,-1,-1,-1,-1,-1,-1,-1,-1,-1,-1,-1,-1,-1,-1,-1,-1],"split_conditions":[1.55E2,2.33E2,4.1E2,4.91E2,4.57E2,2.4E2,2.64E2,2.85E2,3.51E2,7.75E2,2.73E2,2.88E2,3.1E2,2.27E2,3.19E2,-1.380736E-2,6.2212076E-2,-1.4193323E-1,-1.555243E-2,1.0224332E-1,1.8019961E-2,-8.832433E-2,6.676496E-2,7.064746E-2,-1.2975006E-2,1.3514096E-1,4.2008777E-4,-9.729991E-2,6.19956E-2,7.8103274E-2,-1.4553975E-2],"split_indices":[130,210,212,62,212,212,166,192,48,84,166,132,130,136,226,0,0,0,0,0,0,0,0,0,0,0,0,0,0,0,0],"split_type":[0,0,0,0,0,0,0,0,0,0,0,0,0,0,0,0,0,0,0,0,0,0,0,0,0,0,0,0,0,0,0],"sum_hessian":[3.1205129E4,7.363633E3,2.3841496E4,3.9841074E3,3.3795254E3,2.0164277E4,3.677219E3,2.201777E3,1.7823304E3,2.4261038E3,9.534215E2,1.1661376E4,8.502901E3,1.1458682E3,2.5313506E3,1.3179916E3,8.837856E2,8.586148E2,9.237156E2,1.7650887E3,6.610151E2,5.70409E2,3.8301254E2,9.891203E3,1.7701727E3,7.8288477E3,6.7405334E2,9.9957965E2,1.4628859E2,1.8648027E3,6.665479E2],"tree_param":{"num_deleted":"0","num_feature":"240","num_nodes":"31","size_leaf_vector":"1"}},{"base_weights":[-1.378215E-1,1.6939372E-2,-4.944148E-1,-2.7000198E-1,1.6921876E-1,-5.399233E-1,-2.5192654E-1,-3.8604307E-1,2.687171E-2,4.0464377E-1,-1.3280413E-1,-5.4940844E-1,-2.8961283E-1,-2.9685876E-1,1.4330816E-1,-1.21662155E-1,1.8813723E-1,-5.6793798E-2,8.7636836E-2,1.9498177E-1,7.977258E-2,-6.6468515E-2,9.847519E-2,-1.676266E-1,-1.1500081E-1,-1.1664532E-1,2.099426E-1,-9.450749E-2,1.8494347E-1,1.3106841E-1,-1.6302568E-1],"categories":[],"categories_nodes":[],"categories_segments":[],"categories_sizes":[],"default_left":[0,0,0,0,0,0,0,0,0,0,0,0,0,0,0,0,0,0,0,0,0,0,0,0,0,0,0,0,0,0,0],"id":13,"left_children":[1,3,5,7,9,11,13,15,17,19,21,23,25,27,29,-1,-1,-1,-1,-1,-1,-1,-1,-1,-1,-1,-1,-1,-1,-1,-1],"loss_changes":[1.25821E3,6.9479474E2,7.600891E1,1.8992822E2,7.3867554E2,1.3632568E1,1.943895E1,7.8553955E1,8.895028E1,1.98495E2,1.863139E2,8.471802E0,2.1296852E1,1.6471611E1,2.2851976E1,0E0,0E0,0E0,0E0,0E0,0E0,0E0,0E0,0E0,0E0,0E0,0E0,0E0,0E0,0E0,0E0],"parents":[2147483647,0,0,1,1,2,2,3,3,4,4,5,5,6,6,7,7,8,8,9,9,10,10,11,11,12,12,13,13,14,14],"right_children":[2,4,6,8,10,12,14,16,18,20,22,24,26,28,30,-1,-1,-1,-1,-1,-1,-1,-1,-1,-1,-1,-1,-1,-1,-1,-1],"split_conditions":[4.23E2,1.39E2,4.87E2,4.77E2,2.79E2,7.06E2,7.35E2,3.64E2,5.48E2,2.61E2,2.86E2,5.37E2,4.07E2,1.39E3,1.168E3,-1.21662155E-1,1.8813723E-1,-5.6793798E-2,8.7636836E-2,1.9498177E-1,7.977258E-2,-6.6468515E-2,9.847519E-2,-1.676266E-1,-1.1500081E-1,-1.1664532E-1,2.099426E-1,-9.450749E-2,1.8494347E-1,1.3106841E-1,-1.6302568E-1],"split_indices":[196,202,164,164,202,90,146,136,72,190,130,166,148,203,149,0,0,0,0,0,0,0,0,0,0,0,0,0,0,0,0],"split_type":[0,0,0,0,0,0,0,0,0,0,0,0,0,0,0,0,0,0,0,0,0,0,0,0,0,0,0,0,0,0,0],"sum_hessian":[2.2798006E4,1.5898874E4,6.899131E3,5.5119287E3,1.0386946E4,5.8079155E3,1.0912153E3,3.9627E3,1.5492286E3,5.8368315E3,4.5501143E3,5.5947173E3,2.1319852E2,9.8004755E2,1.1116772E2,3.8884697E3,7.423021E1,8.537189E2,6.9550977E2,2.1072876E3,3.729544E3,3.8160137E3,7.341007E2,5.2943735E3,3.0034384E2,1.9432176E2,1.8876757E1,9.6157697E2,1.847061E1,7.812981E1,3.303791E1],"tree_param":{"num_deleted":"0","num_feature":"240","num_nodes":"31","size_leaf_vector":"1"}},{"base_weights":[-1.3238712E-1,4.4418972E-2,-4.64344E-1,-1.5398681E-1,2.3135808E-1,-5.066158E-1,-2.1816418E-1,-1.9491728E-2,-4.8787004E-1,4.3939534E-1,5.4401856E-2,-5.438781E-1,-4.2684737E-1,-2.3477615E-1,4.3736553E-1,6.0275882E-2,-6.144486E-2,-1.5529358E-1,1.1094203E-1,1.5013665E-1,-7.500636E-2,-2.5351733E-2,6.539623E-2,-1.5255328E-1,-1.7092696E-1,-1.301688E-1,1.4007013E-1,-5.4588955E-2,-1.3133474E-1,3.028811E-1,-4.060918E-2],"categories":[],"categories_nodes":[],"categories_segments":[],"categories_sizes":[],"default_left":[0,0,0,0,0,0,0,0,0,0,0,0,0,0,0,0,0,0,0,0,0,0,0,0,0,0,0,0,0,0,0],"id":14,"left_children":[1,3,5,7,9,11,13,15,17,19,21,23,25,27,29,-1,-1,-1,-1,-1,-1,-1,-1,-1,-1,-1,-1,-1,-1,-1,-1],"loss_changes":[1.341163E3,5.530586E2,8.2528564E1,3.2483563E2,2.8260925E2,1.99104E1,1.2794643E1,2.107232E2,5.323764E1,1.486676E2,9.431466E1,3.9343262E0,1.382431E1,1.211433E1,9.691793E0,0E0,0E0,0E0,0E0,0E0,0E0,0E0,0E0,0E0,0E0,0E0,0E0,0E0,0E0,0E0,0E0],"parents":[2147483647,0,0,1,1,2,2,3,3,4,4,5,5,6,6,7,7,8,8,9,9,10,10,11,11,12,12,13,13,14,14],"right_children":[2,4,6,8,10,12,14,16,18,20,22,24,26,28,30,-1,-1,-1,-1,-1,-1,-1,-1,-1,-1,-1,-1,-1,-1,-1,-1],"split_conditions":[4.64E2,4.57E2,4.38E2,2.32E2,3E2,4.26E2,1.474E3,1.32E2,2.87E2,2.54E2,2.75E2,5.17E2,1.705E3,8.24E2,1.92E2,6.0275882E-2,-6.144486E-2,-1.5529358E-1,1.1094203E-1,1.5013665E-1,-7.500636E-2,-2.5351733E-2,6.539623E-2,-1.5255328E-1,-1.7092696E-1,-1.301688E-1,1.4007013E-1,-5.4588955E-2,-1.3133474E-1,3.028811E-1,-4.060918E-2],"split_indices":[168,200,201,136,170,192,38,218,228,144,218,72,40,66,130,0,0,0,0,0,0,0,0,0,0,0,0,0,0,0,0],"split_type":[0,0,0,0,0,0,0,0,0,0,0,0,0,0,0,0,0,0,0,0,0,0,0,0,0,0,0,0,0,0,0],"sum_hessian":[2.2849514E4,1.4909381E4,7.9401333E3,7.2329473E3,7.6764336E3,6.7756255E3,1.1645078E3,5.156757E3,2.0761902E3,3.5276707E3,4.1487627E3,4.614317E3,2.1613086E3,1.136353E3,2.8154818E1,2.3553694E3,2.8013877E3,2.0069144E3,6.927577E1,3.2409045E3,2.8676602E2,2.2438745E3,1.9048883E3,1.9584338E3,2.655883E3,2.1449075E3,1.6401339E1,9.032618E2,2.3309119E2,1.3701889E1,1.4452928E1],"tree_param":{"num_deleted":"0","num_feature":"240","num_nodes":"31","size_leaf_vector":"1"}},{"base_weights":[1.5853664E-1,4.7609065E-2,2.1327022E-1,2.9911362E-2,5.1923704E-1,2.4039258E-1,-1.2404599E-1,-5.934116E-2,1.2532389E-1,5.884012E-1,1.2477638E-1,2.7758273E-1,2.2701649E-2,-2.2970985E-1,3.6733305E-1,1.16436165E-2,-6.575989E-2,-7.379731E-3,6.816581E-2,1.5529498E-1,2.704158E-1,-8.260664E-2,1.22716285E-1,5.5310372E-2,1.073912E-1,-5.434012E-2,3.644962E-2,-8.858426E-2,5.8990818E-2,-2.4903778E-3,1.3344091E-1],"categories":[],"categories_nodes":[],"categories_segments":[],"categories_sizes":[],"default_left":[0,0,0,0,0,0,0,0,0,0,0,0,0,0,0,0,0,0,0,0,0,0,0,0,0,0,0,0,0,0,0],"id":15,"left_children":[1,3,5,7,9,11,13,15,17,19,21,23,25,27,29,-1,-1,-1,-1,-1,-1,-1,-1,-1,-1,-1,-1,-1,-1,-1,-1],"loss_changes":[1.8305731E2,8.31462E1,1.8474188E2,8.1794106E1,9.756203E0,1.5128687E2,7.813339E1,7.78797E1,7.0921814E1,6.3155136E0,6.3708177E0,1.1953308E2,5.4955704E1,3.4661987E1,7.7567253E0,0E0,0E0,0E0,0E0,0E0,0E0,0E0,0E0,0E0,0E0,0E0,0E0,0E0,0E0,0E0,0E0],"parents":[2147483647,0,0,1,1,2,2,3,3,4,4,5,5,6,6,7,7,8,8,9,9,10,10,11,11,12,12,13,13,14,14],"right_children":[2,4,6,8,10,12,14,16,18,20,22,24,26,28,30,-1,-1,-1,-1,-1,-1,-1,-1,-1,-1,-1,-1,-1,-1,-1,-1],"split_conditions":[1.71E2,1.338E3,3.47E2,2.34E2,2.67E2,3.75E2,6.13E2,1.36E2,2.84E2,4.05E2,1.33E2,2.13E2,2.93E2,9.14E2,2E2,1.16436165E-2,-6.575989E-2,-7.379731E-3,6.816581E-2,1.5529498E-1,2.704158E-1,-8.260664E-2,1.22716285E-1,5.5310372E-2,1.073912E-1,-5.434012E-2,3.644962E-2,-8.858426E-2,5.8990818E-2,-2.4903778E-3,1.3344091E-1],"split_indices":[134,184,134,208,224,214,180,208,168,30,97,214,168,160,199,0,0,0,0,0,0,0,0,0,0,0,0,0,0,0,0],"split_type":[0,0,0,0,0,0,0,0,0,0,0,0,0,0,0,0,0,0,0,0,0,0,0,0,0,0,0,0,0,0,0],"sum_hessian":[3.0151117E4,9.962389E3,2.0188729E4,9.603099E3,3.5929E2,1.8686502E4,1.5022262E3,4.9619136E3,4.6411855E3,3.0527237E2,5.4017643E1,1.5959686E4,2.7268164E3,1.2368025E3,2.6542374E2,3.0747637E3,1.88715E3,1.8783096E3,2.762876E3,2.5115245E2,5.411992E1,2.244992E1,3.1567722E1,7.391763E3,8.567922E3,8.899216E2,1.8368949E3,1.0722069E3,1.645955E2,4.553375E1,2.1988998E2],"tree_param":{"num_deleted":"0","num_feature":"240","num_nodes":"31","size_leaf_vector":"1"}},{"base_weights":[-1.1458607E-1,2.1083858E-2,-4.6214598E-1,-2.5566033E-1,1.4242685E-1,-5.203578E-1,-2.3335801E-1,-3.0940455E-1,3.7110156E-1,3.7635082E-1,-7.171534E-2,-5.3010637E-1,-1.1429918E-1,-2.6903817E-1,1.6941129E-1,-1.18452884E-1,-2.5635086E-2,1.3223454E-1,-3.2830577E-2,1.7440873E-1,7.2530255E-2,-4.5914866E-2,8.585115E-2,-1.5937325E-1,2.6109183E-1,1.6978431E-1,-1.2913544E-1,-1.1447414E-1,-4.9530696E-2,1.0911273E-1,-1.7622298E-1],"categories":[],"categories_nodes":[],"categories_segments":[],"categories_sizes":[],"default_left":[0,0,0,0,0,0,0,0,0,0,0,0,0,0,0,0,0,0,0,0,0,0,0,0,0,0,0,0,0,0,0],"id":16,"left_children":[1,3,5,7,9,11,13,15,17,19,21,23,25,27,29,-1,-1,-1,-1,-1,-1,-1,-1,-1,-1,-1,-1,-1,-1,-1,-1],"loss_changes":[9.973036E2,5.1090158E2,7.896216E1,1.5632794E2,5.298329E2,1.867456E1,1.7379967E1,8.17038E1,1.2327095E1,1.393302E2,1.6079572E2,7.82605E0,2.4381275E1,1.2902664E1,1.4738115E1,0E0,0E0,0E0,0E0,0E0,0E0,0E0,0E0,0E0,0E0,0E0,0E0,0E0,0E0,0E0,0E0],"parents":[2147483647,0,0,1,1,2,2,3,3,4,4,5,5,6,6,7,7,8,8,9,9,10,10,11,11,12,12,13,13,14,14],"right_children":[2,4,6,8,10,12,14,16,18,20,22,24,26,28,30,-1,-1,-1,-1,-1,-1,-1,-1,-1,-1,-1,-1,-1,-1,-1,-1],"split_conditions":[4.23E2,1.38E2,5.37E2,3.48E2,2.56E2,3.85E2,7.35E2,4.98E2,1.257E3,2.72E2,2.85E2,1.439E3,4.49E2,5.08E2,1.197E3,-1.18452884E-1,-2.5635086E-2,1.3223454E-1,-3.2830577E-2,1.7440873E-1,7.2530255E-2,-4.5914866E-2,8.585115E-2,-1.5937325E-1,2.6109183E-1,1.6978431E-1,-1.2913544E-1,-1.1447414E-1,-4.9530696E-2,1.0911273E-1,-1.7622298E-1],"split_indices":[196,204,166,138,204,148,146,166,74,188,130,162,50,68,149,0,0,0,0,0,0,0,0,0,0,0,0,0,0,0,0],"split_type":[0,0,0,0,0,0,0,0,0,0,0,0,0,0,0,0,0,0,0,0,0,0,0,0,0,0,0,0,0,0,0],"sum_hessian":[2.1148977E4,1.5211939E4,5.937037E3,4.6364917E3,1.0575447E4,4.7318203E3,1.205217E3,4.2707827E3,3.6570917E2,5.0539126E3,5.5215347E3,4.620584E3,1.1123605E2,1.1074438E3,9.777319E1,3.0908591E3,1.1799236E3,3.1946753E2,4.6241642E1,2.0015775E3,3.0523352E3,4.4995303E3,1.0220042E3,4.617453E3,3.1308322E0,3.5043922E1,7.619213E1,5.304253E2,5.770186E2,7.821307E1,1.9560123E1],"tree_param":{"num_deleted":"0","num_feature":"240","num_nodes":"31","size_leaf_vector":"1"}},{"base_weights":[-1.1110152E-1,3.323033E-2,-4.5546034E-1,1.18947916E-1,-3.2318586E-1,-5.123945E-1,-3.0784827E-1,1.6804919E-1,-2.3121934E-1,-4.1382688E-1,1.3332387E-2,-4.6957734E-1,-5.4283667E-1,-3.7598088E-1,-1.8559085E-1,-2.661269E-3,9.310938E-2,-1.3449986E-1,5.0966214E-2,-1.304629E-1,8.754113E-2,3.061237E-2,-9.664492E-2,-1.429171E-1,-4.7302876E-2,-1.6406052E-1,-1.3178726E-1,-7.398091E-2,-1.3017288E-1,-6.136786E-2,1.9151126E-1],"categories":[],"categories_nodes":[],"categories_segments":[],"categories_sizes":[],"default_left":[0,0,0,0,0,0,0,0,0,0,0,0,0,0,0,0,0,0,0,0,0,0,0,0,0,0,0,0,0,0,0],"id":17,"left_children":[1,3,5,7,9,11,13,15,17,19,21,23,25,27,29,-1,-1,-1,-1,-1,-1,-1,-1,-1,-1,-1,-1,-1,-1,-1,-1],"loss_changes":[1.0543093E3,4.5672693E2,5.2494507E1,2.072394E2,8.841165E1,5.6362305E0,1.4476654E1,2.66128E2,1.2917444E2,3.40419E1,1.8364624E1,3.9315186E0,8.597412E-1,8.290192E0,9.928898E0,0E0,0E0,0E0,0E0,0E0,0E0,0E0,0E0,0E0,0E0,0E0,0E0,0E0,0E0,0E0,0E0],"parents":[2147483647,0,0,1,1,2,2,3,3,4,4,5,5,6,6,7,7,8,8,9,9,10,10,11,11,12,12,13,13,14,14],"right_children":[2,4,6,8,10,12,14,16,18,20,22,24,26,28,30,-1,-1,-1,-1,-1,-1,-1,-1,-1,-1,-1,-1,-1,-1,-1,-1],"split_conditions":[4.7E2,6.38E2,4.01E2,2.9E2,3.83E2,4.47E2,4.71E2,1.43E2,4.48E2,3.3E2,2.33E2,2.88E2,5.8E2,2E2,1.564E3,-2.661269E-3,9.310938E-2,-1.3449986E-1,5.0966214E-2,-1.304629E-1,8.754113E-2,3.061237E-2,-9.664492E-2,-1.429171E-1,-4.7302876E-2,-1.6406052E-1,-1.3178726E-1,-7.398091E-2,-1.3017288E-1,-6.136786E-2,1.9151126E-1],"split_indices":[166,74,196,148,208,152,202,148,209,214,122,219,35,136,38,0,0,0,0,0,0,0,0,0,0,0,0,0,0,0,0],"split_type":[0,0,0,0,0,0,0,0,0,0,0,0,0,0,0,0,0,0,0,0,0,0,0,0,0,0,0,0,0,0,0],"sum_hessian":[2.1211334E4,1.494733E4,6.2640034E3,1.204999E4,2.897339E3,4.5186733E3,1.7453301E3,1.05685625E4,1.4814282E3,2.2823577E3,6.149815E2,1.8845134E3,2.63416E3,1.119417E3,6.2591315E2,4.7118906E3,5.856672E3,9.610872E2,5.2034094E2,2.2166182E3,6.573949E1,4.8692398E2,1.2805757E2,1.8437131E3,4.080024E1,2.5313179E3,1.0284215E2,3.4783038E2,7.7158655E2,6.1256287E2,1.3350262E1],"tree_param":{"num_deleted":"0","num_feature":"240","num_nodes":"31","size_leaf_vector":"1"}},{"base_weights":[1.2804142E-1,2.3583613E-2,1.7133948E-1,-2.2813724E-2,2.0947273E-1,1.9325288E-1,-5.421149E-2,6.948947E-2,-1.2781148E-1,-4.137204E-2,3.6957878E-1,2.1397953E-1,-7.411625E-2,-1.6728391E-1,2.826516E-1,3.7584443E-2,-5.163848E-2,-1.0659055E-1,-1.1454311E-2,4.4026062E-2,-1.0925204E-1,1.3575996E-1,2.1378834E-2,8.6043246E-2,4.6127077E-2,-4.2303104E-2,7.641448E-2,-1.556568E-1,-2.787434E-2,-1.2619299E-2,1.0536539E-1],"categories":[],"categories_nodes":[],"categories_segments":[],"categories_sizes":[],"default_left":[0,0,0,0,0,0,0,0,0,0,0,0,0,0,0,0,0,0,0,0,0,0,0,0,0,0,0,0,0,0,0],"id":18,"left_children":[1,3,5,7,9,11,13,15,17,19,21,23,25,27,29,-1,-1,-1,-1,-1,-1,-1,-1,-1,-1,-1,-1,-1,-1,-1,-1],"loss_changes":[1.3186133E2,7.3701996E1,1.0188562E2,6.628976E1,6.856585E1,1.0412579E2,6.959887E1,4.9092033E1,6.5231125E1,4.0491135E1,2.5753021E1,7.64292E1,2.9782913E1,3.5712708E1,1.0239922E1,0E0,0E0,0E0,0E0,0E0,0E0,0E0,0E0,0E0,0E0,0E0,0E0,0E0,0E0,0E0,0E0],"parents":[2147483647,0,0,1,1,2,2,3,3,4,4,5,5,6,6,7,7,8,8,9,9,10,10,11,11,12,12,13,13,14,14],"right_children":[2,4,6,8,10,12,14,16,18,20,22,24,26,28,30,-1,-1,-1,-1,-1,-1,-1,-1,-1,-1,-1,-1,-1,-1,-1,-1],"split_conditions":[1.65E2,6.55E2,3.19E2,4.85E2,2.97E2,3.63E2,6.17E2,4.81E2,3.71E2,6.92E2,2.78E2,1.92E2,4.15E2,1.78E2,2.32E2,3.7584443E-2,-5.163848E-2,-1.0659055E-1,-1.1454311E-2,4.4026062E-2,-1.0925204E-1,1.3575996E-1,2.1378834E-2,8.6043246E-2,4.6127077E-2,-4.2303104E-2,7.641448E-2,-1.556568E-1,-2.787434E-2,-1.2619299E-2,1.0536539E-1],"split_indices":[132,192,132,60,170,220,179,196,50,50,224,38,166,138,49,0,0,0,0,0,0,0,0,0,0,0,0,0,0,0,0],"split_type":[0,0,0,0,0,0,0,0,0,0,0,0,0,0,0,0,0,0,0,0,0,0,0,0,0,0,0,0,0,0,0],"sum_hessian":[2.9154562E4,8.543843E3,2.061072E4,6.8379814E3,1.7058613E3,1.8785736E4,1.8249839E3,3.6391523E3,3.198829E3,6.6489087E2,1.0409705E3,1.7434406E4,1.351329E3,1.3667277E3,4.5825623E2,2.956864E3,6.8228845E2,9.032737E2,2.2955557E3,4.2041968E2,2.4447118E2,8.140781E2,2.2689236E2,7.8894272E3,9.5449795E3,1.1233726E3,2.2795639E2,2.3758727E2,1.1291404E3,7.996154E1,3.782947E2],"tree_param":{"num_deleted":"0","num_feature":"240","num_nodes":"31","size_leaf_vector":"1"}},{"base_weights":[-9.665691E-2,1.0257267E-2,-4.8091254E-1,-2.4310176E-1,1.5654276E-1,-5.2658737E-1,-2.3537445E-1,-3.1392863E-1,1.0207541E-1,3.512593E-1,3.0825574E-2,-5.30936E-1,-1.1792014E-1,-2.613859E-1,5.369076E-1,-1.1708891E-1,-2.3639306E-2,5.2432995E-2,-9.950064E-2,1.6844027E-1,6.385601E-2,-4.664457E-2,4.567423E-2,-1.5965602E-1,-1.877558E-2,1.4227714E-1,-1.0967569E-1,-3.4974493E-2,-1.00893945E-1,-1.6071856E-1,3.1170523E-1],"categories":[],"categories_nodes":[],"categories_segments":[],"categories_sizes":[],"default_left":[0,0,0,0,0,0,0,0,0,0,0,0,0,0,0,0,0,0,0,0,0,0,0,0,0,0,0,0,0,0,0],"id":19,"left_children":[1,3,5,7,9,11,13,15,17,19,21,23,25,27,29,-1,-1,-1,-1,-1,-1,-1,-1,-1,-1,-1,-1,-1,-1,-1,-1],"loss_changes":[8.087323E2,5.7085974E2,4.793219E1,1.3786731E2,2.3901775E2,6.3566284E0,1.3677448E1,8.397464E1,3.035064E1,1.1133621E2,1.3427678E2,2.0600586E0,5.939766E0,7.0413513E0,1.2558997E1,0E0,0E0,0E0,0E0,0E0,0E0,0E0,0E0,0E0,0E0,0E0,0E0,0E0,0E0,0E0,0E0],"parents":[2147483647,0,0,1,1,2,2,3,3,4,4,5,5,6,6,7,7,8,8,9,9,10,10,11,11,12,12,13,13,14,14],"right_children":[2,4,6,8,10,12,14,16,18,20,22,24,26,28,30,-1,-1,-1,-1,-1,-1,-1,-1,-1,-1,-1,-1,-1,-1,-1,-1],"split_conditions":[3.9E2,1.39E2,4.94E2,3.52E2,2.51E2,4.4E2,1.517E3,5.16E2,2.49E2,1.63E2,5.21E2,1.47E3,4.17E2,5.58E2,7.07E2,-1.1708891E-1,-2.3639306E-2,5.2432995E-2,-9.950064E-2,1.6844027E-1,6.385601E-2,-4.664457E-2,4.567423E-2,-1.5965602E-1,-1.877558E-2,1.4227714E-1,-1.0967569E-1,-3.4974493E-2,-1.00893945E-1,-1.6071856E-1,3.1170523E-1],"split_indices":[202,202,165,146,202,148,203,166,214,94,64,166,187,187,70,0,0,0,0,0,0,0,0,0,0,0,0,0,0,0,0],"split_type":[0,0,0,0,0,0,0,0,0,0,0,0,0,0,0,0,0,0,0,0,0,0,0,0,0,0,0,0,0,0,0],"sum_hessian":[1.9684508E4,1.5400492E4,4.284015E3,5.636939E3,9.763553E3,3.6111306E3,6.728845E2,4.677296E3,9.596431E2,3.8298745E3,5.933678E3,3.5728132E3,3.8317547E1,6.5159937E2,2.128516E1,3.5301013E3,1.1471945E3,8.223958E2,1.372473E2,1.5193136E3,2.3105608E3,2.341162E3,3.5925164E3,3.5631619E3,9.651392E0,1.1029854E1,2.7287693E1,2.2306337E2,4.28536E2,6.7654524E0,1.4519707E1],"tree_param":{"num_deleted":"0","num_feature":"240","num_nodes":"31","size_leaf_vector":"1"}},{"base_weights":[-9.198558E-2,2.451975E-2,-4.4740328E-1,9.923506E-2,-2.710749E-1,-4.9456936E-1,-2.9072198E-1,1.5096426E-1,-1.4896919E-1,-3.707468E-1,2.8667755E-2,-4.3908685E-1,-5.2412903E-1,-3.5663992E-1,-9.335499E-2,-6.87244E-3,8.557976E-2,-1.0715906E-1,5.5928722E-2,-1.1770586E-1,7.870315E-2,-2.918057E-3,1.5270796E-1,-1.16827965E-1,-1.5115556E-1,-1.5868564E-1,-1.22945026E-1,-8.405479E-2,-1.4338708E-1,-4.0362395E-2,3.027126E-1],"categories":[],"categories_nodes":[],"categories_segments":[],"categories_sizes":[],"default_left":[0,0,0,0,0,0,0,0,0,0,0,0,0,0,0,0,0,0,0,0,0,0,0,0,0,0,0,0,0,0,0],"id":20,"left_children":[1,3,5,7,9,11,13,15,17,19,21,23,25,27,29,-1,-1,-1,-1,-1,-1,-1,-1,-1,-1,-1,-1,-1,-1,-1,-1],"loss_changes":[8.239711E2,3.3102295E2,3.6159607E1,1.5363248E2,9.03591E1,5.960022E0,1.4786049E1,2.312089E2,1.4420859E2,3.1147034E1,1.3940308E1,4.0431213E0,1.1380005E0,7.783081E0,1.3145772E1,0E0,0E0,0E0,0E0,0E0,0E0,0E0,0E0,0E0,0E0,0E0,0E0,0E0,0E0,0E0,0E0],"parents":[2147483647,0,0,1,1,2,2,3,3,4,4,5,5,6,6,7,7,8,8,9,9,10,10,11,11,12,12,13,13,14,14],"right_children":[2,4,6,8,10,12,14,16,18,20,22,24,26,28,30,-1,-1,-1,-1,-1,-1,-1,-1,-1,-1,-1,-1,-1,-1,-1,-1],"split_conditions":[4.45E2,5.83E2,3.79E2,2.67E2,3.83E2,4.74E2,5.65E2,1.39E2,3.32E2,5.75E2,1.526E3,5.35E2,5.64E2,3.66E2,1.37E3,-6.87244E-3,8.557976E-2,-1.0715906E-1,5.5928722E-2,-1.1770586E-1,7.870315E-2,-2.918057E-3,1.5270796E-1,-1.16827965E-1,-1.5115556E-1,-1.5868564E-1,-1.22945026E-1,-8.405479E-2,-1.4338708E-1,-4.0362395E-2,3.027126E-1],"split_indices":[164,74,198,146,208,154,43,146,214,42,50,68,35,151,156,0,0,0,0,0,0,0,0,0,0,0,0,0,0,0,0],"split_type":[0,0,0,0,0,0,0,0,0,0,0,0,0,0,0,0,0,0,0,0,0,0,0,0,0,0,0,0,0,0,0],"sum_hessian":[1.9897547E4,1.4986068E4,4.9114775E3,1.1962946E4,3.0231226E3,3.7734058E3,1.1380718E3,9.900034E3,2.0629124E3,2.2685396E3,7.545828E2,1.3171022E3,2.4563035E3,8.525309E2,2.8554092E2,4.3147764E3,5.585258E3,1.2727048E3,7.902074E2,2.1940417E3,7.449779E1,6.99641E2,5.4941875E1,7.494522E2,5.6764996E2,2.353381E3,1.0292246E2,5.249821E2,3.2754877E2,2.761035E2,9.437466E0],"tree_param":{"num_deleted":"0","num_feature":"240","num_nodes":"31","size_leaf_vector":"1"}},{"base_weights":[1.037284E-1,8.620212E-2,3.2747787E-1,6.9219574E-2,3.359445E-1,3.7061232E-1,1.461583E-1,-6.4426824E-3,1.2160396E-1,3.6827767E-1,-3.895172E-2,4.2245248E-1,9.352564E-2,1.3531881E-2,4.1107804E-1,-2.4301019E-2,6.057902E-2,6.207322E-2,3.6575766E-3,1.2100807E-1,1.0998104E-2,-1.4629799E-1,3.1774774E-2,1.1148717E-1,1.5497547E-1,3.7713196E-2,-2.1764787E-1,-8.1331365E-2,4.1544683E-2,1.3279447E-1,-2.2222428E-1],"categories":[],"categories_nodes":[],"categories_segments":[],"categories_sizes":[],"default_left":[0,0,0,0,0,0,0,0,0,0,0,0,0,0,0,0,0,0,0,0,0,0,0,0,0,0,0,0,0,0,0],"id":21,"left_children":[1,3,5,7,9,11,13,15,17,19,21,23,25,27,29,-1,-1,-1,-1,-1,-1,-1,-1,-1,-1,-1,-1,-1,-1,-1,-1],"loss_changes":[1.11131744E2,1.1147357E2,1.6047287E1,9.7566986E1,2.0300415E1,2.3840088E1,1.3953202E1,1.5649095E2,1.3575989E2,1.7910522E1,8.747849E0,6.5071564E0,7.0315723E0,9.490125E0,5.146229E0,0E0,0E0,0E0,0E0,0E0,0E0,0E0,0E0,0E0,0E0,0E0,0E0,0E0,0E0,0E0,0E0],"parents":[2147483647,0,0,1,1,2,2,3,3,4,4,5,5,6,6,7,7,8,8,9,9,10,10,11,11,12,12,13,13,14,14],"right_children":[2,4,6,8,10,12,14,16,18,20,22,24,26,28,30,-1,-1,-1,-1,-1,-1,-1,-1,-1,-1,-1,-1,-1,-1,-1,-1],"split_conditions":[1.229E3,1.197E3,2.67E2,2.73E2,1.066E3,5.95E2,2.8E2,2.15E2,5.56E2,4.92E2,2.68E2,2.52E2,9.13E2,1.69E2,7.97E2,-2.4301019E-2,6.057902E-2,6.207322E-2,3.6575766E-3,1.2100807E-1,1.0998104E-2,-1.4629799E-1,3.1774774E-2,1.1148717E-1,1.5497547E-1,3.7713196E-2,-2.1764787E-1,-8.1331365E-2,4.1544683E-2,1.3279447E-1,-2.2222428E-1],"split_indices":[186,172,224,164,162,166,150,140,68,43,194,158,82,120,93,0,0,0,0,0,0,0,0,0,0,0,0,0,0,0,0],"split_type":[0,0,0,0,0,0,0,0,0,0,0,0,0,0,0,0,0,0,0,0,0,0,0,0,0,0,0,0,0,0,0],"sum_hessian":[2.8345316E4,2.6287598E4,2.0577197E3,2.4615045E4,1.6725522E3,1.6614344E3,3.9628543E2,1.0070471E4,1.4544574E4,1.5397714E3,1.3278087E2,1.3991438E3,2.6229062E2,2.6478003E2,1.3150539E2,7.417076E3,2.6533945E3,8.172061E3,6.372513E3,1.3922643E3,1.4750717E2,3.1828886E1,1.0095199E2,9.117662E2,4.8737762E2,2.5318759E2,9.103013E0,8.041815E1,1.843619E2,1.285964E2,2.9089768E0],"tree_param":{"num_deleted":"0","num_feature":"240","num_nodes":"31","size_leaf_vector":"1"}},{"base_weights":[-8.12526E-2,1.34829E-2,-4.5972472E-1,-1.4608386E-1,1.4577965E-1,-5.0060487E-1,-2.0568113E-1,-2.3188111E-1,1.8348049E-1,2.2667259E-1,-1.20679304E-1,-5.022149E-1,6.1690104E-1,-2.6899225E-1,2.2828417E-1,-1.12470575E-1,-2.5442692E-2,7.439228E-2,-5.0224975E-2,1.4548513E-1,3.7564427E-2,-1.1244449E-1,1.3671068E-2,-1.5220356E-1,-6.9594555E-2,-1.237202E-2,2.4517114E-1,-8.532558E-2,1.1237187E-1,2.1063107E-1,-3.268108E-2],"categories":[],"categories_nodes":[],"categories_segments":[],"categories_sizes":[],"default_left":[0,0,0,0,0,0,0,0,0,0,0,0,0,0,0,0,0,0,0,0,0,0,0,0,0,0,0,0,0,0,0],"id":22,"left_children":[1,3,5,7,9,11,13,15,17,19,21,23,25,27,29,-1,-1,-1,-1,-1,-1,-1,-1,-1,-1,-1,-1,-1,-1,-1,-1],"loss_changes":[6.63337E2,3.1240314E2,3.8362244E1,1.897173E2,1.7441855E2,6.048828E0,1.4213442E1,1.119314E2,3.1411564E1,1.6258453E2,7.9651535E1,4.298828E0,6.97927E-1,4.5737762E0,1.0641284E1,0E0,0E0,0E0,0E0,0E0,0E0,0E0,0E0,0E0,0E0,0E0,0E0,0E0,0E0,0E0,0E0],"parents":[2147483647,0,0,1,1,2,2,3,3,4,4,5,5,6,6,7,7,8,8,9,9,10,10,11,11,12,12,13,13,14,14],"right_children":[2,4,6,8,10,12,14,16,18,20,22,24,26,28,30,-1,-1,-1,-1,-1,-1,-1,-1,-1,-1,-1,-1,-1,-1,-1,-1],"split_conditions":[4.65E2,5.63E2,5.33E2,2.66E2,2.7E2,6.99E2,1.327E3,1.59E2,2.46E2,2.47E2,3.73E2,4.6E2,1.8E2,1.355E3,7.62E2,-1.12470575E-1,-2.5442692E-2,7.439228E-2,-5.0224975E-2,1.4548513E-1,3.7564427E-2,-1.1244449E-1,1.3671068E-2,-1.5220356E-1,-6.9594555E-2,-1.237202E-2,2.4517114E-1,-8.532558E-2,1.1237187E-1,2.1063107E-1,-3.268108E-2],"split_indices":[198,72,166,136,210,159,169,200,220,50,164,97,0,203,179,0,0,0,0,0,0,0,0,0,0,0,0,0,0,0,0],"split_type":[0,0,0,0,0,0,0,0,0,0,0,0,0,0,0,0,0,0,0,0,0,0,0,0,0,0,0,0,0,0,0],"sum_hessian":[1.84995E4,1.4796698E4,3.7028025E3,6.7070435E3,8.0896543E3,3.1887117E3,5.140909E2,5.321869E3,1.3851742E3,6.2058125E3,1.883842E3,3.1846738E3,4.037749E0,4.489708E2,6.512012E1,2.6973113E3,2.624558E3,1.1703593E3,2.14815E2,1.7491865E3,4.456626E3,7.44506E2,1.139336E3,3.1244792E3,6.0194633E1,1.1275812E0,2.9101677E0,4.3900583E2,9.964963E0,2.6626286E1,3.8493835E1],"tree_param":{"num_deleted":"0","num_feature":"240","num_nodes":"31","size_leaf_vector":"1"}},{"base_weights":[-7.647314E-2,1.6130745E-2,-4.59222E-1,7.2786555E-2,-2.7000314E-1,-4.7852778E-1,-2.1158192E-1,1.7771228E-1,-6.500701E-2,-3.5073143E-1,8.222483E-2,-5.0856435E-1,-4.1218114E-1,-2.656652E-1,5.892507E-1,7.419305E-2,-8.752743E-2,-5.3661164E-2,3.036699E-2,-1.2025588E-1,-7.420835E-4,4.66255E-2,-1.1849541E-1,-1.36561E-1,-1.5668052E-1,-6.8373635E-2,-1.3842101E-1,-9.930029E-2,7.055853E-2,4.3242514E-1,1.8685384E-2],"categories":[],"categories_nodes":[],"categories_segments":[],"categories_sizes":[],"default_left":[0,0,0,0,0,0,0,0,0,0,0,0,0,0,0,0,0,0,0,0,0,0,0,0,0,0,0,0,0,0,0],"id":23,"left_children":[1,3,5,7,9,11,13,15,17,19,21,23,25,27,29,-1,-1,-1,-1,-1,-1,-1,-1,-1,-1,-1,-1,-1,-1,-1,-1],"loss_changes":[6.660814E2,2.4533162E2,1.7401428E1,1.8264674E2,7.1151535E1,6.5568237E0,1.1701606E1,2.3439725E2,1.0339046E2,3.5521515E1,1.6379713E1,1.4683228E0,9.540131E0,8.271444E0,7.62225E0,0E0,0E0,0E0,0E0,0E0,0E0,0E0,0E0,0E0,0E0,0E0,0E0,0E0,0E0,0E0,0E0],"parents":[2147483647,0,0,1,1,2,2,3,3,4,4,5,5,6,6,7,7,8,8,9,9,10,10,11,11,12,12,13,13,14,14],"right_children":[2,4,6,8,10,12,14,16,18,20,22,24,26,28,30,-1,-1,-1,-1,-1,-1,-1,-1,-1,-1,-1,-1,-1,-1,-1,-1],"split_conditions":[4.46E2,5.74E2,4.69E2,3.02E2,3.37E2,3.7E2,9.2E2,2.45E2,3.18E2,1.76E2,2.66E2,2.65E2,3.07E2,3.92E2,5.83E2,7.419305E-2,-8.752743E-2,-5.3661164E-2,3.036699E-2,-1.2025588E-1,-7.420835E-4,4.66255E-2,-1.1849541E-1,-1.36561E-1,-1.5668052E-1,-6.8373635E-2,-1.3842101E-1,-9.930029E-2,7.055853E-2,4.3242514E-1,1.8685384E-2],"split_indices":[160,76,199,168,212,194,149,144,214,160,138,154,66,24,177,0,0,0,0,0,0,0,0,0,0,0,0,0,0,0,0],"split_type":[0,0,0,0,0,0,0,0,0,0,0,0,0,0,0,0,0,0,0,0,0,0,0,0,0,0,0,0,0,0,0],"sum_hessian":[1.8791275E4,1.5131302E4,3.6599736E3,1.2631044E4,2.5002583E3,3.394416E3,2.6555783E2,7.170574E3,5.4604697E3,2.0340677E3,4.661906E2,2.332003E3,1.0624131E3,2.4938422E2,1.6173609E1,6.2452095E3,9.2536475E2,3.2406387E3,2.219831E3,1.7780227E3,2.5604507E2,4.047805E2,6.1410133E1,4.8351337E2,1.8484895E3,2.2515378E2,8.372593E2,2.2090672E2,2.8477493E1,5.516867E0,1.0656741E1],"tree_param":{"num_deleted":"0","num_feature":"240","num_nodes":"31","size_leaf_vector":"1"}},{"base_weights":[8.407727E-2,6.921536E-2,3.0406967E-1,5.4600038E-2,2.896226E-1,3.1830257E-1,-3.9005214E-1,3.254585E-2,2.0103438E-1,3.3489594E-1,1.0360206E-1,2.5617012E-1,4.4416875E-1,-5.987292E-1,3.69609E-1,-1.254223E-3,3.7917852E-2,7.33994E-2,-7.547726E-2,1.13417804E-1,-9.521247E-3,2.6479238E-3,1.21807665E-1,1.0719193E-1,4.9147405E-2,1.3900588E-1,-9.701406E-4,-1.9019176E-1,3.4169618E-2,-1.372833E-1,2.8034005E-1],"categories":[],"categories_nodes":[],"categories_segments":[],"categories_sizes":[],"default_left":[0,0,0,0,0,0,0,0,0,0,0,0,0,0,0,0,0,0,0,0,0,0,0,0,0,0,0,0,0,0,0],"id":24,"left_children":[1,3,5,7,9,11,13,15,17,19,21,23,25,27,29,-1,-1,-1,-1,-1,-1,-1,-1,-1,-1,-1,-1,-1,-1,-1,-1],"loss_changes":[9.034335E1,8.338685E1,1.74003E1,7.841187E1,1.352298E1,1.3291306E1,5.8625226E0,7.274205E1,6.2824814E1,2.0494171E1,9.069681E0,1.0681671E1,4.852188E0,7.829466E-1,4.2998624E0,0E0,0E0,0E0,0E0,0E0,0E0,0E0,0E0,0E0,0E0,0E0,0E0,0E0,0E0,0E0,0E0],"parents":[2147483647,0,0,1,1,2,2,3,3,4,4,5,5,6,6,7,7,8,8,9,9,10,10,11,11,12,12,13,13,14,14],"right_children":[2,4,6,8,10,12,14,16,18,20,22,24,26,28,30,-1,-1,-1,-1,-1,-1,-1,-1,-1,-1,-1,-1,-1,-1,-1,-1],"split_conditions":[1.286E3,1.277E3,6.76E2,8.85E2,2.81E2,1.264E3,4.21E2,6.38E2,1.589E3,5.92E2,6.51E2,7.42E2,1.512E3,4.92E2,3.38E2,-1.254223E-3,3.7917852E-2,7.33994E-2,-7.547726E-2,1.13417804E-1,-9.521247E-3,2.6479238E-3,1.21807665E-1,1.0719193E-1,4.9147405E-2,1.3900588E-1,-9.701406E-4,-1.9019176E-1,3.4169618E-2,-1.372833E-1,2.8034005E-1],"split_indices":[68,186,130,166,220,172,177,192,166,165,175,61,166,174,189,0,0,0,0,0,0,0,0,0,0,0,0,0,0,0,0],"split_type":[0,0,0,0,0,0,0,0,0,0,0,0,0,0,0,0,0,0,0,0,0,0,0,0,0,0,0,0,0,0,0],"sum_hessian":[2.7637531E4,2.588982E4,1.7477106E3,2.4280984E4,1.6088368E3,1.7131245E3,3.4585983E1,2.1103805E4,3.1771802E3,1.2932803E3,3.1555658E2,1.1489791E3,5.641455E2,2.7298891E1,7.2870917E0,1.5168598E4,5.9352065E3,2.8982646E3,2.7891547E2,1.1570327E3,1.3624747E2,2.4104527E2,7.451132E1,5.470181E2,6.0196094E2,5.4091583E2,2.322963E1,2.6117607E1,1.1812842E0,3.0338948E0,4.2531967E0],"tree_param":{"num_deleted":"0","num_feature":"240","num_nodes":"31","size_leaf_vector":"1"}},{"base_weights":[-6.628678E-2,1.7858976E-2,-4.4271973E-1,-1.88886E-1,1.2470252E-1,-4.9770406E-1,-1.8721181E-1,-2.8690127E-1,1.709047E-2,2.1059288E-1,-7.011913E-2,-5.034617E-1,-5.2658472E-2,-2.1304327E-1,4.1260326E-1,-1.0161785E-1,2.2227684E-2,-3.4571663E-2,6.1983477E-2,1.20050676E-1,3.7852176E-2,-4.8754577E-2,3.1088235E-2,-1.536395E-1,-1.1145615E-1,2.4582957E-1,-6.970998E-2,-1.0880875E-1,-4.348038E-2,-1.1527105E-1,2.200763E-1],"categories":[],"categories_nodes":[],"categories_segments":[],"categories_sizes":[],"default_left":[0,0,0,0,0,0,0,0,0,0,0,0,0,0,0,0,0,0,0,0,0,0,0,0,0,0,0,0,0,0,0],"id":25,"left_children":[1,3,5,7,9,11,13,15,17,19,21,23,25,27,29,-1,-1,-1,-1,-1,-1,-1,-1,-1,-1,-1,-1,-1,-1,-1,-1],"loss_changes":[5.576193E2,3.17863E2,4.5091248E1,9.898761E1,1.587629E2,6.753845E0,8.937441E0,6.217624E1,3.969296E1,1.05325836E2,4.662829E1,2.7977295E0,5.6619344E0,5.5353756E0,6.4005213E0,0E0,0E0,0E0,0E0,0E0,0E0,0E0,0E0,0E0,0E0,0E0,0E0,0E0,0E0,0E0,0E0],"parents":[2147483647,0,0,1,1,2,2,3,3,4,4,5,5,6,6,7,7,8,8,9,9,10,10,11,11,12,12,13,13,14,14],"right_children":[2,4,6,8,10,12,14,16,18,20,22,24,26,28,30,-1,-1,-1,-1,-1,-1,-1,-1,-1,-1,-1,-1,-1,-1,-1,-1],"split_conditions":[3.94E2,1.39E2,4.94E2,4.77E2,2.99E2,4.4E2,1.512E3,3.04E2,6.03E2,2.54E2,4.66E2,3.27E2,4.33E2,2.07E2,6.9E2,-1.0161785E-1,2.2227684E-2,-3.4571663E-2,6.1983477E-2,1.20050676E-1,3.7852176E-2,-4.8754577E-2,3.1088235E-2,-1.536395E-1,-1.1145615E-1,2.4582957E-1,-6.970998E-2,-1.0880875E-1,-4.348038E-2,-1.1527105E-1,2.200763E-1],"split_indices":[202,202,165,164,202,148,202,142,74,192,151,149,146,143,66,0,0,0,0,0,0,0,0,0,0,0,0,0,0,0,0],"split_type":[0,0,0,0,0,0,0,0,0,0,0,0,0,0,0,0,0,0,0,0,0,0,0,0,0,0,0,0,0,0,0],"sum_hessian":[1.7603018E4,1.4387801E4,3.2152175E3,4.901843E3,9.485958E3,2.645062E3,5.701554E2,3.321088E3,1.5807546E3,6.5834526E3,2.9025054E3,2.6111497E3,3.3912373E1,5.472332E2,2.292217E1,2.904215E3,4.1687286E2,9.3105554E2,6.4969904E2,2.0272361E3,4.5562163E3,1.8948917E3,1.00761365E3,2.4474458E3,1.6370392E2,5.185979E0,2.8726393E1,1.698041E2,3.7742914E2,6.525538E0,1.6396633E1],"tree_param":{"num_deleted":"0","num_feature":"240","num_nodes":"31","size_leaf_vector":"1"}},{"base_weights":[-6.492203E-2,1.5903078E-2,-4.3885383E-1,-1.0601797E-1,1.2526457E-1,-4.6747312E-1,-1.4486001E-1,5.6959357E-2,-2.4780457E-1,2.941129E-1,-3.940473E-4,-5.0105995E-1,-3.9853776E-1,-3.4546122E-1,1.4284323E-1,-7.6599834E-3,1.0919336E-1,-9.7961396E-2,7.566004E-2,1.0696515E-1,-1.3759817E-2,-2.8400745E-2,3.8006846E-2,-1.517084E-1,-9.804473E-2,-8.148484E-2,-1.3904758E-1,-1.2576171E-2,-1.3038324E-1,2.6977637E-1,2.644218E-3],"categories":[],"categories_nodes":[],"categories_segments":[],"categories_sizes":[],"default_left":[0,0,0,0,0,0,0,0,0,0,0,0,0,0,0,0,0,0,0,0,0,0,0,0,0,0,0,0,0,0,0],"id":26,"left_children":[1,3,5,7,9,11,13,15,17,19,21,23,25,27,29,-1,-1,-1,-1,-1,-1,-1,-1,-1,-1,-1,-1,-1,-1,-1,-1],"loss_changes":[5.3855804E2,1.9539012E2,2.6579834E1,1.6013493E2,1.6390071E2,6.4815674E0,1.634791E1,8.167624E1,1.4596516E2,6.998233E1,5.3085396E1,1.398529E0,7.7080536E0,4.4922695E0,1.1825528E1,0E0,0E0,0E0,0E0,0E0,0E0,0E0,0E0,0E0,0E0,0E0,0E0,0E0,0E0,0E0,0E0],"parents":[2147483647,0,0,1,1,2,2,3,3,4,4,5,5,6,6,7,7,8,8,9,9,10,10,11,11,12,12,13,13,14,14],"right_children":[2,4,6,8,10,12,14,16,18,20,22,24,26,28,30,-1,-1,-1,-1,-1,-1,-1,-1,-1,-1,-1,-1,-1,-1,-1,-1],"split_conditions":[4.22E2,4.64E2,4.69E2,1.37E2,2.73E2,3.62E2,4.45E2,2.29E2,3.3E2,2.82E2,2.08E2,1.368E3,4.53E2,1.79E2,1.63E2,-7.6599834E-3,1.0919336E-1,-9.7961396E-2,7.566004E-2,1.0696515E-1,-1.3759817E-2,-2.8400745E-2,3.8006846E-2,-1.517084E-1,-9.804473E-2,-8.148484E-2,-1.3904758E-1,-1.2576171E-2,-1.3038324E-1,2.6977637E-1,2.644218E-3],"split_indices":[158,200,199,212,166,194,38,230,214,90,110,170,74,230,232,0,0,0,0,0,0,0,0,0,0,0,0,0,0,0,0],"split_type":[0,0,0,0,0,0,0,0,0,0,0,0,0,0,0,0,0,0,0,0,0,0,0,0,0,0,0,0,0,0,0],"sum_hessian":[1.7818201E4,1.4652114E4,3.166087E3,6.928238E3,7.723876E3,2.8846829E3,2.8140408E2,3.2235312E3,3.7047063E3,3.2950098E3,4.4288667E3,1.9354298E3,9.49253E2,1.656817E2,1.1572239E2,2.5415583E3,6.819731E2,3.2010059E3,5.0370053E2,2.7837258E3,5.1128394E2,2.5427893E3,1.886077E3,1.883431E3,5.1998802E1,3.23097E2,6.26156E2,3.794726E1,1.2773444E2,1.6559166E1,9.916322E1],"tree_param":{"num_deleted":"0","num_feature":"240","num_nodes":"31","size_leaf_vector":"1"}},{"base_weights":[6.873542E-2,5.751233E-2,2.908137E-1,1.08963266E-1,6.5932823E-3,3.514106E-1,9.4777174E-2,1.2859337E-1,-1.8927905E-1,-4.675692E-2,1.0139753E-1,2.4853258E-1,4.3162602E-1,-1.8052045E-1,2.3464556E-1,5.4794E-3,5.7992067E-2,-1.1336868E-1,9.930983E-3,-6.4978614E-2,-3.4214875E-3,3.4006797E-2,-1.3041024E-1,1.4199328E-1,3.587212E-2,1.4673136E-1,7.780967E-2,4.1866127E-2,-1.11899406E-1,9.9535845E-2,-5.8451876E-2],"categories":[],"categories_nodes":[],"categories_segments":[],"categories_sizes":[],"default_left":[0,0,0,0,0,0,0,0,0,0,0,0,0,0,0,0,0,0,0,0,0,0,0,0,0,0,0,0,0,0,0],"id":27,"left_children":[1,3,5,7,9,11,13,15,17,19,21,23,25,27,29,-1,-1,-1,-1,-1,-1,-1,-1,-1,-1,-1,-1,-1,-1,-1,-1],"loss_changes":[6.713763E1,6.7194626E1,1.5360847E1,7.471443E1,6.521051E1,8.058746E0,1.1877313E1,8.5462326E1,3.307563E1,4.953351E1,2.9813347E1,1.2578421E1,5.364876E0,6.466174E0,8.585821E0,0E0,0E0,0E0,0E0,0E0,0E0,0E0,0E0,0E0,0E0,0E0,0E0,0E0,0E0,0E0,0E0],"parents":[2147483647,0,0,1,1,2,2,3,3,4,4,5,5,6,6,7,7,8,8,9,9,10,10,11,11,12,12,13,13,14,14],"right_children":[2,4,6,8,10,12,14,16,18,20,22,24,26,28,30,-1,-1,-1,-1,-1,-1,-1,-1,-1,-1,-1,-1,-1,-1,-1,-1],"split_conditions":[1.375E3,4.87E2,4.81E2,2.94E2,5.34E2,2.71E2,3.23E2,1.74E2,1.62E2,2.9E2,1.658E3,2.21E2,3.68E2,2E2,1.636E3,5.4794E-3,5.7992067E-2,-1.1336868E-1,9.930983E-3,-6.4978614E-2,-3.4214875E-3,3.4006797E-2,-1.3041024E-1,1.4199328E-1,3.587212E-2,1.4673136E-1,7.780967E-2,4.1866127E-2,-1.11899406E-1,9.9535845E-2,-5.8451876E-2],"split_indices":[66,58,154,226,184,210,186,94,36,50,44,94,208,96,68,0,0,0,0,0,0,0,0,0,0,0,0,0,0,0,0],"split_type":[0,0,0,0,0,0,0,0,0,0,0,0,0,0,0,0,0,0,0,0,0,0,0,0,0,0,0,0,0,0,0],"sum_hessian":[2.6942605E4,2.5647717E4,1.2948904E3,1.2756662E4,1.2891054E4,9.885323E2,3.0635803E2,1.1969413E4,7.8724963E2,8.249328E3,4.6417256E3,4.3488327E2,5.53649E2,1.03113335E2,2.0324469E2,4.4255933E3,7.5438193E3,4.2558484E2,3.616648E2,1.4203817E3,6.828947E3,4.541216E3,1.0050988E2,1.575681E2,2.773152E2,4.1375214E2,1.3989688E2,3.8825203E1,6.428813E1,1.6594E2,3.7304684E1],"tree_param":{"num_deleted":"0","num_feature":"240","num_nodes":"31","size_leaf_vector":"1"}},{"base_weights":[-5.565863E-2,1.7280757E-2,-4.2025703E-1,-1.8211612E-1,9.9674135E-2,-4.8313016E-1,-1.5537965E-1,-2.240562E-1,2.97317E-1,3.5069627E-1,3.76422E-2,-4.932623E-1,-1.9420521E-1,-2.37877E-1,-1.1137272E-3,-4.427937E-2,-1.3478144E-1,1.3327537E-1,-6.2437326E-2,1.393988E-1,1.843503E-2,-3.1545866E-2,3.767965E-2,-1.4927986E-1,-6.015609E-2,1.0408596E-1,-1.1335437E-1,-7.7735715E-2,1.448851E-1,-7.063409E-2,5.7357464E-2],"categories":[],"categories_nodes":[],"categories_segments":[],"categories_sizes":[],"default_left":[0,0,0,0,0,0,0,0,0,0,0,0,0,0,0,0,0,0,0,0,0,0,0,0,0,0,0,0,0,0,0],"id":28,"left_children":[1,3,5,7,9,11,13,15,17,19,21,23,25,27,29,-1,-1,-1,-1,-1,-1,-1,-1,-1,-1,-1,-1,-1,-1,-1,-1],"loss_changes":[4.4491623E2,2.2907014E2,4.6371887E1,8.204224E1,1.5361523E2,6.5010986E0,6.827423E0,6.44984E1,2.4480137E1,6.441177E1,9.93889E1,2.6638184E0,7.8825607E0,5.4774437E0,8.514213E0,0E0,0E0,0E0,0E0,0E0,0E0,0E0,0E0,0E0,0E0,0E0,0E0,0E0,0E0,0E0,0E0],"parents":[2147483647,0,0,1,1,2,2,3,3,4,4,5,5,6,6,7,7,8,8,9,9,10,10,11,11,12,12,13,13,14,14],"right_children":[2,4,6,8,10,12,14,16,18,20,22,24,26,28,30,-1,-1,-1,-1,-1,-1,-1,-1,-1,-1,-1,-1,-1,-1,-1,-1],"split_conditions":[3.94E2,1.38E2,4.94E2,2.96E2,2.16E2,3.23E2,8.45E2,4.47E2,2.58E2,2.32E2,2.03E2,6.26E2,4.37E2,1.43E3,2.6E2,-4.427937E-2,-1.3478144E-1,1.3327537E-1,-6.2437326E-2,1.393988E-1,1.843503E-2,-3.1545866E-2,3.767965E-2,-1.4927986E-1,-6.015609E-2,1.0408596E-1,-1.1335437E-1,-7.7735715E-2,1.448851E-1,-7.063409E-2,5.7357464E-2],"split_indices":[202,204,165,132,204,138,163,40,210,113,32,97,52,84,147,0,0,0,0,0,0,0,0,0,0,0,0,0,0,0,0],"split_type":[0,0,0,0,0,0,0,0,0,0,0,0,0,0,0,0,0,0,0,0,0,0,0,0,0,0,0,0,0,0,0],"sum_hessian":[1.6728936E4,1.3940946E4,2.78799E3,4.0758752E3,9.86507E3,2.2524976E3,5.3549243E2,3.748495E3,3.273799E2,1.9538503E3,7.91122E3,2.1754993E3,7.699842E1,3.4855328E2,1.8693912E2,2.7996855E3,9.4880975E2,2.537381E2,7.364182E1,1.4011675E3,5.5268286E2,3.0154795E3,4.8957407E3,2.143048E3,3.245106E1,1.9283752E1,5.771467E1,3.39198E2,9.355286E0,8.41608E1,1.0277832E2],"tree_param":{"num_deleted":"0","num_feature":"240","num_nodes":"31","size_leaf_vector":"1"}},{"base_weights":[-5.423357E-2,2.099889E-2,-3.9649358E-1,-9.581937E-2,1.6326791E-1,-4.621978E-1,-8.745727E-2,-2.1234675E-1,8.5083544E-2,4.7464493E-1,4.1766286E-2,-4.964058E-1,-3.8176835E-1,-3.2434902E-1,1.9549851E-1,-7.92429E-2,3.8989633E-2,5.0224025E-2,-8.7228835E-2,1.7093046E-1,5.9810225E-2,-2.6049787E-2,4.7788125E-2,-1.5054333E-1,-5.405099E-2,-4.7052287E-2,-1.2506838E-1,-1.2434159E-1,-3.9854046E-2,1.1486744E-1,-2.871472E-2],"categories":[],"categories_nodes":[],"categories_segments":[],"categories_sizes":[],"default_left":[0,0,0,0,0,0,0,0,0,0,0,0,0,0,0,0,0,0,0,0,0,0,0,0,0,0,0,0,0,0,0],"id":29,"left_children":[1,3,5,7,9,11,13,15,17,19,21,23,25,27,29,-1,-1,-1,-1,-1,-1,-1,-1,-1,-1,-1,-1,-1,-1,-1,-1],"loss_changes":[4.371936E2,2.3136185E2,6.2085175E1,1.6116235E2,2.3744545E2,6.751953E0,3.610437E1,8.2476395E1,9.274348E1,4.6016174E1,6.8268745E1,2.929535E0,5.9169846E0,5.002451E0,1.3441813E1,0E0,0E0,0E0,0E0,0E0,0E0,0E0,0E0,0E0,0E0,0E0,0E0,0E0,0E0,0E0,0E0],"parents":[2147483647,0,0,1,1,2,2,3,3,4,4,5,5,6,6,7,7,8,8,9,9,10,10,11,11,12,12,13,13,14,14],"right_children":[2,4,6,8,10,12,14,16,18,20,22,24,26,28,30,-1,-1,-1,-1,-1,-1,-1,-1,-1,-1,-1,-1,-1,-1,-1,-1],"split_conditions":[3.57E2,1.52E2,4.48E2,5.55E2,2.23E2,3.7E2,4.57E2,2.93E2,2E2,2.76E2,1.98E2,3.43E2,1.6E2,7.76E2,6.14E2,-7.92429E-2,3.8989633E-2,5.0224025E-2,-8.7228835E-2,1.7093046E-1,5.9810225E-2,-2.6049787E-2,4.7788125E-2,-1.5054333E-1,-5.405099E-2,-4.7052287E-2,-1.2506838E-1,-1.2434159E-1,-3.9854046E-2,1.1486744E-1,-2.871472E-2],"split_indices":[154,154,199,42,154,194,38,218,140,170,116,211,2,55,179,0,0,0,0,0,0,0,0,0,0,0,0,0,0,0,0],"split_type":[0,0,0,0,0,0,0,0,0,0,0,0,0,0,0,0,0,0,0,0,0,0,0,0,0,0,0,0,0,0,0],"sum_hessian":[1.6977688E4,1.3919065E4,3.0586228E3,7.643364E3,6.2757017E3,2.5219377E3,5.366849E2,4.6487373E3,2.9946265E3,1.7606664E3,4.515035E3,1.7657587E3,7.561792E2,2.920408E2,2.4464407E2,4.037969E3,6.107682E2,2.4569758E3,5.3765076E2,1.3077114E3,4.529549E2,2.156093E3,2.3589424E3,1.7355076E3,3.0251123E1,1.02877655E2,6.533015E2,1.9779303E2,9.424778E1,1.4866504E2,9.597903E1],"tree_param":{"num_deleted":"0","num_feature":"240","num_nodes":"31","size_leaf_vector":"1"}},{"base_weights":[5.6057304E-2,6.152716E-2,-3.7765098E-1,1.2642318E-1,2.8832925E-2,-5.319669E-1,-3.805996E-2,2.9838672E-2,2.0258693E-1,-7.11803E-2,6.644557E-2,-5.824482E-1,1.145912E-1,-1.8549822E-1,5.734533E-1,1.4097374E-2,-1.8331464E-1,6.7095086E-2,-3.0708574E-2,-6.1462928E-2,-1.6534347E-3,4.8539326E-2,9.893381E-3,-1.9061814E-1,-1.5025203E-2,1.6972417E-1,-9.2202425E-2,1.6686809E-1,-1.0246314E-1,-5.7952594E-2,2.2479784E-1],"categories":[],"categories_nodes":[],"categories_segments":[],"categories_sizes":[],"default_left":[0,0,0,0,0,0,0,0,0,0,0,0,0,0,0,0,0,0,0,0,0,0,0,0,0,0,0,0,0,0,0],"id":30,"left_children":[1,3,5,7,9,11,13,15,17,19,21,23,25,27,29,-1,-1,-1,-1,-1,-1,-1,-1,-1,-1,-1,-1,-1,-1,-1,-1],"loss_changes":[6.251217E1,5.5190147E1,1.7179306E1,6.410115E1,6.5083046E1,7.429661E0,9.449013E0,4.2278942E1,3.1318497E1,4.1513523E1,4.0116035E1,5.870781E0,3.4429035E0,9.941049E0,2.8918524E0,0E0,0E0,0E0,0E0,0E0,0E0,0E0,0E0,0E0,0E0,0E0,0E0,0E0,0E0,0E0,0E0],"parents":[2147483647,0,0,1,1,2,2,3,3,4,4,5,5,6,6,7,7,8,8,9,9,10,10,11,11,12,12,13,13,14,14],"right_children":[2,4,6,8,10,12,14,16,18,20,22,24,26,28,30,-1,-1,-1,-1,-1,-1,-1,-1,-1,-1,-1,-1,-1,-1,-1,-1],"split_conditions":[1.608E3,1.7E2,7.47E2,1.82E2,1.7E2,4.19E2,9.58E2,1.564E3,3.2E2,1.35E2,2.24E2,5.05E2,3.3E2,1.8E2,3.57E2,1.4097374E-2,-1.8331464E-1,6.7095086E-2,-3.0708574E-2,-6.1462928E-2,-1.6534347E-3,4.8539326E-2,9.893381E-3,-1.9061814E-1,-1.5025203E-2,1.6972417E-1,-9.2202425E-2,1.6686809E-1,-1.0246314E-1,-5.7952594E-2,2.2479784E-1],"split_indices":[158,82,174,92,132,42,90,76,217,18,180,95,148,102,189,0,0,0,0,0,0,0,0,0,0,0,0,0,0,0,0],"split_type":[0,0,0,0,0,0,0,0,0,0,0,0,0,0,0,0,0,0,0,0,0,0,0,0,0,0,0,0,0,0,0],"sum_hessian":[2.6339836E4,2.6012627E4,3.272087E2,8.713669E3,1.7298957E4,2.2458635E2,1.0262236E2,3.8424224E3,4.8712466E3,4.7274976E3,1.2571461E4,2.0841325E2,1.6173096E1,8.324767E1,1.9374685E1,3.7431677E3,9.925465E1,4.5567695E3,3.1447726E2,1.5564926E3,3.1710046E3,3.2650933E3,9.306367E3,1.8938469E2,1.9028557E1,7.6511617E0,8.5219345E0,1.4023902E1,6.922377E1,3.597001E0,1.5777685E1],"tree_param":{"num_deleted":"0","num_feature":"240","num_nodes":"31","size_leaf_vector":"1"}},{"base_weights":[-4.597898E-2,1.427748E-2,-4.2335013E-1,-1.6793807E-1,8.955266E-2,-4.8369026E-1,-1.467347E-1,-1.0221143E-1,-4.5426282E-1,1.4645608E-1,-1.2718825E-1,-4.9589324E-1,-3.0203596E-1,-2.3280261E-1,8.833017E-2,-5.114118E-2,5.7626713E-2,-1.3978578E-1,1.5902396E-1,9.650268E-2,2.6592596E-2,-6.687277E-2,1.3940844E-2,-1.5051578E-1,-4.46066E-2,-1.04930095E-1,1.923671E-1,-6.268153E-3,-9.591931E-2,-3.5107333E-2,1.0503554E-1],"categories":[],"categories_nodes":[],"categories_segments":[],"categories_sizes":[],"default_left":[0,0,0,0,0,0,0,0,0,0,0,0,0,0,0,0,0,0,0,0,0,0,0,0,0,0,0,0,0,0,0],"id":31,"left_children":[1,3,5,7,9,11,13,15,17,19,21,23,25,27,29,-1,-1,-1,-1,-1,-1,-1,-1,-1,-1,-1,-1,-1,-1,-1,-1],"loss_changes":[3.6463388E2,1.8968959E2,3.6781403E1,7.603869E1,1.207177E2,3.867096E0,8.048785E0,6.611343E1,8.92897E0,7.8498886E1,3.384737E1,3.3570251E0,5.475132E0,5.3490076E0,5.7973843E0,0E0,0E0,0E0,0E0,0E0,0E0,0E0,0E0,0E0,0E0,0E0,0E0,0E0,0E0,0E0,0E0],"parents":[2147483647,0,0,1,1,2,2,3,3,4,4,5,5,6,6,7,7,8,8,9,9,10,10,11,11,12,12,13,13,14,14],"right_children":[2,4,6,8,10,12,14,16,18,20,22,24,26,28,30,-1,-1,-1,-1,-1,-1,-1,-1,-1,-1,-1,-1,-1,-1,-1,-1],"split_conditions":[3.94E2,1.38E2,4.9E2,2.38E2,3.08E2,3.33E2,1.052E3,2.6E2,3.19E2,1.29E2,5.49E2,6.26E2,8.08E2,1.89E2,7E2,-5.114118E-2,5.7626713E-2,-1.3978578E-1,1.5902396E-1,9.650268E-2,2.6592596E-2,-6.687277E-2,1.3940844E-2,-1.5051578E-1,-4.46066E-2,-1.04930095E-1,1.923671E-1,-6.268153E-3,-9.591931E-2,-3.5107333E-2,1.0503554E-1],"split_indices":[204,204,165,222,204,149,169,134,130,128,155,97,166,98,161,0,0,0,0,0,0,0,0,0,0,0,0,0,0,0,0],"split_type":[0,0,0,0,0,0,0,0,0,0,0,0,0,0,0,0,0,0,0,0,0,0,0,0,0,0,0,0,0,0,0],"sum_hessian":[1.6034314E4,1.3827397E4,2.2069172E3,4.04196E3,9.7854375E3,1.8111002E3,3.9581708E2,3.2884453E3,7.5351465E2,7.7508457E3,2.0345919E3,1.6954735E3,1.1562672E2,2.897398E2,1.06077255E2,2.6696707E3,6.1877454E2,7.4519165E2,8.323033E0,1.9218014E3,5.8290444E3,1.3114376E3,7.231543E2,1.6670559E3,2.8417645E1,1.1065645E2,4.9702663E0,8.464291E1,2.0509691E2,5.97559E1,4.632135E1],"tree_param":{"num_deleted":"0","num_feature":"240","num_nodes":"31","size_leaf_vector":"1"}},{"base_weights":[-4.553545E-2,1.6253456E-2,-4.0197116E-1,4.852719E-2,-2.9259226E-1,-4.587642E-1,-2.7730566E-1,-7.5136535E-2,1.2301999E-1,-3.7929899E-1,6.389273E-2,-4.0895566E-1,-5.0192904E-1,-3.1109545E-2,-3.3820653E-1,-4.0106155E-2,5.7674926E-2,6.604182E-2,6.5999315E-4,-1.2155386E-1,9.512054E-2,-8.9455985E-2,7.1895964E-2,-1.270682E-1,3.6146564E-3,-1.5276508E-1,-7.768127E-2,1.10796355E-1,-5.0995465E-2,-1.04189366E-1,4.022527E-1],"categories":[],"categories_nodes":[],"categories_segments":[],"categories_sizes":[],"default_left":[0,0,0,0,0,0,0,0,0,0,0,0,0,0,0,0,0,0,0,0,0,0,0,0,0,0,0,0,0,0,0],"id":32,"left_children":[1,3,5,7,9,11,13,15,17,19,21,23,25,27,29,-1,-1,-1,-1,-1,-1,-1,-1,-1,-1,-1,-1,-1,-1,-1,-1],"loss_changes":[3.5758218E2,1.379474E2,1.6856262E1,1.15434135E2,4.0496918E1,3.3345642E0,1.1283966E1,7.377821E1,9.175728E1,1.9112518E1,1.6428423E1,4.738449E0,1.4223785E0,8.431367E0,9.682602E0,0E0,0E0,0E0,0E0,0E0,0E0,0E0,0E0,0E0,0E0,0E0,0E0,0E0,0E0,0E0,0E0],"parents":[2147483647,0,0,1,1,2,2,3,3,4,4,5,5,6,6,7,7,8,8,9,9,10,10,11,11,12,12,13,13,14,14],"right_children":[2,4,6,8,10,12,14,16,18,20,22,24,26,28,30,-1,-1,-1,-1,-1,-1,-1,-1,-1,-1,-1,-1,-1,-1,-1,-1],"split_conditions":[4.56E2,6.86E2,3.93E2,1.7E2,1.76E2,5.6E2,1.71E2,3E2,2.73E2,1.135E3,6.23E2,3.3E2,1.368E3,2.13E2,1.374E3,-4.0106155E-2,5.7674926E-2,6.604182E-2,6.5999315E-4,-1.2155386E-1,9.512054E-2,-8.9455985E-2,7.1895964E-2,-1.270682E-1,3.6146564E-3,-1.5276508E-1,-7.768127E-2,1.10796355E-1,-5.0995465E-2,-1.04189366E-1,4.022527E-1],"split_indices":[160,82,194,82,160,70,8,218,164,202,188,14,170,140,17,0,0,0,0,0,0,0,0,0,0,0,0,0,0,0,0],"split_type":[0,0,0,0,0,0,0,0,0,0,0,0,0,0,0,0,0,0,0,0,0,0,0,0,0,0,0,0,0,0,0],"sum_hessian":[1.62348955E4,1.383715E4,2.3977456E3,1.2528764E4,1.3083867E3,1.645456E3,7.522895E2,4.7099233E3,7.81884E3,1.0523604E3,2.5602637E2,7.6880035E2,8.766557E2,1.4948724E2,6.0280225E2,3.8642524E3,8.456709E2,4.334108E3,3.4847317E3,1.015054E3,3.7306396E1,8.343915E1,1.7258723E2,7.430183E2,2.5782028E1,8.5006476E2,2.6590965E1,3.806678E1,1.1142046E2,6.003448E2,2.4574573E0],"tree_param":{"num_deleted":"0","num_feature":"240","num_nodes":"31","size_leaf_vector":"1"}},{"base_weights":[4.5933522E-2,5.1752802E-2,-2.835407E-1,4.2296045E-2,2.471557E-1,-4.9066436E-1,1.4606668E-1,4.588047E-2,-4.795006E-1,2.7945155E-1,-1.6358128E-1,-5.718774E-1,1.4743644E-1,3.392026E-1,-1.6277215E-1,1.6298179E-2,-5.2736E-2,-2.0006041E-1,-1.3306289E-2,8.678045E-2,-1.7322265E-1,-1.3067004E-1,1.0317237E-1,-1.3084759E-1,-2.2973937E-1,4.9337384E-4,2.8145292E-1,1.5468724E-1,1.4730632E-2,1.1112579E-1,-1.02267556E-1],"categories":[],"categories_nodes":[],"categories_segments":[],"categories_sizes":[],"default_left":[0,0,0,0,0,0,0,0,0,0,0,0,0,0,0,0,0,0,0,0,0,0,0,0,0,0,0,0,0,0,0],"id":33,"left_children":[1,3,5,7,9,11,13,15,17,19,21,23,25,27,29,-1,-1,-1,-1,-1,-1,-1,-1,-1,-1,-1,-1,-1,-1,-1,-1],"loss_changes":[4.9700245E1,4.7046455E1,4.0106148E1,4.5454586E1,1.5636597E1,1.5827469E1,8.830921E0,4.5182926E1,1.34895935E1,9.335716E0,1.2063002E1,6.764076E0,4.044241E0,4.624008E0,5.5665016E0,0E0,0E0,0E0,0E0,0E0,0E0,0E0,0E0,0E0,0E0,0E0,0E0,0E0,0E0,0E0,0E0],"parents":[2147483647,0,0,1,1,2,2,3,3,4,4,5,5,6,6,7,7,8,8,9,9,10,10,11,11,12,12,13,13,14,14],"right_children":[2,4,6,8,10,12,14,16,18,20,22,24,26,28,30,-1,-1,-1,-1,-1,-1,-1,-1,-1,-1,-1,-1,-1,-1,-1,-1],"split_conditions":[1.438E3,1.264E3,8.94E2,1.729E3,1.504E3,2.61E2,3.14E2,6.47E2,1.89E2,1.486E3,2.97E2,6.24E2,4.76E2,6.89E2,4.24E2,1.6298179E-2,-5.2736E-2,-2.0006041E-1,-1.3306289E-2,8.678045E-2,-1.7322265E-1,-1.3067004E-1,1.0317237E-1,-1.3084759E-1,-2.2973937E-1,4.9337384E-4,2.8145292E-1,1.5468724E-1,1.4730632E-2,1.1112579E-1,-1.02267556E-1],"split_indices":[202,172,190,42,164,14,76,136,131,196,92,54,214,55,48,0,0,0,0,0,0,0,0,0,0,0,0,0,0,0,0],"split_type":[0,0,0,0,0,0,0,0,0,0,0,0,0,0,0,0,0,0,0,0,0,0,0,0,0,0,0,0,0,0,0],"sum_hessian":[2.5913305E4,2.5464387E4,4.4891736E2,2.4290057E4,1.17433E3,3.0279214E2,1.4612524E2,2.4125244E4,1.6481378E2,1.0890209E3,8.530901E1,2.686979E2,3.4094227E1,8.984273E1,5.628251E1,2.3240406E4,8.848377E2,1.1483502E2,4.997875E1,1.0773407E3,1.168017E1,5.5634037E1,2.9674978E1,1.5998123E2,1.0871668E2,2.963279E1,4.4614353E0,5.5384098E1,3.4458633E1,1.382338E1,4.245913E1],"tree_param":{"num_deleted":"0","num_feature":"240","num_nodes":"31","size_leaf_vector":"1"}},{"base_weights":[-3.866022E-2,1.4921667E-2,-4.0232134E-1,-9.742107E-2,1.0142331E-1,-4.6001947E-1,-1.535491E-1,-1.7303851E-1,1.5254517E-1,3.369658E-1,3.816334E-2,-4.666865E-1,-3.7198693E-2,-2.2626315E-1,2.620838E-1,1.4562904E-3,-7.942296E-2,1.0483317E-1,2.0199297E-2,1.2513486E-1,-3.5379842E-2,-1.3416686E-2,5.420846E-2,-1.4956321E-1,-1.1419238E-1,2.2491202E-1,-8.845833E-2,-7.982613E-2,2.9081507E-2,4.8135284E-2,4.5724648E-1],"categories":[],"categories_nodes":[],"categories_segments":[],"categories_sizes":[],"default_left":[0,0,0,0,0,0,0,0,0,0,0,0,0,0,0,0,0,0,0,0,0,0,0,0,0,0,0,0,0,0,0],"id":34,"left_children":[1,3,5,7,9,11,13,15,17,19,21,23,25,27,29,-1,-1,-1,-1,-1,-1,-1,-1,-1,-1,-1,-1,-1,-1,-1,-1],"loss_changes":[3.0107208E2,1.3088443E2,2.8409851E1,1.1077492E2,1.1336904E2,4.5215454E0,1.139444E1,7.339325E1,2.2817636E1,5.8781326E1,7.0884605E1,4.1551514E0,5.5091305E0,4.1413403E0,6.9780664E0,0E0,0E0,0E0,0E0,0E0,0E0,0E0,0E0,0E0,0E0,0E0,0E0,0E0,0E0,0E0,0E0],"parents":[2147483647,0,0,1,1,2,2,3,3,4,4,5,5,6,6,7,7,8,8,9,9,10,10,11,11,12,12,13,13,14,14],"right_children":[2,4,6,8,10,12,14,16,18,20,22,24,26,28,30,-1,-1,-1,-1,-1,-1,-1,-1,-1,-1,-1,-1,-1,-1,-1,-1],"split_conditions":[4.64E2,5.64E2,5.29E2,2.64E2,2.61E2,4.58E2,1.25E3,1.46E2,1.59E2,1.271E3,2.37E2,5.2E2,4.84E2,1.327E3,1.001E3,1.4562904E-3,-7.942296E-2,1.0483317E-1,2.0199297E-2,1.2513486E-1,-3.5379842E-2,-1.3416686E-2,5.420846E-2,-1.4956321E-1,-1.1419238E-1,2.2491202E-1,-8.845833E-2,-7.982613E-2,2.9081507E-2,4.8135284E-2,4.5724648E-1],"split_indices":[200,70,168,136,52,154,176,94,157,68,18,178,190,169,94,0,0,0,0,0,0,0,0,0,0,0,0,0,0,0,0],"split_type":[0,0,0,0,0,0,0,0,0,0,0,0,0,0,0,0,0,0,0,0,0,0,0,0,0,0,0,0,0,0,0],"sum_hessian":[1.5449656E4,1.3466465E4,1.9831921E3,5.858151E3,7.608314E3,1.6091339E3,3.7405823E2,4.4978203E3,1.3603304E3,1.6098528E3,5.998461E3,1.584053E3,2.508097E1,3.1874936E2,5.530886E1,1.530274E3,2.9675461E3,4.099608E2,9.503697E2,1.3687673E3,2.4108539E2,3.7932678E3,2.2051934E3,1.1525405E3,4.3151236E2,5.715645E0,1.9365326E1,2.8393982E2,3.4809517E1,5.2229984E1,3.078876E0],"tree_param":{"num_deleted":"0","num_feature":"240","num_nodes":"31","size_leaf_vector":"1"}},{"base_weights":[-3.7742063E-2,1.6555218E-2,-3.8225615E-1,-1.2353804E-1,9.745766E-2,-4.3985975E-1,-3.0357962E-2,-1.834286E-1,1.5557247E-1,3.0071613E-1,-1.7152E-2,-4.829119E-1,-3.400915E-1,-3.1158692E-1,2.284403E-1,-8.534406E-2,-1.5501856E-2,9.330974E-2,-3.2886095E-2,1.2738752E-1,7.0974985E-3,-5.7403345E-2,1.9716717E-2,-1.4660826E-1,-8.894539E-2,-4.8348065E-2,-1.2412667E-1,-1.0842993E-1,9.634291E-2,5.0495487E-2,3.4414995E-1],"categories":[],"categories_nodes":[],"categories_segments":[],"categories_sizes":[],"default_left":[0,0,0,0,0,0,0,0,0,0,0,0,0,0,0,0,0,0,0,0,0,0,0,0,0,0,0,0,0,0,0],"id":35,"left_children":[1,3,5,7,9,11,13,15,17,19,21,23,25,27,29,-1,-1,-1,-1,-1,-1,-1,-1,-1,-1,-1,-1,-1,-1,-1,-1],"loss_changes":[2.9392084E2,1.538576E2,4.3349854E1,8.3101E1,2.0046973E2,7.731415E0,2.2050669E1,5.4468033E1,3.625235E1,1.0650781E2,7.9462555E1,1.2367554E0,7.2816315E0,4.693904E0,8.525589E0,0E0,0E0,0E0,0E0,0E0,0E0,0E0,0E0,0E0,0E0,0E0,0E0,0E0,0E0,0E0,0E0],"parents":[2147483647,0,0,1,1,2,2,3,3,4,4,5,5,6,6,7,7,8,8,9,9,10,10,11,11,12,12,13,13,14,14],"right_children":[2,4,6,8,10,12,14,16,18,20,22,24,26,28,30,-1,-1,-1,-1,-1,-1,-1,-1,-1,-1,-1,-1,-1,-1,-1,-1],"split_conditions":[3.83E2,1.38E2,4.69E2,2.63E2,2.05E2,3.72E2,4.45E2,4.07E2,1.75E2,2.64E2,1.52E2,3.49E2,3.38E2,8.82E2,1.229E3,-8.534406E-2,-1.5501856E-2,9.330974E-2,-3.2886095E-2,1.2738752E-1,7.0974985E-3,-5.7403345E-2,1.9716717E-2,-1.4660826E-1,-8.894539E-2,-4.8348065E-2,-1.2412667E-1,-1.0842993E-1,9.634291E-2,5.0495487E-2,3.4414995E-1],"split_indices":[154,144,199,222,144,193,38,196,128,166,154,16,76,145,187,0,0,0,0,0,0,0,0,0,0,0,0,0,0,0,0],"split_type":[0,0,0,0,0,0,0,0,0,0,0,0,0,0,0,0,0,0,0,0,0,0,0,0,0,0,0,0,0,0,0],"sum_hessian":[1.5711163E4,1.3572945E4,2.1382175E3,4.968612E3,8.604334E3,1.8372251E3,3.0099258E2,4.0911003E3,8.7751117E2,3.1017693E3,5.5025645E3,1.2807241E3,5.565009E2,1.4414749E2,1.568451E2,2.3146748E3,1.7764257E3,5.531018E2,3.244094E2,2.1428757E3,9.5889355E2,1.77352E3,3.7290444E3,1.2406234E3,4.0100723E1,1.6322134E2,3.9327954E2,1.3401836E2,1.0129132E1,1.4832202E2,8.523074E0],"tree_param":{"num_deleted":"0","num_feature":"240","num_nodes":"31","size_leaf_vector":"1"}},{"base_weights":[3.763338E-2,4.2305518E-2,-3.4077036E-1,-4.7662333E-2,6.069066E-2,-4.71621E-1,-6.6082655E-3,-6.978906E-2,2.762025E-1,1.2975124E-1,2.782167E-2,-5.233632E-1,1.4845912E-1,-1.4563784E-1,5.6913644E-1,5.8521875E-3,-4.8956543E-2,9.05665E-2,-2.0180732E-1,4.9712963E-2,-2.1232031E-2,-3.779904E-3,2.6936103E-2,-1.7444044E-1,7.31492E-5,1.2654182E-1,-1.5627547E-1,6.2598854E-2,-1.2269189E-1,-7.322081E-2,2.1164241E-1],"categories":[],"categories_nodes":[],"categories_segments":[],"categories_sizes":[],"default_left":[0,0,0,0,0,0,0,0,0,0,0,0,0,0,0,0,0,0,0,0,0,0,0,0,0,0,0,0,0,0,0],"id":36,"left_children":[1,3,5,7,9,11,13,15,17,19,21,23,25,27,29,-1,-1,-1,-1,-1,-1,-1,-1,-1,-1,-1,-1,-1,-1,-1,-1],"loss_changes":[4.5112125E1,4.1682533E1,1.3605106E1,3.0662434E1,4.7490715E1,7.252754E0,7.174049E0,3.3393105E1,6.873226E0,4.86597E1,3.551139E1,6.2866592E0,3.5136995E0,6.817293E0,2.1052284E0,0E0,0E0,0E0,0E0,0E0,0E0,0E0,0E0,0E0,0E0,0E0,0E0,0E0,0E0,0E0,0E0],"parents":[2147483647,0,0,1,1,2,2,3,3,4,4,5,5,6,6,7,7,8,8,9,9,10,10,11,11,12,12,13,13,14,14],"right_children":[2,4,6,8,10,12,14,16,18,20,22,24,26,28,30,-1,-1,-1,-1,-1,-1,-1,-1,-1,-1,-1,-1,-1,-1,-1,-1],"split_conditions":[1.608E3,1.3E2,7.65E2,1.129E3,2.24E2,4.19E2,9.58E2,4.8E2,1.455E3,2.52E2,5.83E2,2.99E2,9.29E2,2.33E2,1.86E2,5.8521875E-3,-4.8956543E-2,9.05665E-2,-2.0180732E-1,4.9712963E-2,-2.1232031E-2,-3.779904E-3,2.6936103E-2,-1.7444044E-1,7.31492E-5,1.2654182E-1,-1.5627547E-1,6.2598854E-2,-1.2269189E-1,-7.322081E-2,2.1164241E-1],"split_indices":[158,228,174,72,180,42,90,60,164,228,177,97,56,93,206,0,0,0,0,0,0,0,0,0,0,0,0,0,0,0,0],"split_type":[0,0,0,0,0,0,0,0,0,0,0,0,0,0,0,0,0,0,0,0,0,0,0,0,0,0,0,0,0,0,0],"sum_hessian":[2.5507426E4,2.5197205E4,3.1022064E2,4.275147E3,2.0922059E4,2.2263158E2,8.758907E1,4.0024785E3,2.7266827E2,6.7457373E3,1.4176321E4,2.05629E2,1.7002586E1,7.115401E1,1.6435068E1,2.0465885E3,1.95589E3,2.6614575E2,6.522509E0,5.7201567E3,1.0255802E3,8.580118E3,5.596203E3,1.8499004E2,2.0638956E1,1.2335226E1,4.6673594E0,3.0425732E1,4.0728275E1,2.2463381E0,1.4188731E1],"tree_param":{"num_deleted":"0","num_feature":"240","num_nodes":"31","size_leaf_vector":"1"}},{"base_weights":[-3.1932794E-2,1.495588E-2,-3.891785E-1,-1.3501321E-1,7.353663E-2,-4.6166164E-1,-1.202151E-1,-7.693332E-2,-4.3906325E-1,2.7572513E-1,2.6856195E-2,-4.7740707E-1,-2.5274718E-1,-3.3790797E-1,-4.598763E-2,-6.3256067E-3,-1.1637999E-1,-1.3500054E-1,1.7992657E-1,1.3218583E-1,2.9573932E-2,-2.386945E-2,3.1572796E-2,-1.4550923E-1,-2.5170485E-2,3.4834883E-1,-8.677826E-2,-1.10190876E-1,3.380046E-1,-3.887403E-2,5.9161134E-2],"categories":[],"categories_nodes":[],"categories_segments":[],"categories_sizes":[],"default_left":[0,0,0,0,0,0,0,0,0,0,0,0,0,0,0,0,0,0,0,0,0,0,0,0,0,0,0,0,0,0,0],"id":37,"left_children":[1,3,5,7,9,11,13,15,17,19,21,23,25,27,29,-1,-1,-1,-1,-1,-1,-1,-1,-1,-1,-1,-1,-1,-1,-1,-1],"loss_changes":[2.514428E2,1.1658979E2,3.389731E1,6.579622E1,9.006248E1,4.39093E0,5.980355E0,5.4375633E1,7.061302E0,5.22397E1,6.469353E1,3.7820435E0,5.408211E0,4.468998E0,5.674315E0,0E0,0E0,0E0,0E0,0E0,0E0,0E0,0E0,0E0,0E0,0E0,0E0,0E0,0E0,0E0,0E0],"parents":[2147483647,0,0,1,1,2,2,3,3,4,4,5,5,6,6,7,7,8,8,9,9,10,10,11,11,12,12,13,13,14,14],"right_children":[2,4,6,8,10,12,14,16,18,20,22,24,26,28,30,-1,-1,-1,-1,-1,-1,-1,-1,-1,-1,-1,-1,-1,-1,-1,-1],"split_conditions":[3.94E2,1.38E2,4.9E2,2.46E2,2.16E2,3.33E2,2.31E2,6.83E2,3.19E2,2.15E2,1.92E2,6.26E2,1.48E2,6.75E2,5.08E2,-6.3256067E-3,-1.1637999E-1,-1.3500054E-1,1.7992657E-1,1.3218583E-1,2.9573932E-2,-2.386945E-2,3.1572796E-2,-1.4550923E-1,-2.5170485E-2,3.4834883E-1,-8.677826E-2,-1.10190876E-1,3.380046E-1,-3.887403E-2,5.9161134E-2],"split_indices":[204,204,165,220,204,149,221,36,130,91,6,97,150,105,43,0,0,0,0,0,0,0,0,0,0,0,0,0,0,0,0],"split_type":[0,0,0,0,0,0,0,0,0,0,0,0,0,0,0,0,0,0,0,0,0,0,0,0,0,0,0,0,0,0,0],"sum_hessian":[1.5009467E4,1.3268878E4,1.7405886E3,3.726804E3,9.542074E3,1.3705277E3,3.7006085E2,3.130136E3,5.96668E2,1.7888898E3,7.753184E3,1.2732782E3,9.724949E1,9.3193245E1,2.768676E2,2.6545176E3,4.756184E2,5.910116E2,5.656409E0,9.257115E2,8.631783E2,3.288522E3,4.464662E3,1.2488508E3,2.4427456E1,1.6728139E0,9.5576675E1,9.2094086E1,1.0991567E0,2.0639156E2,7.047604E1],"tree_param":{"num_deleted":"0","num_feature":"240","num_nodes":"31","size_leaf_vector":"1"}},{"base_weights":[-3.1669687E-2,1.4178832E-2,-3.7815702E-1,-1.15143195E-1,7.27252E-2,-4.2075375E-1,-1.7151305E-1,-1.8020344E-1,1.2913741E-1,2.3815088E-1,-3.7185304E-2,-4.3188855E-1,-9.574085E-2,-2.5767258E-1,1.3636525E-1,-6.6203676E-2,6.292998E-2,7.646302E-2,-3.2769218E-2,1.12277105E-1,1.6061654E-2,-5.8391985E-2,1.4402178E-2,-1.1155751E-1,-1.437361E-1,3.5827821E-1,-9.250558E-2,3.491E-2,-9.860445E-2,1.18551385E-2,4.223099E-1],"categories":[],"categories_nodes":[],"categories_segments":[],"categories_sizes":[],"default_left":[0,0,0,0,0,0,0,0,0,0,0,0,0,0,0,0,0,0,0,0,0,0,0,0,0,0,0,0,0,0,0],"id":38,"left_children":[1,3,5,7,9,11,13,15,17,19,21,23,25,27,29,-1,-1,-1,-1,-1,-1,-1,-1,-1,-1,-1,-1,-1,-1,-1,-1],"loss_changes":[2.4110182E2,1.0149555E2,1.5539612E1,6.6417435E1,1.6778433E2,5.277771E0,8.1206255E0,5.2124382E1,2.6379671E1,9.2538376E1,7.438844E1,3.8503113E0,1.4073756E1,6.37294E0,8.231052E0,0E0,0E0,0E0,0E0,0E0,0E0,0E0,0E0,0E0,0E0,0E0,0E0,0E0,0E0,0E0,0E0],"parents":[2147483647,0,0,1,1,2,2,3,3,4,4,5,5,6,6,7,7,8,8,9,9,10,10,11,11,12,12,13,13,14,14],"right_children":[2,4,6,8,10,12,14,16,18,20,22,24,26,28,30,-1,-1,-1,-1,-1,-1,-1,-1,-1,-1,-1,-1,-1,-1,-1,-1],"split_conditions":[4.53E2,1.36E2,3.95E2,2.62E2,2.06E2,4.38E2,5.03E2,2.46E2,1.75E2,2.76E2,1.63E2,2.01E2,1.64E2,1.62E2,1.521E3,-6.6203676E-2,6.292998E-2,7.646302E-2,-3.2769218E-2,1.12277105E-1,1.6061654E-2,-5.8391985E-2,1.4402178E-2,-1.1155751E-1,-1.437361E-1,3.5827821E-1,-9.250558E-2,3.491E-2,-9.860445E-2,1.18551385E-2,4.223099E-1],"split_indices":[158,142,197,220,142,23,36,226,128,170,158,130,98,234,153,0,0,0,0,0,0,0,0,0,0,0,0,0,0,0,0],"split_type":[0,0,0,0,0,0,0,0,0,0,0,0,0,0,0,0,0,0,0,0,0,0,0,0,0,0,0,0,0,0,0],"sum_hessian":[1.5175729E4,1.3403134E4,1.7725945E3,4.176584E3,9.22655E3,1.4687883E3,3.038062E2,3.2983765E3,8.7820764E2,3.6826487E3,5.543901E3,1.4198171E3,4.897109E1,2.3750397E2,6.6302246E1,2.9886182E3,3.0975827E2,5.748858E2,3.0332184E2,2.1192178E3,1.5634308E3,1.9459926E3,3.5979082E3,6.2910986E2,7.9070734E2,6.2758336E0,4.2695255E1,3.7792618E1,1.9971135E2,6.2567074E1,3.7351716E0],"tree_param":{"num_deleted":"0","num_feature":"240","num_nodes":"31","size_leaf_vector":"1"}},{"base_weights":[3.1038579E-2,-6.103789E-2,4.8419766E-2,-1.2982497E-1,6.660547E-2,5.1515315E-2,-4.3307522E-1,-1.5582594E-1,2.8645986E-1,1.6026053E-1,-5.0140295E-2,5.6585137E-2,-2.3895179E-1,-6.267053E-1,-6.8755016E-2,-2.263375E-2,-8.4964514E-2,1.20040976E-1,-2.5230851E-2,1.4156415E-2,8.194774E-2,-5.813513E-2,2.7371433E-2,3.345596E-2,8.666228E-3,-1.2053748E-1,5.574564E-2,-1.9495876E-1,1.4134389E-1,-5.4102752E-2,1.3804051E-1],"categories":[],"categories_nodes":[],"categories_segments":[],"categories_sizes":[],"default_left":[0,0,0,0,0,0,0,0,0,0,0,0,0,0,0,0,0,0,0,0,0,0,0,0,0,0,0,0,0,0,0],"id":39,"left_children":[1,3,5,7,9,11,13,15,17,19,21,23,25,27,29,-1,-1,-1,-1,-1,-1,-1,-1,-1,-1,-1,-1,-1,-1,-1,-1],"loss_changes":[4.0149418E1,3.4987514E1,3.1475338E1,2.8068462E1,1.526882E1,3.0892166E1,9.473776E0,2.493785E1,6.4600973E0,9.876673E0,1.2650179E1,3.1355728E1,2.4968723E1,2.542572E0,2.9123693E0,0E0,0E0,0E0,0E0,0E0,0E0,0E0,0E0,0E0,0E0,0E0,0E0,0E0,0E0,0E0,0E0],"parents":[2147483647,0,0,1,1,2,2,3,3,4,4,5,5,6,6,7,7,8,8,9,9,10,10,11,11,12,12,13,13,14,14],"right_children":[2,4,6,8,10,12,14,16,18,20,22,24,26,28,30,-1,-1,-1,-1,-1,-1,-1,-1,-1,-1,-1,-1,-1,-1,-1,-1],"split_conditions":[1.35E2,2.77E2,1.729E3,1.056E3,3.48E2,1.438E3,1.89E2,1.94E2,1.036E3,2.19E2,3.38E2,2.24E2,2.42E2,2.51E2,3.75E2,-2.263375E-2,-8.4964514E-2,1.20040976E-1,-2.5230851E-2,1.4156415E-2,8.194774E-2,-5.813513E-2,2.7371433E-2,3.345596E-2,8.666228E-3,-1.2053748E-1,5.574564E-2,-1.9495876E-1,1.4134389E-1,-5.4102752E-2,1.3804051E-1],"split_indices":[124,208,42,188,212,202,131,0,180,90,72,180,14,140,79,0,0,0,0,0,0,0,0,0,0,0,0,0,0,0,0],"split_type":[0,0,0,0,0,0,0,0,0,0,0,0,0,0,0,0,0,0,0,0,0,0,0,0,0,0,0,0,0,0,0],"sum_hessian":[2.5084293E4,3.9828289E3,2.1101463E4,2.5880894E3,1.3947396E3,2.0967555E4,1.339081E2,2.4365303E3,1.51559E2,7.736967E2,6.2104285E2,2.0608656E4,3.5889905E2,8.6966606E1,4.694149E1,1.494881E3,9.4164935E2,1.1591899E2,3.564002E1,3.8725912E2,3.8643762E2,3.0786984E2,3.13173E2,6.9068384E3,1.3701818E4,2.594793E2,9.941975E1,8.5569725E1,1.3968807E0,3.9307285E1,7.634202E0],"tree_param":{"num_deleted":"0","num_feature":"240","num_nodes":"31","size_leaf_vector":"1"}},{"base_weights":[-2.4865333E-2,3.0828577E-2,-2.8775516E-1,6.959227E-2,-1.806145E-1,-4.1184753E-1,-4.1972626E-2,1.9556476E-1,7.1340725E-3,-4.0725482E-1,-5.4732032E-2,-4.3032315E-1,-4.088104E-2,-1.9878303E-1,7.9394855E-2,1.9369744E-2,9.9972576E-2,-6.969798E-2,2.7569463E-2,-1.4037573E-1,-8.107119E-3,7.0673903E-3,-8.924034E-2,-1.3834712E-1,-7.86756E-2,6.300512E-2,-1.4107016E-1,-7.5766385E-2,1.3399445E-1,3.6045734E-2,-1.2825571E-1],"categories":[],"categories_nodes":[],"categories_segments":[],"categories_sizes":[],"default_left":[0,0,0,0,0,0,0,0,0,0,0,0,0,0,0,0,0,0,0,0,0,0,0,0,0,0,0,0,0,0,0],"id":40,"left_children":[1,3,5,7,9,11,13,15,17,19,21,23,25,27,29,-1,-1,-1,-1,-1,-1,-1,-1,-1,-1,-1,-1,-1,-1,-1,-1],"loss_changes":[2.1339265E2,9.8590866E1,7.769267E1,7.9973404E1,5.31464E1,1.1585724E1,1.6305492E1,6.0743088E1,1.3797234E2,1.5333923E1,2.2797943E1,8.235687E0,8.869761E0,1.3083111E1,1.0034658E1,0E0,0E0,0E0,0E0,0E0,0E0,0E0,0E0,0E0,0E0,0E0,0E0,0E0,0E0,0E0,0E0],"parents":[2147483647,0,0,1,1,2,2,3,3,4,4,5,5,6,6,7,7,8,8,9,9,10,10,11,11,12,12,13,13,14,14],"right_children":[2,4,6,8,10,12,14,16,18,20,22,24,26,28,30,-1,-1,-1,-1,-1,-1,-1,-1,-1,-1,-1,-1,-1,-1,-1,-1],"split_conditions":[2.93E2,5.93E2,5.92E2,1.31E2,1.34E2,4.03E2,2.12E2,1.79E2,2.12E2,3.32E2,4.2E2,5.31E2,4.71E2,2.96E2,2.95E2,1.9369744E-2,9.9972576E-2,-6.969798E-2,2.7569463E-2,-1.4037573E-1,-8.107119E-3,7.0673903E-3,-8.924034E-2,-1.3834712E-1,-7.86756E-2,6.300512E-2,-1.4107016E-1,-7.5766385E-2,1.3399445E-1,3.6045734E-2,-1.2825571E-1],"split_indices":[210,44,164,134,210,149,137,30,134,159,195,168,189,134,122,0,0,0,0,0,0,0,0,0,0,0,0,0,0,0,0],"split_type":[0,0,0,0,0,0,0,0,0,0,0,0,0,0,0,0,0,0,0,0,0,0,0,0,0,0,0,0,0,0,0],"sum_hessian":[1.457304E4,1.2026151E4,2.5468894E3,1.0163547E4,1.8626039E3,1.6919635E3,8.5492584E2,3.3681545E3,6.7953926E3,6.6431964E2,1.1982843E3,1.6115422E3,8.042123E1,3.7272116E2,4.8220468E2,1.7266893E3,1.6414651E3,1.7761073E3,5.019285E3,5.727148E2,9.160488E1,9.06736E2,2.9154825E2,1.3602506E3,2.5129167E2,5.108176E1,2.9339462E1,3.4461926E2,2.81019E1,4.470253E2,3.517937E1],"tree_param":{"num_deleted":"0","num_feature":"240","num_nodes":"31","size_leaf_vector":"1"}},{"base_weights":[-2.8326478E-2,1.8193018E-2,-3.1738853E-1,-7.5904004E-2,1.0261264E-1,-4.0278107E-1,-4.7484845E-2,1.175561E-2,-2.272066E-1,3.3391628E-1,2.3855895E-2,-4.530649E-1,-2.970942E-1,-2.568511E-1,1.4931561E-1,-2.3180539E-2,6.26448E-2,-4.992368E-2,-1.3055575E-1,1.3461305E-1,2.2011086E-2,-2.587989E-3,7.418266E-2,-1.4090085E-1,-6.674089E-2,-5.326018E-2,-1.2118497E-1,1.7242975E-3,-1.02262914E-1,-1.0990618E-1,6.3546605E-2],"categories":[],"categories_nodes":[],"categories_segments":[],"categories_sizes":[],"default_left":[0,0,0,0,0,0,0,0,0,0,0,0,0,0,0,0,0,0,0,0,0,0,0,0,0,0,0,0,0,0,0],"id":41,"left_children":[1,3,5,7,9,11,13,15,17,19,21,23,25,27,29,-1,-1,-1,-1,-1,-1,-1,-1,-1,-1,-1,-1,-1,-1,-1,-1],"loss_changes":[1.9759354E2,1.00557E2,4.6928207E1,7.940108E1,1.21541916E2,8.088074E0,2.025686E1,6.652793E1,2.769458E1,5.0655533E1,3.6133602E1,3.9026031E0,6.338234E0,5.256221E0,8.250933E0,0E0,0E0,0E0,0E0,0E0,0E0,0E0,0E0,0E0,0E0,0E0,0E0,0E0,0E0,0E0,0E0],"parents":[2147483647,0,0,1,1,2,2,3,3,4,4,5,5,6,6,7,7,8,8,9,9,10,10,11,11,12,12,13,13,14,14],"right_children":[2,4,6,8,10,12,14,16,18,20,22,24,26,28,30,-1,-1,-1,-1,-1,-1,-1,-1,-1,-1,-1,-1,-1,-1,-1,-1],"split_conditions":[3.57E2,1.48E2,4.39E2,1.74E2,2.1E2,3.7E2,4.41E2,2.23E2,4.2E2,2.65E2,3.19E2,2.77E2,5.83E2,1.67E2,1.89E2,-2.3180539E-2,6.26448E-2,-4.992368E-2,-1.3055575E-1,1.3461305E-1,2.2011086E-2,-2.587989E-3,7.418266E-2,-1.4090085E-1,-6.674089E-2,-5.326018E-2,-1.2118497E-1,1.7242975E-3,-1.02262914E-1,-1.0990618E-1,6.3546605E-2],"split_indices":[154,150,199,126,150,194,38,226,82,171,226,218,74,238,211,0,0,0,0,0,0,0,0,0,0,0,0,0,0,0,0],"split_type":[0,0,0,0,0,0,0,0,0,0,0,0,0,0,0,0,0,0,0,0,0,0,0,0,0,0,0,0,0,0,0],"sum_hessian":[1.4692795E4,1.2656835E4,2.0359598E3,5.9854014E3,6.671434E3,1.5462596E3,4.897003E2,3.7903328E3,2.1950684E3,1.6937515E3,4.9776826E3,1.0455294E3,5.0073022E2,2.3712723E2,2.5257306E2,2.6112717E3,1.179061E3,1.6999552E3,4.9511325E2,1.1752335E3,5.18518E2,4.346688E3,6.309946E2,9.7433325E2,7.119615E1,2.3757274E2,2.631575E2,5.7707928E1,1.794193E2,2.6780054E1,2.25793E2],"tree_param":{"num_deleted":"0","num_feature":"240","num_nodes":"31","size_leaf_vector":"1"}},{"base_weights":[2.6094375E-2,-1.9263983E-2,5.59688E-2,-1.1382992E-1,2.3338588E-2,1.3478215E-1,3.10223E-2,-1.4155066E-3,-2.5960344E-1,3.6194637E-2,-4.534345E-1,2.0932347E-1,-8.890748E-3,-2.5439914E-2,7.481531E-2,3.1888895E-2,-4.412423E-2,-1.16187006E-1,-2.2808228E-2,-8.001482E-3,3.2067113E-2,-1.6330476E-1,6.9195285E-2,7.809527E-2,1.4363525E-3,-2.9843517E-2,8.370349E-2,2.0819673E-2,-4.454595E-2,2.4487069E-2,-6.440397E-2],"categories":[],"categories_nodes":[],"categories_segments":[],"categories_sizes":[],"default_left":[0,0,0,0,0,0,0,0,0,0,0,0,0,0,0,0,0,0,0,0,0,0,0,0,0,0,0,0,0,0,0],"id":42,"left_children":[1,3,5,7,9,11,13,15,17,19,21,23,25,27,29,-1,-1,-1,-1,-1,-1,-1,-1,-1,-1,-1,-1,-1,-1,-1,-1],"loss_changes":[3.3466873E1,3.951568E1,2.9271797E1,4.99198E1,4.146623E1,3.8338837E1,2.7971426E1,2.7017338E1,3.1060555E1,2.927264E1,1.1173168E1,2.4581718E1,3.1944221E1,5.767918E1,1.2573994E1,0E0,0E0,0E0,0E0,0E0,0E0,0E0,0E0,0E0,0E0,0E0,0E0,0E0,0E0,0E0,0E0],"parents":[2147483647,0,0,1,1,2,2,3,3,4,4,5,5,6,6,7,7,8,8,9,9,10,10,11,11,12,12,13,13,14,14],"right_children":[2,4,6,8,10,12,14,16,18,20,22,24,26,28,30,-1,-1,-1,-1,-1,-1,-1,-1,-1,-1,-1,-1,-1,-1,-1,-1],"split_conditions":[2.23E2,1.38E2,2.86E2,1.36E2,1.476E3,3.99E2,5.24E2,1.81E2,7.4E2,2.73E2,9.13E2,3.12E2,2.43E2,2.21E2,8.48E2,3.1888895E-2,-4.412423E-2,-1.16187006E-1,-2.2808228E-2,-8.001482E-3,3.2067113E-2,-1.6330476E-1,6.9195285E-2,7.809527E-2,1.4363525E-3,-2.9843517E-2,8.370349E-2,2.0819673E-2,-4.454595E-2,2.4487069E-2,-6.440397E-2],"split_indices":[208,92,182,208,198,208,182,36,158,162,186,140,156,12,142,0,0,0,0,0,0,0,0,0,0,0,0,0,0,0,0],"split_type":[0,0,0,0,0,0,0,0,0,0,0,0,0,0,0,0,0,0,0,0,0,0,0,0,0,0,0,0,0,0,0],"sum_hessian":[2.4696008E4,9.806758E3,1.4889251E4,3.0453188E3,6.7614385E3,3.578695E3,1.1310556E4,1.7199644E3,1.3253545E3,6.584805E3,1.7663329E2,2.3559229E3,1.2227723E3,4.9408066E3,6.3697495E3,9.889546E2,7.3100977E2,7.810113E2,5.443432E2,3.485735E3,3.09907E3,1.5609288E2,2.0540413E1,1.8855511E3,4.703716E2,9.3061237E2,2.9216E2,2.7904714E3,2.150335E3,6.2240913E3,1.4565807E2],"tree_param":{"num_deleted":"0","num_feature":"240","num_nodes":"31","size_leaf_vector":"1"}},{"base_weights":[-2.1134421E-2,9.331553E-3,-4.1566452E-1,-7.828169E-2,7.486311E-2,-4.5650938E-1,8.22021E-2,-1.4320841E-1,1.5106344E-1,2.7191448E-1,5.762774E-3,-4.6715504E-1,1.3354963E-1,-7.460581E-2,4.200193E-1,-3.799326E-3,-6.789078E-2,8.8962026E-2,8.649065E-3,1.0758829E-1,-2.8225392E-2,-2.4633529E-2,3.9733365E-2,-1.16618045E-1,-1.4897215E-1,1.9973496E-1,-1.4014281E-1,2.0152865E-1,-5.5479717E-2,-1.4088637E-1,1.6639923E-1],"categories":[],"categories_nodes":[],"categories_segments":[],"categories_sizes":[],"default_left":[0,0,0,0,0,0,0,0,0,0,0,0,0,0,0,0,0,0,0,0,0,0,0,0,0,0,0,0,0,0,0],"id":43,"left_children":[1,3,5,7,9,11,13,15,17,19,21,23,25,27,29,-1,-1,-1,-1,-1,-1,-1,-1,-1,-1,-1,-1,-1,-1,-1,-1],"loss_changes":[1.703752E2,7.55584E1,2.0700424E1,8.38764E1,1.02512955E2,5.9621887E0,4.1572723E0,4.761103E1,2.209399E1,6.206874E1,6.207387E1,1.9361267E0,5.8811545E0,4.5745325E0,3.2363496E0,0E0,0E0,0E0,0E0,0E0,0E0,0E0,0E0,0E0,0E0,0E0,0E0,0E0,0E0,0E0,0E0],"parents":[2147483647,0,0,1,1,2,2,3,3,4,4,5,5,6,6,7,7,8,8,9,9,10,10,11,11,12,12,13,13,14,14],"right_children":[2,4,6,8,10,12,14,16,18,20,22,24,26,28,30,-1,-1,-1,-1,-1,-1,-1,-1,-1,-1,-1,-1,-1,-1,-1,-1],"split_conditions":[4.61E2,5.49E2,7.32E2,2.57E2,3.31E2,6.86E2,1.26E3,1.31E2,1.88E2,2.41E2,2.36E2,3.59E2,7.09E2,7.16E2,5.26E2,-3.799326E-3,-6.789078E-2,8.8962026E-2,8.649065E-3,1.0758829E-1,-2.8225392E-2,-2.4633529E-2,3.9733365E-2,-1.16618045E-1,-1.4897215E-1,1.9973496E-1,-1.4014281E-1,2.0152865E-1,-5.5479717E-2,-1.4088637E-1,1.6639923E-1],"split_indices":[206,68,165,134,50,94,178,134,25,214,18,210,206,172,59,0,0,0,0,0,0,0,0,0,0,0,0,0,0,0,0],"split_type":[0,0,0,0,0,0,0,0,0,0,0,0,0,0,0,0,0,0,0,0,0,0,0,0,0,0,0,0,0,0,0],"sum_hessian":[1.4173289E4,1.3158179E4,1.0151102E3,5.6303784E3,7.5278E3,9.382218E2,7.688841E1,4.3884116E3,1.2419669E3,1.953663E3,5.574137E3,9.2179926E2,1.6422552E1,5.30451E1,2.384331E1,1.7073127E3,2.6810989E3,5.6641656E2,6.7555035E2,1.5794719E3,3.74191E2,3.291379E3,2.282758E3,2.5532793E2,6.664713E2,8.650001E0,7.7725506E0,6.1758866E0,4.6869213E1,2.807227E0,2.1036083E1],"tree_param":{"num_deleted":"0","num_feature":"240","num_nodes":"31","size_leaf_vector":"1"}},{"base_weights":[-2.4182322E-2,1.3935744E-2,-3.178603E-1,-1.02913745E-1,7.038878E-2,-4.0679234E-1,-2.2897342E-2,-4.9164973E-2,-3.250526E-1,1.985512E-1,-4.769986E-3,-4.6698347E-1,-2.9730758E-1,-2.8003147E-1,1.2847689E-1,2.4538678E-3,-1.0743815E-1,-1.1369895E-1,1.1697876E-1,8.641629E-2,-1.6096316E-2,-5.3129993E-2,1.9751012E-2,-1.432926E-1,-3.919711E-2,-3.0892363E-2,-1.1755616E-1,-9.414776E-2,1.9314834E-1,8.2888566E-2,-3.292294E-2],"categories":[],"categories_nodes":[],"categories_segments":[],"categories_sizes":[],"default_left":[0,0,0,0,0,0,0,0,0,0,0,0,0,0,0,0,0,0,0,0,0,0,0,0,0,0,0,0,0,0,0],"id":44,"left_children":[1,3,5,7,9,11,13,15,17,19,21,23,25,27,29,-1,-1,-1,-1,-1,-1,-1,-1,-1,-1,-1,-1,-1,-1,-1,-1],"loss_changes":[1.596592E2,8.32846E1,4.297162E1,4.9089615E1,8.199931E1,8.157196E0,1.4851551E1,5.8695366E1,3.10447E1,7.104809E1,6.5314E1,2.8432465E0,8.215401E0,4.615471E0,8.491151E0,0E0,0E0,0E0,0E0,0E0,0E0,0E0,0E0,0E0,0E0,0E0,0E0,0E0,0E0,0E0,0E0],"parents":[2147483647,0,0,1,1,2,2,3,3,4,4,5,5,6,6,7,7,8,8,9,9,10,10,11,11,12,12,13,13,14,14],"right_children":[2,4,6,8,10,12,14,16,18,20,22,24,26,28,30,-1,-1,-1,-1,-1,-1,-1,-1,-1,-1,-1,-1,-1,-1,-1,-1],"split_conditions":[3.59E2,1.36E2,4.44E2,2.75E2,2E2,3.58E2,4.48E2,3.35E2,2.82E2,2.42E2,1.98E2,6.52E2,2.04E2,1.232E3,6.11E2,2.4538678E-3,-1.0743815E-1,-1.1369895E-1,1.1697876E-1,8.641629E-2,-1.6096316E-2,